{"settings":{"weightDecay":9.999999747378752E-6,"stepWeights":0.032999999821186066,"stepBiases":0.0032999999821186066,"lossFunction":"com.alphander.networks.network.loss.lossfunctions.MSE","size":[2.0,16.0,16.0,2.0]},"activators":["com.alphander.networks.network.activation.activators.Tanh","com.alphander.networks.network.activation.activators.ReLU","com.alphander.networks.network.activation.activators.Tanh"],"weights":[0.26731428503990173,-0.7378965616226196,1.1683396100997925,0.2566632032394409,1.240073800086975,0.14182248711585999,0.2438121885061264,0.26882562041282654,0.28621628880500793,0.3556691110134125,0.602464497089386,-0.13510148227214813,-0.3048802614212036,0.5661742091178894,-0.4831276834011078,-0.006484354380518198,-0.1253506988286972,-0.8871959447860718,-0.5515772104263306,0.5147321820259094,-1.8080263137817383,-0.30913427472114563,-0.2330285906791687,-0.24434660375118256,-0.09052415192127228,-0.24132533371448517,-0.21468818187713623,-0.07007558643817902,-0.10259246826171875,-0.04599795117974281,-0.7393243908882141,-0.2360149621963501,0.33247506618499756,0.19718030095100403,-0.2967713177204132,0.07448264956474304,0.14870145916938782,-0.06427080184221268,-0.1758735328912735,0.30721497535705566,0.12591668963432312,0.25822535157203674,-0.03010924905538559,-0.11125921458005905,-0.2557680308818817,-0.05383697524666786,-0.1471913605928421,-0.12426374852657318,0.3442550599575043,0.1270068883895874,0.1893455535173416,-0.6865448355674744,-0.5315055847167969,-0.0434982068836689,0.2754860818386078,0.09539370983839035,-0.11588417738676071,-0.030267369002103806,-0.44180428981781006,0.37973541021347046,0.05892613157629967,0.09791164100170135,-0.1281757950782776,-0.14838425815105438,0.7412408590316772,-0.34221675992012024,-0.2595895826816559,-0.4708520174026489,0.10384117811918259,-0.2634078860282898,0.5752726793289185,0.32938268780708313,-0.19188345968723297,0.15959900617599487,-0.3897361159324646,-0.13891243934631348,-0.21820218861103058,0.2402564138174057,0.381146639585495,0.22841131687164307,0.3012925088405609,-0.3235436677932739,0.3032412827014923,0.31340292096138,0.3511171340942383,0.3217657208442688,0.11732827872037888,0.2362213283777237,0.18301159143447876,-0.2517220377922058,0.24038684368133545,0.02782888524234295,-0.011461539193987846,0.3653602600097656,-0.3184144198894501,0.21147604286670685,-1.133815884590149,-0.06362707167863846,0.44868847727775574,0.1558985710144043,0.716465413570404,0.03714725375175476,-0.6247565150260925,0.09278403967618942,0.016756124794483185,-0.013222876936197281,1.14053475856781,-0.005088528618216515,0.015388072468340397,0.05069002881646156,-0.20345503091812134,0.11277305334806442,-0.03143954277038574,0.18335410952568054,-0.3128088712692261,-0.017281927168369293,-0.3740953505039215,0.15245595574378967,0.024351201951503754,-0.06195995211601257,0.017923913896083832,0.2941738963127136,-0.12344814836978912,0.18021391332149506,-0.23477652668952942,-0.07384228706359863,-0.13017448782920837,-0.22898975014686584,0.1658562421798706,0.13617072999477386,-0.3328953683376312,-0.2848301827907562,-0.26442158222198486,0.2448238879442215,0.24570341408252716,-0.03265686705708504,-0.3014720678329468,-0.1703042834997177,0.07473418116569519,0.08273480087518692,-0.27992627024650574,-0.032902736216783524,-0.2260989099740982,-0.0023281772155314684,0.06484697014093399,0.02646574378013611,-0.28426191210746765,-0.26509737968444824,-0.1009262427687645,-0.3010507822036743,0.03244912251830101,-0.09000720083713531,0.27107179164886475,-0.1277533620595932,0.06632834672927856,-0.3281944990158081,0.1489204317331314,-0.005406681448221207,0.33808761835098267,-0.13652312755584717,0.3086429238319397,0.19129975140094757,-0.09141645580530167,-0.023286016657948494,0.23304179310798645,-0.1418016403913498,0.15195631980895996,-0.23298358917236328,0.20904092490673065,0.273353636264801,-0.10118348896503448,0.25221842527389526,0.018499432131648064,-0.010047133080661297,0.21380209922790527,0.1334860622882843,0.1540747433900833,-0.3008628785610199,0.07692398875951767,-0.35221168398857117,-0.3535600006580353,-0.25782835483551025,0.3359309434890747,-0.31271234154701233,-0.034190285950899124,-0.01858963631093502,0.1726081222295761,0.06667441874742508,-0.20162774622440338,0.10527931898832321,0.1782035529613495,0.1497180312871933,0.4962417185306549,-0.31364530324935913,-0.18408842384815216,-0.11075592041015625,0.13937915861606598,-0.2372075766324997,0.387862890958786,-0.310428261756897,0.19350673258304596,0.08883888274431229,-0.2780521810054779,-0.0960463359951973,-0.056945815682411194,-0.17606844007968903,-0.07111426442861557,-0.08270329982042313,-0.16450293362140656,0.03877923637628555,-0.05334116145968437,-0.23123231530189514,0.1628952920436859,0.19817997515201569,0.00976312905550003,0.17980153858661652,-0.06507448107004166,-0.017471104860305786,-0.0014933801721781492,0.29127171635627747,0.29144975543022156,0.12028346210718155,0.14841297268867493,-0.2053072303533554,-0.1368478685617447,-0.1847730278968811,-0.08680768311023712,-0.35123035311698914,-0.17643196880817413,0.1190105751156807,-0.2121475636959076,-0.07491307705640793,0.12261620163917542,0.2900201082229614,0.15870393812656403,0.052551690489053726,-0.23743687570095062,0.013978744857013226,0.24462133646011353,-0.33374983072280884,0.40779808163642883,-0.3279109001159668,0.19561327993869781,0.15185901522636414,-0.023361654952168465,0.28661254048347473,0.3865826427936554,0.11165248602628708,-0.08369175344705582,-0.2856730818748474,-0.3779921531677246,-0.21747955679893494,0.04318230599164963,0.23034079372882843,-0.19479066133499146,-0.2751575708389282,0.055845070630311966,0.3893846571445465,0.13319367170333862,-0.38423120975494385,-0.5140402317047119,0.13658396899700165,0.058439821004867554,-0.1931716352701187,0.23875808715820312,-0.12207572907209396,-0.429539293050766,0.22301356494426727,0.29296988248825073,-0.3836590349674225,0.0789724737405777,0.1044631376862526,-0.12262221425771713,0.264970988035202,0.287871778011322,0.10809686779975891,0.23762305080890656,-0.21694393455982208,4.0007123607210815E-4,-0.049884945154190063,-0.109873466193676,-0.2219034880399704,-0.19853705167770386,0.10836733132600784,0.0721556693315506,-0.3262675404548645,0.16224601864814758,0.1771569848060608,1.1150615215301514,-1.1246436834335327,-0.24972811341285706,-0.17126218974590302,-0.13984471559524536,0.2800062298774719,0.2151287943124771,1.0228019952774048,0.09507175534963608,0.873500645160675,0.08845557272434235,0.4251510798931122,0.5809949040412903,-0.549713671207428,0.2140091359615326,0.09575878083705902,0.1536606103181839,0.019006701186299324,-0.0417008250951767,0.08243288099765778,-0.5293504595756531,1.2439205646514893,-0.05829588323831558,-0.21427728235721588,-0.10616807639598846,0.006989625748246908,0.33904021978378296,0.038583021610975266,0.0023532267659902573,-0.31637582182884216,0.2045687884092331,-0.10436190664768219],"biases":[-0.021956266835331917,-0.016275884583592415,0.0729655995965004,-0.01529049500823021,-0.31074148416519165,-0.004723649471998215,0.009889957495033741,0.0012062664609402418,-0.020296311005949974,0.006851904094219208,0.013607573695480824,0.0071069588884711266,0.02994726411998272,-0.02226080186665058,-0.008381014689803123,-0.0025768177583813667,-0.0269484743475914,0.0018555591814219952,0.009778854437172413,0.0054941680282354355,0.0039919535629451275,0.0021225183736532927,-0.015257751569151878,-0.0020583486184477806,-0.006047476548701525,0.006313870660960674,0.01506407093256712,0.004902722779661417,-0.005176573526114225,-0.005008846987038851,-0.005806232336908579,-0.012485713697969913,-0.022395571693778038,0.024967947974801064]}