{"settings":{"weightDecay":9.999999747378752E-6,"stepWeights":0.032999999821186066,"stepBiases":0.0032999999821186066,"lossFunction":"com.alphander.networks.network.loss.lossfunctions.MSE","size":[2.0,16.0,16.0,2.0]},"activators":["com.alphander.networks.network.activation.activators.Tanh","com.alphander.networks.network.activation.activators.ReLU","com.alphander.networks.network.activation.activators.Tanh"],"weights":[-0.17993277311325073,0.32878032326698303,0.23408757150173187,0.4362418055534363,1.0349704027175903,1.373955488204956,-0.20624397695064545,-0.14318497478961945,-1.3614109754562378,-0.2748561203479767,-0.05172489956021309,0.1652640849351883,0.2514823377132416,0.3028414249420166,0.16691449284553528,-0.6225078701972961,-0.15617921948432922,0.10827691853046417,0.0692886933684349,-0.09856515377759933,-1.8243484497070312,-0.5992076396942139,0.0010401030303910375,-0.17435243725776672,-1.427476167678833,-0.11978195607662201,-0.2408200055360794,0.3095477819442749,0.4742806851863861,0.20855608582496643,-0.19382083415985107,0.12116843461990356,0.0755392536520958,-0.23529177904129028,0.3145924508571625,0.07850638777017593,0.13744346797466278,0.06712805479764938,0.19440458714962006,0.09074071794748306,0.12179411202669144,0.041365545243024826,-0.03386985883116722,0.08294624835252762,0.05440356954932213,0.12079638242721558,0.09185652434825897,0.255447119474411,0.06212257966399193,-0.01684781163930893,0.26280489563941956,-0.18168418109416962,-0.28050723671913147,-0.2770436108112335,-0.012479119934141636,0.4526628851890564,0.2344321757555008,-0.1614195704460144,0.17376287281513214,-0.2877047657966614,-0.2704565227031708,-0.421805739402771,-0.1893402338027954,-0.11639279127120972,-0.27809157967567444,-0.20884817838668823,-0.1681501567363739,-0.15441735088825226,-0.02999214641749859,0.1446634829044342,-0.3009813725948334,0.27467143535614014,-0.012507907114923,0.15019062161445618,0.21281394362449646,0.3019622266292572,0.39121508598327637,0.1564866155385971,0.2122645229101181,-0.2624354064464569,0.009009424597024918,-0.1841244250535965,-0.3064001798629761,-0.2743557393550873,0.09544320404529572,-0.3771227300167084,-0.08597292006015778,0.23134104907512665,-0.061242543160915375,0.351188063621521,-0.24227270483970642,-0.2850145995616913,0.0698103979229927,0.012982586398720741,-0.17108890414237976,0.21741816401481628,-0.06819959729909897,-0.06695394963026047,0.3206259608268738,0.6534548401832581,-0.36684417724609375,0.11921698600053787,-0.051671676337718964,-1.1288185119628906,0.30774012207984924,-0.2863418757915497,-0.08916856348514557,0.33050110936164856,-0.20156210660934448,1.049910306930542,0.7876500487327576,0.4005466401576996,-0.25375139713287354,0.36195018887519836,-0.11310449242591858,-0.5794815421104431,0.11401289701461792,-0.09026459604501724,-0.25839725136756897,0.7278038859367371,-0.1732935756444931,-0.031318508088588715,0.33471620082855225,-0.2676871418952942,0.16048504412174225,-0.7519878149032593,-0.36750543117523193,0.014090420678257942,0.12797389924526215,0.07413028925657272,0.2958146929740906,0.29429227113723755,0.16729043424129486,0.23351770639419556,0.2546215355396271,0.1514989584684372,0.3363962471485138,0.151351198554039,0.23863057792186737,-0.13576075434684753,0.09016231447458267,0.2909678518772125,-0.004315169993788004,0.04008728265762329,-0.14031478762626648,0.012093101628124714,0.23005735874176025,0.25216972827911377,0.32493430376052856,0.2987511157989502,0.0650155320763588,-0.32379043102264404,0.2949427664279938,0.25786036252975464,0.18989670276641846,0.1618415266275406,-0.19936572015285492,0.08594664186239243,-0.1335778385400772,0.30285972356796265,0.41295260190963745,-0.6470323801040649,-0.45234861969947815,-0.8402713537216187,0.5912284255027771,-0.6121756434440613,-0.06863890588283539,0.5281479954719543,0.35220712423324585,-0.06960315257310867,0.07481779903173447,0.03718945011496544,0.6602712273597717,-0.6412172317504883,-0.7549596428871155,0.4108040928840637,-0.060326527804136276,-0.3078308701515198,0.3355890214443207,-0.11874789744615555,0.20676779747009277,-0.0962366834282875,0.3450811803340912,0.01285996288061142,-0.25127357244491577,-0.21702441573143005,0.072843998670578,0.05366897955536842,-0.18120981752872467,-0.13144658505916595,0.33829817175865173,-0.20664143562316895,-0.1377650499343872,-0.21671998500823975,0.04371337592601776,-0.16170953214168549,0.35919496417045593,-0.18910084664821625,0.19515937566757202,0.035211946815252304,-0.09309802204370499,0.08936373889446259,0.00423383666202426,-0.26588350534439087,-0.08303122967481613,0.24694491922855377,0.25106728076934814,-0.1856396347284317,0.23500561714172363,0.2501767575740814,0.24265646934509277,0.108036570250988,-0.3645387291908264,-0.25540390610694885,-0.10717791318893433,0.21249237656593323,-0.21112217009067535,-0.2631000280380249,-0.2045852243900299,-0.25176262855529785,-0.09555380046367645,-0.4418688118457794,0.07211371511220932,0.08434771746397018,0.07687614858150482,0.4714002013206482,0.18953153491020203,0.2630265951156616,-0.2668798565864563,-0.24610230326652527,-0.34435421228408813,-0.030379479750990868,0.1980474293231964,0.009186132811009884,0.171417698264122,-0.019839473068714142,0.29736170172691345,-0.1438961625099182,0.09195725619792938,-0.3412695527076721,0.1598808914422989,0.3153892159461975,0.2257411926984787,-0.001563990954309702,-0.3692775368690491,0.10173744708299637,-0.11807667464017868,0.051608189940452576,-0.022516043856739998,0.10475090146064758,-0.18924203515052795,-0.1472063958644867,0.3643084466457367,-0.2312341332435608,-0.3538384437561035,-0.28220227360725403,0.09069003164768219,-0.025451721623539925,-0.2510688006877899,-0.056678399443626404,0.20815126597881317,-0.3087862432003021,0.30963850021362305,0.22005517780780792,0.10349429398775101,-0.15728235244750977,0.004760088864713907,0.16386574506759644,0.05644501745700836,0.32505446672439575,0.050249215215444565,-0.31711986660957336,-0.07346706837415695,-0.3003499507904053,0.39698317646980286,0.36748412251472473,-0.07218454033136368,0.3623063564300537,0.20154114067554474,-0.20972852408885956,-0.1555442363023758,-0.308285653591156,-0.19928263127803802,0.28365635871887207,-0.21343828737735748,-0.11025825887918472,0.004042061511427164,-0.052829559892416,-0.05439259111881256,-0.15413115918636322,0.6893705725669861,0.5080210566520691,-0.35244259238243103,0.5395315885543823,-0.1289723813533783,1.0643571615219116,-0.177525594830513,-0.4182010591030121,-0.31897926330566406,0.6461817622184753,-0.13577325642108917,-0.1089310348033905,0.9813976287841797,-1.053826928138733,-0.14472529292106628,-0.14951272308826447,0.3309032618999481,-0.07909419387578964,0.10610989481210709,-0.2903233468532562,-0.07275976985692978,0.028203101828694344,0.17895755171775818,-0.3090492784976959,-0.7538672685623169,0.7277240753173828,-0.338876873254776,0.8508664965629578,-0.1575554758310318,-0.10967665910720825],"biases":[0.003230020171031356,-0.045158155262470245,-0.018542896956205368,-0.011209690943360329,-0.1923278570175171,0.06960705667734146,-0.0036127069033682346,0.017478739842772484,0.09946247190237045,0.008340043015778065,-0.002541076624765992,-0.0027100485749542713,-0.022657742723822594,-0.019110731780529022,-0.004208705388009548,0.012832893058657646,-0.003728340147063136,-0.0018198111793026328,0.006016922648996115,0.010803367011249065,-0.007560153026133776,0.006839649751782417,0.0016888477839529514,-0.019588550552725792,-0.004331837873905897,-0.0050365435890853405,-0.010955323465168476,0.004314906895160675,-0.012150419875979424,0.00823923759162426,0.010943369939923286,1.6964878886938095E-4,-0.011369387619197369,0.020786678418517113]}