{"settings":{"weightDecay":9.999999747378752E-6,"stepWeights":0.032999999821186066,"stepBiases":0.0032999999821186066,"lossFunction":"com.alphander.networks.network.loss.lossfunctions.MSE","size":[2.0,16.0,16.0,2.0]},"activators":["com.alphander.networks.network.activation.activators.Tanh","com.alphander.networks.network.activation.activators.ReLU","com.alphander.networks.network.activation.activators.Tanh"],"weights":[0.5171905755996704,-1.1522984504699707,-2.9437577724456787,0.4343705177307129,2.0803871154785156,0.08245778828859329,-0.015336905606091022,0.21981480717658997,0.5331004858016968,0.07744657248258591,-2.5777742862701416,-0.4675174057483673,2.2126121520996094,0.7841946482658386,-0.6217427849769592,-0.257590115070343,-1.6147334575653076,-1.2208386659622192,1.533262014389038,-1.5351192951202393,-2.865975856781006,-1.1623061895370483,-1.06243896484375,-1.3249331712722778,-1.6367824077606201,-1.1657633781433105,0.823871374130249,-0.729743242263794,-1.1924374103546143,-1.9314055442810059,-0.8249810934066772,-0.8496620655059814,0.14292395114898682,0.5101251602172852,0.7048206925392151,0.15818479657173157,-0.40484118461608887,0.2448822259902954,0.3973962962627411,0.2435651421546936,0.15248869359493256,0.267077773809433,0.33618277311325073,0.5355452299118042,1.153990387916565,0.5340607166290283,0.45699581503868103,0.3145478069782257,-0.7257649898529053,0.1525362730026245,-0.48741018772125244,-0.7023229598999023,-1.4109867811203003,-0.5585081577301025,-0.46077781915664673,-0.6317301988601685,-0.7394239902496338,-0.6533680558204651,-0.7308287024497986,-0.13363592326641083,0.6336568593978882,-0.6610285043716431,-0.03189883753657341,-0.4175748825073242,0.8691927790641785,1.1068096160888672,3.0356738567352295,0.8906744122505188,-0.07152990251779556,1.0043840408325195,1.3703303337097168,1.0733089447021484,0.9095833897590637,1.1884864568710327,1.5347235202789307,1.401172399520874,2.4472763538360596,2.606490135192871,1.1110085248947144,1.0656393766403198,0.1269790232181549,0.5141333341598511,0.6530823111534119,0.1422404795885086,-0.4241108298301697,0.2301950603723526,0.3766254186630249,0.2251056730747223,0.13539354503154755,0.245499849319458,0.30572816729545593,0.5226467847824097,1.1373594999313354,0.49072664976119995,0.4549977481365204,0.30235740542411804,0.8806546926498413,1.229032039642334,2.409921884536743,0.910480797290802,0.17969919741153717,1.041662573814392,1.3821520805358887,1.088584542274475,0.9058112502098083,1.170967698097229,1.3879541158676147,1.5093127489089966,2.616821050643921,1.8528964519500732,1.2278399467468262,1.1252650022506714,0.018836671486496925,0.47332462668418884,0.4387653172016144,0.03435444459319115,-0.5335553884506226,0.12688139081001282,0.253860741853714,0.10921136289834976,0.022986890748143196,0.11963825672864914,0.1504560112953186,0.425505131483078,1.0309871435165405,0.29327189922332764,0.39406120777130127,0.20734988152980804,0.0820072591304779,0.5578601956367493,0.4912981688976288,0.09773200005292892,-0.49473798274993896,0.1929033249616623,0.3193355202674866,0.17283770442008972,0.08597756922245026,0.18187446892261505,0.2093760371208191,0.49900054931640625,1.113922119140625,0.3560682535171509,0.4732523560523987,0.27664199471473694,0.1139402985572815,0.551986038684845,0.5642932653427124,0.1293637603521347,-0.45107945799827576,0.22114163637161255,0.3547592759132385,0.20711052417755127,0.11971066892147064,0.22051164507865906,0.26074138283729553,0.5202935338020325,1.1319506168365479,0.42035534977912903,0.4779667854309082,0.29986461997032166,0.15685716271400452,0.5219524502754211,0.7233653664588928,0.17211224138736725,-0.3928545117378235,0.2587268352508545,0.4121708273887634,0.25789913535118103,0.1666378527879715,0.28182774782180786,0.352295458316803,0.549476683139801,1.1688978672027588,0.5527722835540771,0.46949276328086853,0.32815825939178467,0.16306257247924805,0.6260110139846802,0.5837664604187012,0.17860481142997742,-0.41545966267585754,0.2725290358066559,0.4010840356349945,0.2545604407787323,0.16788198053836823,0.26502472162246704,0.2969014644622803,0.5759453773498535,1.187280297279358,0.45122793316841125,0.5449173450469971,0.3545997142791748,0.4078635573387146,0.9165408611297607,2.0527215003967285,0.4341479241847992,-0.6935590505599976,0.5838564038276672,0.9234497547149658,0.6186469793319702,0.4405292570590973,0.7028641104698181,0.9497213363647461,1.0785914659500122,2.184515953063965,1.7767809629440308,0.8588687777519226,0.6873146295547485,-0.19936004281044006,0.3167623281478882,0.15148407220840454,-0.18402142822742462,-0.7519705891609192,-0.08811329305171967,0.0189566258341074,-0.11772356927394867,-0.1991187334060669,-0.11592154949903488,-0.10895069688558578,0.2104540914297104,0.8004304766654968,0.02012161910533905,0.21690765023231506,-9.099772432819009E-4,-0.3605288565158844,-0.2079010307788849,-1.7494999170303345,-0.3688984215259552,0.12781091034412384,-0.4078109860420227,-0.6457278728485107,-0.4927822947502136,-0.39988699555397034,-0.5866814255714417,-0.8627108931541443,-0.5487543940544128,-0.9745336174964905,-1.6184189319610596,-0.2836141586303711,-0.4018280804157257,0.3674044609069824,0.6797829270362854,1.0019499063491821,0.3821318447589874,-0.18336382508277893,0.4641822874546051,0.6286553740501404,0.47242996096611023,0.3804782032966614,0.5030629634857178,0.5946892499923706,0.7451320886611938,1.3596220016479492,0.8297801613807678,0.64175945520401,0.5266441106796265,-0.42594045400619507,-0.03325778245925903,-0.15828785300254822,-0.4157145619392395,-0.7956791520118713,-0.34741073846817017,-0.2813706696033478,-0.3742655813694,-0.42853644490242004,-0.3747652769088745,-0.3759889602661133,-0.14309629797935486,0.25776156783103943,-0.2552943527698517,-0.11597753316164017,-0.28408411145210266,-0.10254498571157455,0.39624932408332825,0.25834977626800537,-0.0869046151638031,-0.6535792350769043,0.008629781194031239,0.12258215248584747,-0.017311451956629753,-0.10123834758996964,-0.013159693218767643,-6.927349022589624E-4,0.30993062257766724,0.9075902104377747,0.12173881381750107,0.3032827377319336,0.09432510286569595,0.09734459221363068,0.4963330030441284,-0.5081103444099426,-0.3506307303905487,-0.12467043846845627,0.9685438871383667,0.09470851719379425,0.48440322279930115,1.3735510110855103,0.16384857892990112,0.01749345101416111,0.3767170310020447,-0.03039119765162468,0.5011720657348633,0.06309527158737183,0.5058719515800476,0.08461712300777435,0.5524203777313232,0.06582227349281311,0.5924522280693054,0.06528567522764206,0.8578190803527832,-0.23562678694725037,0.22972869873046875,-0.5613262057304382,0.02196660451591015,-0.5228500366210938,1.229331612586975,-0.35448020696640015,-0.11283377557992935,-0.08088156580924988,0.2773984372615814],"biases":[0.056565552949905396,0.04764122515916824,-0.12661921977996826,0.07697427272796631,-0.4674321115016937,0.11982350051403046,0.18180979788303375,0.13576556742191315,0.0573061965405941,0.1942024827003479,0.2055417001247406,0.09163585305213928,0.11084851622581482,0.02745424583554268,-0.05290083959698677,0.11306101083755493,-0.010108772665262222,-0.04172928258776665,0.083869569003582,-0.0045106192119419575,-0.28273719549179077,1.645096781430766E-4,0.013418504036962986,0.009823424741625786,-0.007410623598843813,0.017421431839466095,0.03085433691740036,-0.003528784029185772,-0.007317780517041683,0.003796957666054368,-0.025713099166750908,-0.0034058347810059786,0.011039805598556995,-0.015614883974194527]}