-3.8861827E-4
1.8604555E-4
1.2572212E-4
1.4649678E-4
8.6329936E-5
-3.1158605E-5
-8.9348134E-5
1.344811E-4
-2.2300544E-4
-1.12454065E-4
6.193583E-5
-2.6245942E-4
-1.0219237E-4
-1.4404174E-4
-3.2326087E-4
3.6694164E-5
1.9318896E-4
-1.8371893E-4
1.371425E-4
-4.2252202E-4
9.989144E-5
3.4716207E-4
3.9354037E-4
-5.939737E-4
3.2900745E-5
2.0371353E-4
1.8651968E-4
-3.4505996E-4
4.720581E-4
4.4171955E-4
-3.3394294E-4
-1.4099357E-5
-2.2667837E-5
1.020435E-6
2.0052967E-4
2.1695398E-4
-3.7278962E-5
-1.4724182E-4
-2.6690534E-5
-2.0028863E-4
-3.663777E-5
9.016019E-5
3.3840457E-5
1.2015014E-4
1.3761435E-4
-6.56082E-5
-8.482617E-5
1.7521981E-5
-1.8390556E-4
4.5452824E-5
1.0404116E-4
-1.3330934E-4
-4.053298E-4
-1.0226284E-5
2.1471527E-4
-2.1078903E-4
-1.2283088E-4
-1.6707601E-4
-2.0652406E-5
-9.7150645E-5
-6.747563E-5
3.2689775E-5
7.8251935E-5
-2.6453682E-4
5.1407904E-5
9.667707E-5
1.6352317E-4
-4.6214656E-5
-2.984915E-5
-1.3515177E-4
-5.357979E-5
6.481429E-5
5.9622133E-5
1.7878335E-4
9.990516E-5
2.883021E-5
2.7065218E-5
4.1629723E-5
4.5185232E-5
6.82287E-5
-7.657034E-5
7.2211966E-5
