-5.2993756E-4
-2.7564498E-5
-3.2943717E-4
8.0313196E-4
-0.0014398699
-5.453213E-4
-4.4523165E-4
6.7084044E-4
-6.620683E-4
-9.689799E-4
-2.4157879E-4
-0.0013045383
-3.9522906E-4
3.5460625E-4
-4.3604863E-4
2.9631425E-4
-6.937323E-4
-2.0362691E-4
-7.2752434E-4
6.9917267E-4
7.6846394E-5
2.6173177E-4
-5.8874843E-4
-2.626803E-4
0.0010605972
7.141524E-4
7.681924E-4
-7.086342E-4
1.7635548E-4
1.9796516E-4
-5.2118517E-4
3.1016878E-4
1.560113E-4
-2.2203206E-4
-3.0822278E-4
3.1244833E-4
-3.296184E-4
-8.0121165E-5
4.0347225E-4
-1.3505088E-4
2.0372121E-4
1.5093795E-4
-7.654776E-5
-2.8339543E-4
5.9022506E-5
-4.2464671E-7
2.0046318E-4
8.036958E-5
2.4174908E-4
1.6910466E-5
2.4296175E-4
-2.6992252E-4
-4.6774428E-4
2.8359576E-4
1.1838433E-4
1.9236849E-4
-2.0323452E-4
2.3881072E-5
1.3403775E-4
-2.455858E-4
-0.0010338253
-3.9804506E-4
-2.450629E-4
-5.6965416E-4
1.5386766E-4
-3.090653E-4
5.4919557E-5
7.2443414E-5
6.534916E-5
-4.51472E-4
-8.1002276E-5
-1.10166424E-4
2.366027E-4
1.9171908E-4
1.5706512E-4
3.0395525E-4
-1.1247855E-4
1.9284719E-4
2.9407823E-4
-5.6502755E-5
-8.733382E-4
-0.0012584191
