-0.4127875
-0.359351
0.36869568
-0.101391435
0.047711164
-0.40198854
0.48608053
-0.26306972
0.19812532
0.3330177
0.119854145
0.33800918
0.22823735
-0.29890725
-0.37872928
-0.23758477
-0.025996929
0.01929734
-0.4061769
-0.2893658
-0.35276428
-0.1677167
-0.07275437
0.0055806604
0.3713815
0.1455503
-0.14770657
0.32615593
0.31680787
-0.33508164
0.3661799
-0.34109885
-0.17080268
-0.31416118
0.39138338
0.13159494
0.4180361
0.33597574
-0.16507125
-0.06456285
-0.16336717
0.14220327
0.10178497
-0.49378547
0.09449152
-0.44684678
-0.30111593
0.06957361
-0.22744891
-0.43834004
-0.37511832
-0.55406845
0.10442355
-0.12017922
0.34371778
-0.2957851
0.28163254
0.21187495
0.44713417
-0.38981798
-0.07503104
0.40433538
-0.27674586
0.20981319
-0.2696237
-0.09247582
0.040779304
0.22017314
0.3974476
0.06797225
-0.08825278
0.0077913064
0.027075168
0.07823756
-0.1939375
-0.31297624
0.4335299
-0.28306425
-0.36155215
-0.40665
0.17136514
-0.4334634
0.16557863
-0.1733463
0.4446954
0.36654982
-0.121545844
0.38243806
0.18776822
0.37804145
-0.38046727
0.13865612
0.040363893
-0.3348897
-0.13887013
0.3269434
0.3849088
0.076271094
-0.11543547
-0.32960308
-0.1624401
-0.27929753
0.38566306
-0.0728216
0.2647359
-0.0045428607
-0.40924802
-0.17980078
0.077094026
-0.022603361
0.33736324
0.28471282
-0.40308627
0.16226472
0.1765948
-0.27009785
-0.41292486
-0.104633436
0.12853199
-0.030812724
0.21360019
0.25702104
0.27071807
0.47236073
-0.06589234
-0.066668846
-0.44147936
-0.23557165
0.23919623
-0.2081713
-0.023809012
0.1160367
-0.37225896
-0.40708765
-0.2721253
-0.14308606
0.17921707
0.09713125
0.23960063
-0.3393813
0.16197616
0.2784572
-0.17845558
-0.44728777
-0.35043767
0.42069522
-0.124246165
0.03015846
-0.07139782
0.344581
-0.004988567
0.052404284
-0.22859225
0.2941175
0.36496678
0.34846088
0.056631505
0.44389373
0.1108047
0.359243
0.2920854
-0.18867512
-0.06771754
0.3283694
-0.029312354
0.07342561
0.26612258
-0.4162852
-0.28486118
0.15196936
-0.2510753
0.20453487
0.27931517
-0.046944376
0.3512195
-0.4210271
-0.38112402
0.28451678
0.08649568
0.22577962
0.42163673
-0.24273707
-0.37911344
-0.15831885
0.22614425
0.15570685
-0.2504405
0.036286432
-0.3929347
0.20060942
-0.25887102
-0.23401879
0.119346194
0.0133953355
0.093667984
0.3565225
0.19821055
-0.01754674
-0.2938309
0.4185789
-0.3239786
0.02403814
-0.09166658
-0.41481018
0.18587613
-0.039259564
0.15536419
-0.16947763
0.45950973
0.3102651
0.016396625
-0.36864197
0.29428264
-0.29034367
-0.05020605
0.4241306
-0.33734015
-0.05448965
-0.28147274
0.1389245
-0.40710476
-0.36176747
-0.0063381046
-0.29638442
0.23395294
0.4031852
-0.39780325
-0.16534473
0.19177268
0.21016881
-0.1741665
-0.047682498
-0.2040226
0.0036338938
-0.07092313
-0.19674101
0.44225082
0.094441585
0.17657477
0.32785526
0.36385146
0.15881583
-0.1941341
-0.044046298
0.3585337
0.34019437
-0.09297833
0.045626264
-0.34573588
-0.10630087
0.26187947
0.12594792
-0.29626808
0.39172095
-0.10450888
0.08991285
0.43402326
0.2526872
-0.15908438
-0.11892324
-0.1357652
-0.28618327
0.30075124
-0.12776318
-0.20127541
-0.2586095
-0.16090314
0.24559842
0.027965851
-0.08736115
-0.13326938
0.13744542
0.10644015
-0.44916832
-0.26097947
-0.4554093
-0.0024635054
-0.16469848
0.21968143
-0.33543158
-0.37230965
0.2825717
0.16460651
-0.40136662
-0.15249823
0.16151077
-0.015589481
-0.38001442
-0.18064885
-0.39260876
0.16648342
-0.028733594
-0.14278576
-0.0860741
0.3783781
0.1460774
-0.34730935
0.17459984
0.20402017
0.4067239
0.085658945
-0.2587904
-0.12938085
0.038751904
0.09811777
0.04681866
0.24209507
0.1328538
-0.07353315
0.006897669
-0.29882553
-0.109569
0.29596004
-0.3375042
-0.11698111
0.43193004
0.31305125
0.17533822
-0.15451007
0.25061545
0.4112178
-0.32570094
-0.0069845547
0.35857648
-0.005583898
-0.10717345
-0.27729344
0.07963093
0.13663572
-0.07252903
0.14227691
0.16240728
0.18198426
-0.30650836
0.045442536
-0.18376768
-0.25564274
-0.08165167
0.15558487
0.29791188
0.39657336
-0.32831874
0.036005627
0.18889214
-0.36973724
-0.10352721
-0.2745441
-0.08234326
-0.072585575
-0.3350422
-0.44884938
0.13074762
0.2757614
0.30245212
0.4327136
0.26029986
0.25236318
-0.40631074
0.40187722
0.16695422
-0.06835656
-0.37598234
0.4244664
0.22917144
-0.2323221
0.05170011
-0.12237535
0.36701715
0.45520857
0.06231164
-0.3119916
0.06549452
-0.04048042
-0.13520873
0.41143048
0.1636788
0.23754998
0.2441246
0.28972116
0.32155773
0.4080235
0.12771936
-0.3963292
0.32903475
-0.1015311
0.015496037
-0.3478833
-0.11663281
-0.3311053
0.028831417
0.14215146
0.16465399
-0.41486326
-0.31667975
0.34491584
0.16233216
-0.43901673
-0.22597261
-0.23113695
-0.2738783
-0.08533157
0.42131495
-0.081912324
-0.19886005
-0.41125813
-0.36394802
0.13054016
0.2031503
0.27644938
0.101527706
0.12576738
-0.061154768
-0.3701376
0.1656908
0.2999752
0.040332917
0.149488
0.090209305
0.24409531
-0.114102505
-0.34986153
-0.4148826
0.08109363
0.16421206
0.4454378
-0.44526336
-0.12040693
0.21951415
-0.4067169
0.21020672
-0.06490582
0.048196618
0.23119162
-0.32607377
0.18423049
-0.112968996
-0.011188749
-0.39636427
0.007210319
0.20357387
-0.32253656
-0.03982888
0.43523964
0.19642039
-0.16956116
0.38147876
-0.066319905
0.12103888
0.31049407
-0.20844254
-0.2843823
0.24765754
0.3813822
0.39263332
0.22961412
0.22647792
0.31731576
-0.20706792
0.27936554
-0.21878093
0.31750777
0.122268975
-0.44493672
0.44570935
-0.11162881
-0.31768706
0.30808297
-0.070908576
-0.04326659
0.36823925
-0.271568
0.22700514
0.27299824
-0.052773613
0.15866798
-0.25016382
-0.21306303
0.32870626
-0.42506614
-0.32963383
0.3028327
-0.09566417
0.15722033
0.30546698
-0.40443376
0.06965762
-0.11955371
0.21005079
0.16103214
-0.40097132
-0.09341958
-0.36668077
0.23221447
0.32604933
-0.27530518
0.13230613
0.37097332
0.0035474119
-0.15577194
0.40473425
0.3535726
-0.11749236
0.4100129
0.013809317
0.12544382
-0.41319245
-0.26444066
-0.0041233855
-0.38498178
0.27065107
-0.45302275
0.03730534
0.33709112
0.21137913
-0.037628744
-0.27785805
-0.0780189
-0.16206601
0.36176872
0.46000692
-0.11137641
-0.38826525
-0.06936523
0.005639352
-0.032970298
-0.27289745
0.26487434
-0.42840168
-0.26394388
0.06262445
-0.43730757
0.26909637
0.27831447
-0.35870495
-0.08706997
-0.4478609
0.2627
0.30695078
-0.024904456
-0.23770623
-0.17014912
-0.43477267
0.25398648
-0.00539391
-0.38491774
-0.0631871
0.40521017
-0.056609422
-0.002232034
0.33876988
-0.31507346
-0.43825337
0.30337426
-0.09841449
-0.10891559
-0.35302728
-0.38910663
0.39150396
-0.40766275
-0.3505401
-0.4357226
-0.2974174
0.16206563
0.38109568
-0.31155926
-0.06140727
-0.3917156
-0.0038622601
0.3028601
0.21044959
-0.08694888
-0.30647045
0.3343761
-0.30226433
0.16401157
0.23677477
0.09776385
0.16512012
-0.3173955
0.27902308
-0.14175247
-0.09848572
-0.37054327
0.13227028
0.36695233
0.26155597
-0.018946018
-0.28544882
-0.32596084
-0.17845465
0.13091496
-0.17166325
-0.23916474
-0.111668445
-0.0037842593
-0.36268726
-0.41759193
-0.023780497
-0.26505667
-0.18508899
0.42018476
-0.15156433
0.017562425
-0.31068885
-0.21406789
0.39487243
-0.42313024
-0.07394703
0.43433934
0.19451933
-0.17239465
-0.3447743
0.23161335
0.28170624
0.4205599
0.3969827
0.19642796
-0.14647543
-0.03553481
-0.25391564
-0.40653095
-0.2635652
0.4106265
0.18441173
-0.11429461
0.09838991
0.23797609
-0.42391858
-0.27400273
0.032696918
0.4543517
0.20309685
-0.078585975
0.046946652
0.18129182
0.23678961
-0.29290038
-0.43993133
0.13529222
-0.22064602
0.040090982
0.42527264
0.34565237
-0.43042094
0.45232514
-0.24129337
0.35482782
-0.3057838
-0.14363995
-0.37717682
0.016197177
0.16118349
0.17062363
-0.12367343
0.08276182
0.18702382
-0.31694627
0.4159794
-0.400072
0.21261036
0.1398976
0.18747774
-0.13161106
-0.35434905
-0.23611
0.04084228
-0.07816934
-0.16808127
-0.2941357
-0.24637286
-0.06306008
0.007952622
-0.06859095
0.041912567
0.14183703
-0.029579509
0.11338914
0.12255322
0.032357056
0.44364434
0.06800974
-0.39769292
-0.048733804
-0.40208283
-0.21267866
0.09756663
-0.30134156
0.31994817
-0.05030081
0.20394951
0.079567306
0.4176936
0.16085139
0.12559061
0.17796211
-0.36112136
-0.13811405
0.31081375
-0.3656796
0.48097172
0.15200698
-0.44225913
-0.2870041
0.23284517
-0.17396496
0.40744013
-0.2045736
-0.091934375
-0.08832564
0.4481255
-0.44502035
-0.37868097
-0.33562317
0.13403524
-0.081574164
-0.33762148
0.017699366
-0.16513644
-0.1554468
0.28355703
-0.035533298
-0.15112662
0.03717648
-0.13576064
0.454596
0.2929705
0.36486766
0.06443594
0.06040375
0.19371599
0.11468741
-0.16211912
-0.16313505
-0.44247243
0.42539483
-0.31895968
0.42151442
0.45414826
0.31132597
0.2558858
0.35448924
-0.200532
-0.22704507
0.28374878
0.4119463
0.37958953
-0.14394198
-0.012314109
-0.38191685
-0.051029634
-0.42529348
0.29929063
-0.38015956
-0.17107932
-0.27348757
-0.25152174
-0.25121465
0.22900271
0.45065776
-0.3674139
-0.14188711
0.3321909
-0.055680327
0.21657218
-0.13362734
-0.39596543
-0.22248289
0.28662974
0.12160103
-0.38539228
0.34845993
0.22869407
0.17882241
-0.22282548
-0.2355423
-0.2517479
0.26546106
0.12196123
-0.20805113
-0.12763557
-0.39375418
-0.22157386
-0.40686852
-0.35354856
0.12584278
0.20375252
0.124024235
-0.3081792
0.04760686
0.2170235
-0.23071723
-0.0017048172
-0.24814153
-0.21853566
-0.14204794
-0.05160804
0.016195469
-0.14623107
0.28765953
0.06794395
0.35770258
0.023342011
0.026920881
-0.31196508
0.10989913
0.33944643
0.4446135
-0.12841497
-0.33448124
-0.43961874
-0.21039774
0.08561309
-0.4254307
0.40755537
0.259327
0.29062545
0.19450498
0.14809375
-0.10326682
-0.060475323
0.19617306
0.06218067
0.010324487
0.30490303
-0.37974274
-0.16124254
-0.28148022
0.31748268
0.3704211
0.248927
-0.08410851
0.32147002
0.2145594
-0.08207647
0.36249393
-0.3076229
-0.14089018
0.16233206
-0.31168854
0.09787373
-0.35507488
-0.19671299
-0.25012922
0.44543576
-0.45710772
0.31428054
-0.24515012
0.37967846
-0.02336187
-0.33447725
0.096196115
0.36574343
-0.27040336
0.28744242
0.19235589
-0.035272717
-0.39378926
-0.214346
-0.30596298
-0.0835583
-0.07565722
0.24334276
-0.33750796
0.35029575
0.14777024
-0.048591435
0.349942
-0.09929555
-0.26823464
0.04232172
0.16730468
0.20972762
-0.28264362
0.33707199
-0.14366674
0.24857068
-0.45351976
0.07955756
-0.16083512
0.25059596
0.29268306
-0.35254204
-0.19211048
-0.2397376
0.12295307
-0.42126068
0.39963913
-0.087565884
-0.118280835
0.28023297
-0.44759858
-0.38639715
-0.41068524
-0.419639
0.11235775
-0.30353874
0.011483337
-0.28092456
0.42003843
0.43701178
-0.11082691
0.06951677
0.34508902
0.048656724
-0.07130369
-0.046265885
-0.20973895
-0.065284416
0.035681855
0.3247153
-0.097698994
-0.048408274
-0.14672618
0.32416216
-0.4390274
0.43250555
0.044263728
-0.050469555
-0.13551065
0.35314533
0.22681366
-0.43814966
0.32394314
-0.037615713
0.28004694
0.33517668
0.32584617
-0.3693588
-0.35606405
-0.013813013
-0.05248792
-0.2974939
0.44519567
0.038754925
-0.08937652
-0.075862795
-1.2926894E-4
0.20833601
-0.27087936
0.18498808
0.07687415
0.3941874
0.43328595
0.1702095
0.44697508
-0.019192522
0.007137264
-0.17427811
-0.22824112
0.20678115
0.002102503
-0.08018693
0.1439788
-0.020979004
0.30924284
0.03183736
0.11240313
0.019581644
0.3605863
0.4153513
-0.32348952
-0.22383982
0.34482542
0.36782917
0.3066115
-0.22776093
0.39133868
0.079210065
0.27772075
-0.43177116
0.21412009
0.37458327
0.15610558
0.33305454
0.3263623
0.30289054
-0.020346195
0.36480007
0.2485349
-0.39485365
-0.33673733
-0.12688401
0.34559977
0.2861984
-0.25727537
0.08970931
-0.13902332
-0.0070751794
0.24440904
0.30583638
-0.14788261
-0.3525993
0.16843095
-0.14470614
0.26430383
0.4000048
-0.3451204
-0.1802527
0.21567148
-0.3533702
0.28922042
-0.08252154
-0.29365566
-0.054916117
-0.1674958
0.2088496
-0.1643426
-0.15224002
-0.058790293
0.2437279
-0.07853029
0.05473161
0.4432041
0.15416893
0.37477013
0.11373242
-0.45499238
-0.09590225
-0.17569616
-0.4174033
-0.30323014
-0.2415303
-0.13696471
-0.09382368
0.3327765
0.19530575
0.011961767
0.4246445
0.2997621
0.2511635
0.3776809
0.1296544
0.049261257
0.1251753
0.059975933
0.033906717
0.032221615
0.010412278
0.09804585
-0.3134138
-0.20221518
0.2085123
0.026463881
0.24870448
0.24908534
-0.004852434
-0.26469734
-0.14535944
0.16729195
-0.15934405
-0.28922638
0.38777378
-0.30397105
0.35598928
-0.11143502
0.31070742
-0.42599812
-0.35795233
-0.044270072
-0.37076497
-0.14114133
-0.18043298
-0.41140023
0.36138815
0.1574869
-0.09757617
-0.005275899
-0.1118847
0.39235574
-0.41458908
0.33809915
0.08694389
-0.41124377
-0.088752046
0.06998124
0.20647855
0.11067034
-0.07750972
-0.36947742
-0.21393205
0.22028296
-0.18400821
-0.46281293
0.40673518
0.2906359
-0.3940166
-0.006858359
0.100255415
0.113417275
-0.07687795
-0.045355428
0.09644071
0.44626537
-0.115435235
-0.09528796
0.4424606
-0.19848046
-0.3853245
0.21497102
-0.19902748
0.09367248
-0.26213238
0.41801226
-0.021604927
-0.003534295
0.11521666
0.20276898
-0.22152615
0.340955
-0.2060133
-0.10418518
-0.14880891
-0.3103066
-0.08508146
0.049126893
0.30373988
0.22866628
0.3912943
0.27775586
-0.32464603
0.33687806
0.39630076
0.069619626
0.31555262
0.29039362
-0.24686335
0.3121996
-0.2526679
0.104422495
0.21741052
0.12522098
-0.13494518
0.20436177
-0.2900171
0.4507257
-0.18023966
0.37716088
-0.37434128
0.37794113
0.3906326
0.10879015
-0.42350766
-0.30332726
0.16998412
-0.07053665
0.25935268
0.19869813
0.034346554
0.39764252
-0.23201099
0.03538531
0.2689914
-0.11943813
-0.07861838
0.3580179
0.1230396
0.18097027
0.36140054
0.09931958
-0.25256488
-0.16002545
0.27224693
0.43364745
-0.38593516
-0.4192386
0.24318416
0.006819706
0.34845212
0.27302176
-0.23696387
-0.085582376
-0.3035039
0.004064632
-0.31589723
-0.008895837
-0.040993538
0.15469071
-0.2937687
-0.4541021
-0.34576008
-0.027748706
0.4148159
-0.18322712
-0.4644296
-0.17642456
0.028315619
0.2618228
-0.03996044
0.18150567
-0.2990518
0.26163065
0.42905346
0.030253304
0.13483827
0.41679484
0.07061894
0.26109505
0.07255664
0.058240056
-0.21877302
-0.30769905
-0.30100688
0.25048825
0.07329278
0.0020663133
-0.072832406
0.04818465
-0.28509164
-0.22762711
0.06615809
0.18353625
-0.23592117
-0.20444722
-0.434648
0.39777625
-0.43826538
-0.40540943
0.097349234
-0.1352134
-0.11452994
-0.09941864
0.0020749604
-0.15040143
-0.04226447
0.3811111
-0.006513066
0.3600254
0.23210318
0.37202105
0.16175526
0.14494918
0.03613082
0.12812297
-0.27788338
0.25716037
-0.3844554
-0.4490041
-0.21104093
-0.275076
-0.066066615
-0.047676787
-0.46495262
-0.23965977
-0.22842638
0.2809643
0.16721219
-0.30044004
-0.13891692
0.13850763
0.09822364
0.42223483
0.44215804
-0.29889938
-0.26311448
-0.08785374
-0.08614124
0.374448
-0.107772686
-0.3906695
0.30135036
-0.20429794
-0.24113777
0.34511098
-0.022267995
-0.40898547
-0.30938923
0.23710062
-0.41473362
0.31501332
0.29313073
0.33563185
0.3188784
-0.12772378
0.19955029
0.41531596
0.3556032
-0.33369684
0.41246048
-0.32379428
0.15340853
-0.26812682
-0.2517927
-0.016017819
0.05233331
0.1755102
-0.345319
0.021644339
-0.30188063
0.116950065
0.16479555
-0.095454484
-0.28044346
0.05820797
0.29425326
0.21882693
0.12293635
0.12260722
0.056158036
-0.30020922
-0.20204407
-0.3530673
0.3565259
0.12410773
0.38167942
-0.18722205
0.23471962
0.41822332
-0.051301166
-0.3975155
-0.3856321
-0.34399316
-0.24566175
0.32254574
0.007184629
0.43516538
0.14188169
0.46729752
0.43840152
0.29601002
-0.2096162
-0.32756257
0.3492233
-0.22853482
-0.18021037
0.22677155
-0.16495362
-0.13346684
0.30804715
-0.19137385
-0.17577921
-0.06433563
-0.3805306
0.33534297
-0.029242558
-0.03412569
0.2456725
-0.31958643
0.24190512
0.047645856
0.010711416
0.31958744
0.22156228
-0.0076083755
0.4373419
0.36975792
-0.11168464
0.20362589
0.061455544
-0.35794973
0.34195778
-0.11714892
-0.030233355
-0.1781277
-0.44374487
0.46355757
-0.28261057
0.19100599
0.3296911
-0.20311059
0.08756087
-0.20808645
-0.08883177
0.27418226
0.18250288
0.3854184
-0.39961573
-0.384751
-0.023711124
0.444061
-0.19644369
-0.2625094
0.23927303
0.13266002
0.33311683
-0.09894264
0.22604325
0.12358279
0.18593155
-0.03443073
0.093347095
0.17834093
-0.31817073
0.23097467
0.30954143
0.12523547
0.3812319
0.24333735
0.2376532
-0.16191566
-0.0117588425
-0.2782587
0.13257343
-0.3950858
-0.32291114
0.45196018
0.21923928
0.048450626
0.40068305
-0.09189021
-0.33656767
-0.12161273
0.34692997
-0.47098732
-0.1253743
0.35520196
-0.010580996
0.32180932
0.032058313
-0.078391686
-0.024852244
-0.013285268
-0.35905042
0.07313457
0.42595717
0.021495912
0.17781465
0.46991318
-0.0012348095
0.17549652
0.20068264
-0.345351
-0.37585938
0.098211184
0.16457272
0.11993859
-0.1504923
-0.08213539
-0.25414884
0.35024273
0.3375411
-0.419981
0.2880744
-0.2915541
0.008691911
-0.47737852
-0.43199536
-0.28119332
0.41197714
0.20489232
-0.14364628
-0.3725144
-0.16215156
0.13930933
-0.3723275
0.18159764
-0.45426604
0.445937
0.36768746
-0.107484475
0.3781973
0.35180834
0.0103530465
-0.35936025
0.17120758
-0.07724025
-0.33494002
0.3776728
0.43729025
-0.25099263
-0.098541155
-0.3646875
0.2956593
-0.24595049
-0.33478034
-0.0070112078
-0.48190412
-0.17569207
-0.38768336
-0.28288323
-0.17389922
-0.1356407
-0.38889915
-0.26119787
-0.44836277
-0.21008317
0.17171744
0.13380925
0.14595921
0.17163688
-0.37710297
-0.079306416
0.21513346
0.33115283
0.18720299
-0.20734902
-0.098177396
0.08963176
0.22965248
-0.44713134
-0.44017312
-0.27477235
-0.0204969
-0.043467175
-0.21161766
0.1897259
0.13523026
-0.42296508
0.12448769
-0.21163006
0.3368115
-0.41728505
-0.33392277
0.39945745
-0.0027105906
-0.121833526
0.1494111
-0.31369245
-0.0671981
0.24722774
0.40793556
-0.11425332
0.27288255
-0.42440188
0.19960245
0.0141544575
-0.03164621
-0.099012576
0.017289774
-0.025036886
0.26659015
-0.45995042
-0.048649848
-0.23149145
0.21428254
0.33104563
-0.16870321
-0.062772736
0.40951106
-0.20012364
0.38752732
0.0136904
0.070784666
0.10223209
-0.35241514
0.120983474
-0.24363191
-0.05234655
0.25284672
-0.3625688
-0.2289431
-0.44260785
-0.16735885
0.16481425
-0.28606245
0.29337174
0.12029601
-0.37807223
-0.18493187
-0.24443686
-0.14361517
-0.19500732
0.11134775
-0.3358587
0.15390386
0.0873872
0.39600477
0.0731014
-0.036999106
0.3285278
0.2103988
-0.059921827
-0.20439841
-0.40376425
0.33355287
-0.034199785
0.015713321
-0.1301136
0.41267398
0.27698067
0.2443523
0.18838735
-0.40337384
-0.248338
-0.36188257
-0.01950111
-0.054895997
-0.19690931
-0.04328116
-0.42919353
-0.3118132
0.44476196
0.3015316
-0.3259597
-0.16522129
0.30537453
-0.42737293
-0.2825045
0.29369938
0.41642186
0.014793994
0.22740237
0.43045238
0.03217456
-0.047999583
0.10942067
-0.21289784
0.36495188
0.13463818
0.4204521
-0.18555665
0.5393813
0.18183741
0.5078518
0.02706656
-0.2467212
0.1485241
0.05490656
-0.24588725
-0.42962727
0.15280053
-0.118122116
0.12452083
0.2818181
-0.06874865
0.025275445
-0.32396093
-0.31777224
0.23147312
-0.43916398
-0.4352119
0.60242724
-0.091108665
0.08487027
0.28199857
-0.22213006
0.04730042
-0.30777484
-0.0869736
0.30392033
-0.3811638
0.27945387
0.051202606
