0.4013059
0.25352252
-0.25810385
0.17157544
0.120835215
-0.2797428
0.028246524
-0.3660807
0.09513948
0.29958582
0.35462755
0.420699
-0.4576175
-0.19868779
0.57822794
0.15399185
0.35387996
-0.20581868
0.3892571
0.22794357
-0.57989424
0.361387
0.117611125
-0.23438914
-0.04192398
-0.11910274
-0.41422907
-0.24126816
0.31304395
0.15024468
0.45615253
0.16759858
0.055689316
-0.2244929
-0.18438219
0.3611585
-0.18582901
0.22647402
-0.21280408
0.07852734
-0.51166576
-0.18270627
-0.22187719
-0.33625567
-0.48580554
0.23269694
0.1855642
0.0705033
0.30631837
-0.1092804
-0.23997344
0.4881054
0.2094811
0.3000246
-0.3884461
-0.11958438
0.31526905
-0.29103336
0.365187
0.26889938
0.22867018
0.038106274
0.2360502
0.4060531
-0.006052144
0.24500304
-0.14164396
0.27902368
0.22786804
-0.11482988
-0.293506
-0.2682611
-0.37186503
-0.33973435
0.3293731
-0.09083107
0.21613275
0.32568163
-0.018011492
0.25018996
0.40200475
-0.22072761
-0.15130953
0.2880095
-0.22854058
-0.022923635
-0.13024178
-0.37919155
-0.35290202
-0.44534013
0.022908922
-0.0033737728
-0.1921216
0.17797485
0.3937943
0.20624591
0.13460402
0.0875993
0.301046
-0.02720633
0.32851738
0.30757204
-0.038712054
-0.374085
0.06123136
0.13420542
-0.45222557
-0.3872637
0.37078616
0.41779283
-0.06242503
-0.24901843
0.46922985
0.11177759
-0.02496826
-0.35265452
-0.4350721
0.20503269
0.24800414
-0.3854449
0.06596711
-0.23029962
-0.29112726
0.012767084
0.130641
0.13558142
0.28478438
-0.05279756
-0.3403847
-0.2803386
0.081154846
-0.39337668
0.21942762
-0.10798109
0.39646462
-0.37039754
0.491898
-0.101091765
0.4302511
0.21296097
0.33141318
-0.15812148
-0.14281456
0.41292533
0.31286442
0.03149143
-0.07171359
0.30999073
0.15199728
0.33033645
-0.042052623
-0.38675416
0.12570912
0.4261126
-0.22892042
-0.09851843
0.35662803
-0.17571947
-0.040692974
0.15557195
-0.071920775
0.26502392
0.26139402
-0.40447506
0.29233402
-0.32240555
0.005471652
-0.06829971
-0.4512481
0.19651443
-0.37784272
-0.45688444
-0.46483132
-0.16281858
0.39701024
-0.061033625
-0.30340156
-0.08161735
0.065341756
-0.034641623
-0.173293
0.367642
0.20186232
-0.24757744
-0.2949541
0.23589517
-0.30325744
-0.26352462
-0.2914724
-0.041706678
0.34279165
0.06514159
0.050225303
-0.046101976
-0.15805979
0.028193895
-0.42526266
-0.27911043
0.0013857385
-0.06844712
-0.07951368
0.22396287
-0.010793763
0.43846714
-0.1403798
0.43121046
0.27140212
0.30466887
0.020397892
-0.23989582
0.17132767
0.2770617
-0.06411141
0.14174478
-0.42353362
-0.22816454
0.29946357
0.36077604
-0.22005923
0.37837103
0.40914977
0.40722138
0.29430732
0.3747286
-0.23065017
-0.43744698
-0.1836484
-0.4477043
0.15229699
-0.31363663
0.2775616
0.38096794
0.18289019
0.16979061
-0.14940321
-0.1841825
-0.3299261
0.11851768
-0.36127976
-0.44306388
-0.47188434
-0.35164952
-0.4048292
-0.3211987
0.45727187
-0.037826862
-0.3611006
0.09390072
-0.31445464
-0.0071074795
0.010924737
0.18980636
0.17161176
-0.083074175
0.39180532
0.04973734
-0.11419102
-0.40116066
0.44035798
0.2696174
-0.042318117
-0.10253111
0.09638192
-0.052182883
-0.39621174
0.34433252
0.18946466
0.44516045
0.27802357
0.20989412
-0.16679221
0.099918485
0.40957686
0.33369353
0.42634565
0.36669427
-0.3608451
0.1661397
-0.32970387
-0.39663947
0.17249006
0.39779004
0.20316833
0.14299808
0.38813642
-0.023562277
-0.25002956
-0.14960937
-0.3982224
-0.008515379
-0.3301697
-0.45666534
0.09721372
-0.12814121
0.35117167
0.4046288
0.28859434
0.34319946
0.033948254
-0.06853346
-0.19556794
0.020757355
-0.10928023
0.24381343
0.116033636
-0.11807202
0.4231855
0.40551066
-0.2742273
0.39603093
0.107071705
-0.02105249
0.21424055
0.4352876
-0.2608761
-0.27801764
-0.036886003
0.2612082
0.12290667
-0.3630769
-0.07703912
-0.013876198
0.40716058
-0.011167631
0.3169356
-0.20148751
-0.21267238
0.14611644
0.37147537
0.4145083
0.4049973
-0.06877173
0.25865632
-0.013255304
0.26495048
-0.27946264
0.23020147
0.4099676
-0.42453083
-0.05468332
-0.44819123
-0.3395679
0.43237925
0.24833769
0.25249788
-0.081964344
0.11419048
0.3494245
-0.15921731
-0.19496751
-0.3632828
0.20566566
-0.36839274
0.037589792
0.29045153
-0.052298643
0.29368746
0.42516744
0.34453773
-0.15884958
0.33972543
0.085872106
0.14033014
0.15827496
0.10555636
0.08191075
-0.12822649
-0.23544522
0.0068547344
-0.25094035
-0.1745122
0.16716069
-0.22566958
-0.31459668
0.28248084
-0.2547287
0.24458544
0.102747805
-0.2929775
-0.0013062846
0.049780212
0.23619737
0.010401652
0.13210997
0.1992155
0.12634213
0.035071556
0.16611968
0.09863664
-0.40438443
-0.054915976
-0.10318923
0.24991742
0.20492211
0.40419278
0.034578264
-0.27405545
0.45129302
0.22700185
-0.17434889
0.029290352
0.20439525
0.118635155
0.1962242
-0.16719395
-0.024316823
-0.2494793
-0.4501301
-0.34818867
-0.45392233
0.24288373
-0.073594324
-0.4431939
0.3263394
-0.13562962
0.36966285
0.17323749
-0.14836644
0.33977416
0.4183587
-0.03672864
-0.37728038
-0.09634372
0.31762308
-0.2712742
-0.121388584
-0.19436967
0.23976041
0.500537
-0.20198268
0.35633615
0.39487076
0.28029665
0.33467188
-0.35675755
-0.42114
0.34019256
-0.23954658
-0.12427915
0.36344558
-0.029028742
0.20196556
-0.22367659
0.2982044
0.39392582
0.15364882
-0.26624128
0.25113788
-0.13422358
0.35538912
-0.35944647
-0.014323104
-0.28611833
0.12352639
-0.012603854
-0.3950226
0.17388967
0.09415705
-0.34706137
0.32791114
-0.1237819
-0.43647915
0.23918451
-0.38545024
0.14891183
-0.17299168
0.24800748
-0.0423524
0.24810426
-0.0189532
-0.13014476
-0.13410391
-0.38514173
0.34248903
-0.18275465
-0.3585418
0.46213657
0.22760943
0.18335076
-0.46798456
0.45517603
-0.13746563
-0.17182505
0.43086207
-0.074341096
0.11906945
-0.20154169
0.38234016
0.24227783
0.24438252
0.24821611
-0.2831936
-0.23145832
-0.43672028
-0.04116411
-0.23399068
0.11918929
-0.46461987
0.4100371
0.2172307
0.094864205
0.1799637
-0.16110444
0.20621766
-0.34125587
-0.015116889
0.2014739
-0.4160597
0.24962129
0.1857389
0.26194504
-0.36156586
0.33836246
0.19775271
0.4677261
0.107016794
0.25428894
0.3648926
0.26906
-0.33696276
0.014243484
0.15922602
0.25258607
-0.30182892
0.16235757
-0.17058274
0.035640705
0.3939737
0.06810982
0.31670204
-0.2110649
-0.31433496
-0.21244296
-0.07409067
0.28016344
0.2825376
0.2740017
-0.10465639
0.29905444
-0.40748033
0.14574783
-0.33809918
0.44247732
0.2981919
0.16457796
-0.13567312
0.39018804
-0.10486078
-0.41854125
-0.1889046
-0.41635156
0.42777282
-0.16475223
0.003407905
-0.034065325
0.28547892
0.1718338
-0.003954965
-0.027169842
0.44729397
0.28134912
0.39384538
-0.18425034
-0.43859142
-0.06240517
-0.0989181
-0.12189779
0.11216342
-0.45647317
0.33850288
0.24813628
-0.3541627
-0.25793603
0.3750517
-0.3503262
0.23827349
0.112543836
0.1401032
0.35514504
0.288916
0.12216906
0.050588723
-0.1965519
-0.26720947
-0.111329496
0.0729836
0.024129918
0.3181636
-0.08532008
0.13740042
-0.051938053
-0.06990633
0.13044406
-0.22200695
0.07765042
-0.43081567
0.41041893
0.26547885
-0.11453397
-0.117264695
0.04647238
0.06597018
0.2782299
0.23108341
-0.021916155
0.20487827
-0.20481084
-0.21487412
0.38201988
-0.45517582
-0.2080077
0.23386396
0.36083367
0.28034416
-0.1291937
-0.3925306
0.093582615
0.0147343725
-0.27426693
0.030212488
0.21265543
-0.29980874
-0.02498699
0.022933137
-0.2547945
-0.29595175
-0.05292662
0.13522899
-0.32568142
0.10243764
-0.29121795
0.23949313
-0.436326
0.45454645
-0.23307627
-0.3909087
0.1922784
0.16982448
0.3728033
0.056766067
-0.38235798
-0.1278234
0.27869993
0.014220402
-0.30024293
-0.25001422
0.0021662822
0.3241323
-0.3758019
0.21679202
-0.08516773
0.21199438
0.015693296
0.36862645
0.06709874
-0.044837557
0.28784537
0.05593112
0.020374287
-0.3886574
0.2165814
0.1135985
-0.071220085
0.0012928876
0.4383238
0.26272765
0.26857683
-0.42160228
0.3694231
-0.46926025
-0.13908798
0.21246098
-0.45536458
0.0084330095
-0.11303713
-0.34000742
0.51255494
0.33162862
-0.36318046
-0.063966185
-0.41132966
-0.40828097
-0.069860056
-0.017972877
0.2931099
0.09426021
-0.096684344
0.20735267
-0.35907057
0.22872582
-0.35867444
-0.4089703
0.17630053
-0.28924677
0.15629268
-0.38276595
-0.027264448
0.28882554
-0.2698365
-0.3699278
-0.30116954
-0.25966895
-0.20403773
-0.37932715
0.30556217
-0.40313998
-0.37510136
-0.31267485
-0.085853085
0.12715012
-0.25747806
-0.387576
0.4219597
-0.05695664
-0.107686095
0.3133423
-0.37216952
0.2898513
-0.38818413
-0.16330944
0.3276089
-7.9922605E-4
-0.28183663
-0.34975612
-0.06962511
-0.02936622
-0.23111051
0.22898664
-0.39804724
0.43772238
-0.04609154
0.4288207
0.24390234
0.08359091
0.31900948
-0.20497581
-0.24773663
0.49059942
0.0012421169
-0.049239136
0.23310015
0.43560567
-0.22637896
0.33532965
0.21326114
-0.04886602
-0.017053552
-0.38440165
-0.042785875
0.09119374
-0.4163502
-0.25982398
-0.069464326
-0.15181477
0.038466386
0.35264927
-0.42709935
-0.23529826
-0.2061189
0.28649983
-0.34601504
-0.07718316
-0.046371903
-0.14129953
-0.25035995
-0.43054175
0.26596037
0.01495013
-0.26858813
-0.43340632
0.38275898
-0.33636317
-0.2231353
-0.22193696
0.14188085
0.2254077
0.31541014
-0.026530862
-0.22129287
0.43904603
-0.37476727
0.17378531
0.07638682
0.30379117
0.16830273
-0.08820352
0.17025357
0.021297155
0.20780139
-0.22802855
-0.28867075
-0.27708545
0.46717513
-0.056932215
0.09100459
-0.45166394
-0.14018355
-0.37222365
0.1942113
-0.050782047
0.10650569
-0.35490546
0.3346405
-0.35875747
-0.21605287
0.29076213
-0.32056308
-0.017843314
0.19035968
-0.040274993
0.4542305
-0.37258157
-0.009386782
0.4368621
-0.35035354
0.4162174
0.31671843
0.4101646
0.3445298
0.2967708
-0.44034252
0.055338502
-0.29479423
-0.39195707
0.101070404
0.3325213
-0.15559816
-0.092656
0.2718647
0.24681658
0.34997135
0.26505935
-0.13637696
0.34438947
-0.3029575
0.18767169
0.42486584
0.34945297
-0.18570565
-0.18971564
-0.31763643
0.19294688
-0.017273793
-0.20052826
0.078217454
-0.07654646
-0.25012404
0.3755784
-0.2122455
0.3755617
0.26243955
0.41691238
-0.19885495
0.048785012
-0.33245793
-0.43666574
0.34701592
-0.20859842
-0.1651364
-0.33996946
-0.21611314
0.117034614
-0.28866902
-0.2697941
0.13884917
0.27163333
0.37369537
-0.010101803
-0.103793435
-0.4210442
-0.2764334
-0.37105307
-0.12216654
-0.34756812
-0.42465493
-0.24584201
-0.18248571
0.2430055
0.11540171
-0.3597443
0.19981886
-0.10272304
-0.0068655917
0.15775509
-0.4456631
-0.025386326
0.16825396
-0.22411077
-0.12394158
-0.20983137
-0.11106858
0.0844653
0.12371296
-0.42623928
-0.327678
-0.39344782
0.16505991
-0.08558999
-0.46215615
-0.28374806
-0.26062143
-0.38927454
0.18822342
0.45241567
-0.02795986
0.15670413
0.35948282
0.18572785
-0.23318902
0.040690962
-0.22357579
-0.3778585
-0.18436018
-0.09854178
0.28160942
0.12679309
-0.32707125
-0.102630675
0.12690791
-0.38490075
0.05475197
0.4667672
-0.00468996
0.21443808
-0.33205914
-0.2602096
-0.092846416
-0.46018013
-0.26189032
-0.23593931
-0.2447019
-0.050396223
0.42188215
-0.09663286
-0.022261733
0.23976853
-0.17469643
0.31767806
-0.02126741
0.39343855
-0.22158484
-0.36091325
-0.31121987
0.41326314
-0.1250865
0.28158545
-0.4052528
-0.1141359
0.3930895
0.31248924
-0.027877584
0.19956015
-0.045242302
0.38726947
-0.1514597
0.38894498
0.15156418
0.33018026
-0.03509844
0.27655175
0.27874875
-0.22325009
-0.23744988
-0.4031881
0.11499974
0.08701395
0.4390477
0.28796646
0.27150688
0.2858021
-0.13564022
-0.05639846
0.38452405
0.14347424
-0.4524746
0.02786215
0.0883117
-0.36396673
0.09669199
0.10166762
-0.15490673
-0.047065247
-0.21776216
-0.150009
-0.19923222
0.2878617
-0.23583373
-0.00739472
0.33754143
-0.39845043
-0.0022856076
-0.19015512
-0.3088557
-0.34495005
-0.31055886
0.43942648
0.14829406
0.0991454
0.22909246
-0.15055174
-0.017993374
-0.11814068
-0.28745183
0.22943012
-0.4058772
0.06906603
-0.24585356
-0.41216448
-0.14933586
-0.13964543
-0.3769998
-0.43714643
0.107671075
-0.35211188
0.2604519
-0.22800848
-0.10265351
-0.26925865
0.31721854
-0.2428444
-0.26198864
-0.08771159
0.014346962
0.21606417
-0.05930219
0.16579905
-0.21860057
0.016372526
0.37885797
-0.105190046
0.34618324
0.17229684
-0.24729389
-0.0047948677
0.39641422
0.19512767
0.19567704
-0.008133723
-0.16316223
-0.03610503
0.1395899
-0.17985183
0.23920944
-0.18385509
0.07932938
0.4641894
0.32205862
-0.0123792095
0.12643081
0.117631726
-0.12774895
-0.4647919
0.21267356
0.37880418
0.3410865
0.093250535
-0.16047847
-0.12115628
0.36960727
0.03555881
-0.3202614
0.21452242
-0.43991542
-0.43319768
-0.4859733
0.36841154
-0.023746528
0.29142705
0.13163055
0.23351574
-0.11942029
-0.2758174
0.27849394
-0.06784775
0.43036923
0.41279092
-0.31720158
-0.073003545
0.35031506
0.05256823
0.21392062
0.19412228
-0.32044277
-0.4381554
-0.21816762
-0.27941915
0.30558425
-0.3098819
0.37907067
-0.37617072
0.092172004
-0.2681229
-0.39915088
-0.06393753
0.12172499
-0.29191947
-0.12770796
0.47784385
-0.28839803
-0.36473197
0.44521675
-0.3068724
0.32268107
-0.41032293
0.29941827
0.13473089
-0.3636153
0.170832
0.3302178
-0.47328362
0.27301732
0.0075953496
-0.27425224
0.5171134
0.2446279
0.45086235
0.09289346
0.115814954
0.04016438
0.12538578
-0.25053823
0.011379248
0.44253355
0.3121013
0.033695795
0.2169594
-0.20004979
0.21673265
0.37011224
-0.44154474
-0.31132337
0.026583273
0.42930865
0.27414364
0.16085033
-0.02767493
0.20892051
-0.0026963141
0.06816007
0.2925722
-0.23432596
-0.040511083
-0.39429098
0.29170763
-0.34475735
-0.238236
0.39209038
0.19311753
0.34793666
0.44876954
-0.20227051
0.05029578
-0.30491737
0.4127328
-0.1755935
0.13180372
-0.33917403
0.42429113
-0.41414398
0.45678216
-0.35978988
0.10872868
-0.17280255
0.4396138
-0.40639073
-0.39122105
-0.17924155
0.3404955
-0.42422915
0.316757
0.34946436
0.43469575
-0.3472269
-0.34428445
-0.049887426
0.41670555
-0.014241448
-0.2969812
0.31225306
0.44240332
0.22403488
-0.2161436
0.011851184
-0.09124183
-0.08525158
-0.07069179
-0.35116756
0.35268244
0.32965228
-0.2986978
-0.25386745
-0.28731373
-0.3350726
0.3458364
-0.38634816
0.29200512
0.16087832
0.24839796
0.24241658
-0.14848687
-0.26823768
-0.011515299
0.36330885
-0.2620761
0.13663664
0.34038493
0.0960029
0.0027363084
0.17732117
0.2830416
-0.335376
-0.04485546
0.40823004
0.22057377
-0.3455729
-0.23499173
-0.09818628
-0.18557759
0.32559827
0.19135028
0.10928052
-0.023250235
0.17568362
-0.27163488
0.22629102
-0.19372062
0.29772246
-0.18190746
0.1501966
0.458203
0.2896006
-0.5595795
-0.1545702
0.41355157
-0.4313154
-0.23496692
-0.022134656
0.15148708
-0.40377027
0.20197563
-0.039015245
-0.4243554
-0.06513641
0.4298764
-0.38684916
-0.101072446
0.29688534
0.36375645
-0.25688633
0.18491498
-0.20280224
-0.15194634
-0.31067297
-0.17351593
-0.43175593
0.08795897
0.30302233
-0.28388983
-0.36661556
-0.44270685
-0.34606692
0.026148615
-0.1474583
0.1755247
0.28228655
-0.30021265
-0.052588906
0.08944272
-0.013401551
0.24519005
0.16624789
-0.4778232
-0.12576304
0.024377424
0.12500197
-0.15862855
-0.03150113
-0.3611115
0.09692714
0.052540064
0.4663382
0.37472117
0.22391604
-0.22033814
0.3264279
-0.119442925
-0.48091784
0.23650588
-0.23173189
0.24985935
-0.36437672
-0.29876864
-5.9176655E-4
0.46530393
0.29587686
-0.05957202
0.36016178
-0.09117815
0.011725915
0.34549573
0.14974111
0.17792128
-0.14277849
0.17979793
0.07322253
0.031066837
-0.22606753
0.24647835
0.17390423
0.37541613
0.42257458
0.33870715
0.15378982
-0.27838346
-0.33090588
-0.23702806
0.24916567
-0.38708717
-0.30890185
0.058813553
-0.3156801
0.28802586
0.19107035
-0.32867774
-0.40531433
-0.33675167
-0.046785943
0.096442774
0.21529472
-0.19741395
-0.2380011
-0.2840883
0.30801356
-0.3038475
-0.14383969
0.062077723
-0.4117545
-0.25847784
-0.31180564
-0.22275741
0.24337183
0.21268333
0.2987548
0.44335243
-0.35117295
0.24834286
-0.08340729
-0.045121342
0.3389162
0.31481338
-0.24494146
0.058005236
0.06624038
0.3852168
0.0810227
0.45871726
0.29822373
0.08375764
-0.35406515
-0.019484995
0.07796836
0.123556264
-0.14466642
0.4524133
0.01638187
-0.2603596
-0.4004183
-0.4660949
-0.0094677275
-0.31588146
-0.16532014
0.10314924
-0.12949914
-0.38685334
-0.24928744
0.14194816
-0.071343035
-0.032999452
0.26676226
0.36224645
-0.148691
0.059256025
-0.13770153
-0.17361937
0.09118788
0.24804573
-0.38903537
-0.073692575
-0.37190416
0.37240794
-0.027105346
0.19739443
-0.40105835
-0.41888094
-0.42414474
0.4287291
-0.1747037
0.31700945
0.04081923
-0.047610518
0.44262964
0.03134401
0.42540807
-0.28534827
-0.012775136
-0.43933213
-0.011166242
0.29806626
0.099913925
0.030559648
-0.19143526
0.21375667
-0.23710257
0.43124834
0.39561477
-0.099688984
-0.4551904
-0.02667403
-0.09221298
-0.24371421
0.12019126
0.1876118
-0.21457049
-0.0637219
-0.45260254
0.24858388
-0.10518229
-0.2246508
0.07038245
0.21511261
-0.0071740244
0.20339645
0.1513668
0.06900061
0.43980923
0.14701127
0.35589588
0.10988975
0.21899486
0.17808494
-0.40386346
0.23013836
-0.44654056
0.004035238
0.37695134
-0.46046025
0.3218653
0.2639667
-0.29959637
-0.17196898
-0.17944793
-0.29811865
-0.25064725
0.3819288
0.23712762
-0.18027027
-0.13628182
0.38079235
-0.34958297
-0.42160416
0.38433766
-0.195601
0.36640647
0.02057966
0.40757692
-0.3860052
0.15516277
0.414007
0.02943467
0.08084324
0.14359592
0.28373462
0.379487
0.20566216
-0.3715647
0.35882404
-0.006595096
-0.11826851
-0.010412528
-0.34775457
-0.24042578
0.10012195
0.2678047
-0.3006673
-0.25006455
0.2756392
0.1248935
-0.37334692
-0.30353183
-0.41019365
-0.3354592
-0.32522017
-0.11386045
0.34351692
-0.21391095
-0.37859955
0.008460857
0.35299134
-0.05932477
0.11064663
-0.10969722
0.2860184
-0.3101922
-0.40590382
-0.31614858
0.17199948
-0.17446277
-0.09436286
0.3858937
-0.19767584
-0.25229606
-0.06843454
-0.29823646
-0.23263462
0.4356748
0.296586
0.011864513
3.3948128E-4
0.27699533
0.08086544
-0.08117613
0.32663947
0.38710973
-0.24309665
-0.21598773
-0.34255657
0.4042719
0.24160409
0.25788522
-0.42118004
0.4727686
-0.08593456
0.046633266
0.23750561
0.17473118
-0.16558583
-0.077505104
-0.44590804
0.16183503
0.19119766
-0.34655324
0.42458153
-0.44664806
0.054360583
0.39316517
-0.29705164
0.08483177
0.4474467
0.08797788
0.17170191
-0.34653172
-0.4764131
-0.27001965
-0.23740901
-0.10526634
0.16454716
-0.23823793
0.42172918
0.004690389
-0.05197555
0.26488873
-0.09656867
0.27799913
-0.36580586
-0.11678359
-0.099513054
0.034885794
0.19471218
0.0144777605
0.2795698
0.032845616
0.29123676
-0.36901465
-4.2214143E-4
0.04389786
-0.17687984
0.19281025
-0.14204232
-0.33034116
0.25940266
-0.27708152
0.02135816
-0.1430392
0.417163
-0.29657075
-0.27961612
0.42507008
0.013020839
0.45499003
0.0068362104
-0.15835035
-0.41213667
-0.22397318
0.35859376
0.11552269
-0.08284049
0.49244547
-0.2843639
0.2420258
-0.06340615
0.33596104
-0.23989977
0.05116292
0.56090546
0.09769076
-0.70720565
-0.00781816
-0.5193538
0.16233012
-0.5708987
-0.42422187
0.11837739
-0.13760242
0.5721625
0.30559185
0.4724153
-0.56889445
0.05179316
0.43410566
0.20086311
0.027915012
-0.39754617
0.05673759
0.5509552
0.11848866
-0.45172423
0.08609006
-0.25642884
-0.117103875
-0.1799888
0.36306122
0.5196337
