{
	"settings": {
		"name": "PendulumTester",
		"weightDecay": 9.999999747378752E-6,
		"stepWeights": 0.032999999821186066,
		"stepBiases": 0.0032999999821186066,
		"lossFunction": "MSE",
		"size": [
			2.0,
			32.0,
			32.0,
			16.0,
			2.0
		]
	},
	"activators": [
		"Tanh",
		"Tanh",
		"Tanh",
		"Tanh"
	],
	"weights": [
		-0.1793394237756729,
		-0.02591906115412712,
		0.3568764925003052,
		0.42355459928512573,
		0.4280043840408325,
		-0.1998731642961502,
		0.41720741987228394,
		0.1253167688846588,
		0.25542137026786804,
		0.4807490110397339,
		-0.3752294182777405,
		-0.01603328250348568,
		0.08921770006418228,
		-0.345505028963089,
		0.16226907074451447,
		0.14231494069099426,
		-0.15930429100990295,
		-0.08695246279239655,
		-0.310776948928833,
		-0.22722281515598297,
		0.10577709972858429,
		-0.29356423020362854,
		-0.3013771176338196,
		0.2005290985107422,
		-0.0488547757267952,
		0.1539575755596161,
		0.17743808031082153,
		0.1256444901227951,
		0.13598929345607758,
		-0.4451027512550354,
		0.04524914175271988,
		-0.3873065710067749,
		-0.21750694513320923,
		-0.49678999185562134,
		0.2690727412700653,
		-0.19701284170150757,
		0.44058093428611755,
		-0.25703826546669006,
		0.26613226532936096,
		0.03579463064670563,
		-0.2867165505886078,
		0.3156982660293579,
		0.07696950435638428,
		0.5148897171020508,
		-0.26389622688293457,
		0.22837963700294495,
		-0.09610225260257721,
		0.4829869866371155,
		-0.013267365284264088,
		-0.03993089497089386,
		0.49908602237701416,
		-0.4322303235530853,
		0.2360677868127823,
		-0.36985132098197937,
		0.014719348400831223,
		-0.10231711715459824,
		-0.04826054349541664,
		-0.28630176186561584,
		0.2969946265220642,
		0.37321776151657104,
		-0.1649414300918579,
		0.45773395895957947,
		-0.3290759325027466,
		0.06964272260665894,
		0.4191417694091797,
		0.24343539774417877,
		0.08346196264028549,
		-0.13826443254947662,
		0.042242493480443954,
		0.17809410393238068,
		-0.24994947016239166,
		-0.45427975058555603,
		0.3417896330356598,
		0.2777879536151886,
		0.3606906831264496,
		0.03894660621881485,
		-0.10081114619970322,
		0.3982185423374176,
		0.19007819890975952,
		-0.32733896374702454,
		-0.08105888217687607,
		0.15406790375709534,
		-0.11570633947849274,
		-0.11851423978805542,
		-0.005436569452285767,
		-0.33346042037010193,
		-0.406786173582077,
		-0.11767849326133728,
		0.15474452078342438,
		-0.1654902547597885,
		0.15359297394752502,
		0.30576658248901367,
		0.20151349902153015,
		0.2853715717792511,
		0.02101636305451393,
		-0.07030317932367325,
		-0.1736423224210739,
		-0.10508347302675247,
		0.11579976230859756,
		-0.08736784011125565,
		-0.4657938480377197,
		0.0409429594874382,
		0.38003629446029663,
		-0.26881593465805054,
		0.277632474899292,
		0.07906448096036911,
		0.07130500674247742,
		-0.1803836077451706,
		-0.15699832141399384,
		0.03527436777949333,
		-0.31835633516311646,
		0.44816356897354126,
		0.45951560139656067,
		-0.003795310389250517,
		0.25622931122779846,
		-0.4448774755001068,
		0.16195103526115417,
		0.21730710566043854,
		-0.03357100859284401,
		0.1775950789451599,
		-0.2586289644241333,
		0.24054363369941711,
		-0.004857558757066727,
		-0.28265464305877686,
		0.28696349263191223,
		0.4301725924015045,
		-0.39247140288352966,
		-0.4440779983997345,
		-0.29254209995269775,
		0.09516046196222305,
		-0.23558728396892548,
		0.14639350771903992,
		-3.977138549089432E-4,
		-0.3899822235107422,
		0.2187422811985016,
		0.1005835235118866,
		0.07965400815010071,
		0.2662051320075989,
		0.2923831343650818,
		0.1770026832818985,
		0.17868652939796448,
		0.14862558245658875,
		-0.39943787455558777,
		-0.3102567791938782,
		0.18493930995464325,
		-0.06057650223374367,
		0.38519278168678284,
		0.38307052850723267,
		0.11869268864393234,
		-0.20489217340946198,
		0.10544513165950775,
		-0.17650236189365387,
		0.2955867648124695,
		-0.07611869275569916,
		0.4307347238063812,
		-0.1655994951725006,
		0.0037312840577214956,
		0.38039955496788025,
		-0.12051311135292053,
		0.14471128582954407,
		0.11550820618867874,
		0.2759043872356415,
		-0.2753990590572357,
		0.4161692261695862,
		-0.14668507874011993,
		-0.03132076561450958,
		0.45941615104675293,
		-0.02776930294930935,
		0.21561770141124725,
		0.09968407452106476,
		-0.1044384315609932,
		0.4603061079978943,
		0.20502078533172607,
		0.4065113067626953,
		-0.2966531217098236,
		0.33584868907928467,
		0.19296883046627045,
		0.05148371681571007,
		0.30929672718048096,
		-0.029212586581707,
		-0.3579857647418976,
		-0.1769295483827591,
		0.2141527384519577,
		0.3461240530014038,
		-0.0401596873998642,
		-0.2691041827201843,
		0.43352004885673523,
		-0.33895981311798096,
		-0.439534455537796,
		-0.18204417824745178,
		0.43485864996910095,
		0.011049201712012291,
		-0.14633749425411224,
		0.3506116271018982,
		0.21570929884910583,
		-0.4634988605976105,
		-0.30864831805229187,
		-0.09800979495048523,
		0.3093540668487549,
		0.027075402438640594,
		0.11630849540233612,
		-0.3743680715560913,
		0.36850622296333313,
		-0.1881929337978363,
		0.04633359611034393,
		-0.4049213230609894,
		-0.31715279817581177,
		-0.4526318311691284,
		-0.349402517080307,
		-0.21715818345546722,
		-0.05540884658694267,
		-0.3732728660106659,
		-0.31834477186203003,
		0.37695860862731934,
		0.36305201053619385,
		0.2307257354259491,
		0.06474076956510544,
		0.04623406380414963,
		0.45022109150886536,
		-0.44259703159332275,
		-0.432616263628006,
		-0.41981783509254456,
		-0.1341152787208557,
		0.2318890541791916,
		0.36403968930244446,
		0.16732928156852722,
		-0.13269272446632385,
		0.34943240880966187,
		-0.23004762828350067,
		-0.24919532239437103,
		-0.42815980315208435,
		-0.09408777952194214,
		-0.18509726226329803,
		-0.3445981740951538,
		-0.06752733886241913,
		-0.22507472336292267,
		0.17880754172801971,
		0.374716192483902,
		-0.24004268646240234,
		-0.04665575549006462,
		0.15168417990207672,
		0.321863055229187,
		-0.31302759051322937,
		-0.04826671630144119,
		-0.3897780478000641,
		-0.05776023492217064,
		-0.07243505865335464,
		-0.16688847541809082,
		0.16137810051441193,
		-0.04742920771241188,
		0.35258105397224426,
		0.3583804965019226,
		0.10566027462482452,
		-0.26574936509132385,
		-0.2146254926919937,
		-0.3704359829425812,
		0.1663670688867569,
		-0.16174791753292084,
		-0.09252824634313583,
		0.23340420424938202,
		-0.09522940963506699,
		0.3986535370349884,
		0.11541970074176788,
		-0.3909245431423187,
		0.3848118185997009,
		-0.3027563691139221,
		-0.14118176698684692,
		0.2420719712972641,
		0.32167401909828186,
		0.37594079971313477,
		-0.23233512043952942,
		0.07820495218038559,
		-0.24745172262191772,
		0.35927122831344604,
		0.32913997769355774,
		0.313772052526474,
		0.30326953530311584,
		-0.2805759012699127,
		-0.23631812632083893,
		0.04749145731329918,
		-0.1337507665157318,
		0.029313581064343452,
		0.38308489322662354,
		0.294136643409729,
		0.26726099848747253,
		0.21854384243488312,
		-0.22640040516853333,
		-0.037071529775857925,
		0.008247648365795612,
		0.34327566623687744,
		-0.06863647699356079,
		-0.4091716408729553,
		0.2987152934074402,
		-0.2973954677581787,
		-0.24964386224746704,
		0.05606071278452873,
		0.4483918845653534,
		-0.4069836139678955,
		0.06484668701887131,
		-0.3667576313018799,
		0.3654526472091675,
		0.026932666078209877,
		0.025004543364048004,
		-0.14679782092571259,
		-0.09262242168188095,
		-0.1574324369430542,
		-0.2987137734889984,
		0.18599459528923035,
		0.17919841408729553,
		0.1798546463251114,
		0.1690424382686615,
		-0.2576911747455597,
		-0.32518553733825684,
		-0.10879122465848923,
		0.4046616554260254,
		-0.06575321406126022,
		-0.27939704060554504,
		0.41969916224479675,
		-0.002027626847848296,
		0.3260379433631897,
		-0.30205148458480835,
		0.02227562479674816,
		-0.3916216790676117,
		-0.13785427808761597,
		-0.11854328215122223,
		-0.10448624193668365,
		-0.23670202493667603,
		0.31940871477127075,
		-0.09944875538349152,
		0.39092519879341125,
		0.3057982921600342,
		-0.42074909806251526,
		-0.11601721495389938,
		-0.4291616678237915,
		0.13588613271713257,
		0.4299324154853821,
		-0.17852145433425903,
		-0.19126614928245544,
		0.3758449852466583,
		-0.020675545558333397,
		-0.4321146011352539,
		-0.3285270035266876,
		-0.27257040143013,
		0.04473164305090904,
		-0.41590386629104614,
		-0.2486685961484909,
		-0.4395551085472107,
		-0.41711485385894775,
		0.3355250060558319,
		0.14445742964744568,
		0.1869923174381256,
		0.23830625414848328,
		-0.11711572855710983,
		0.030990924686193466,
		-0.042458608746528625,
		-0.2950643002986908,
		-0.4570276141166687,
		-0.24145740270614624,
		-0.0468873493373394,
		0.4491519629955292,
		-0.3176386058330536,
		-0.030633971095085144,
		-0.064692921936512,
		0.22137252986431122,
		-0.19726690649986267,
		0.2887943387031555,
		0.3064122498035431,
		0.14160266518592834,
		-0.25965869426727295,
		0.11449427157640457,
		-0.18078681826591492,
		0.4439956247806549,
		-0.312820702791214,
		0.06096688285470009,
		0.011388124898076057,
		-0.23282039165496826,
		-0.1376817226409912,
		-0.19020986557006836,
		-0.4082100987434387,
		0.23643893003463745,
		-0.12068675458431244,
		-0.4588550627231598,
		0.21966394782066345,
		-0.12256225198507309,
		-0.39116111397743225,
		0.40698161721229553,
		0.1872105449438095,
		0.12375849485397339,
		-0.06401524692773819,
		0.26134151220321655,
		-0.41816246509552,
		0.27529940009117126,
		0.2304535210132599,
		0.22733493149280548,
		0.4124586582183838,
		-0.39655110239982605,
		-0.2679915726184845,
		-0.2225620150566101,
		-0.44678330421447754,
		0.3749104142189026,
		0.36147183179855347,
		-9.137527085840702E-4,
		-0.41161444783210754,
		-0.2689051032066345,
		-0.200197234749794,
		0.05470071732997894,
		-0.18490669131278992,
		-0.10534648597240448,
		0.3347426950931549,
		0.32293543219566345,
		0.3613055348396301,
		0.34867650270462036,
		0.01871962659060955,
		-0.06163648143410683,
		0.0880914032459259,
		-0.0611003078520298,
		0.19372031092643738,
		-0.22576163709163666,
		0.04362914711236954,
		-0.24424701929092407,
		-0.3247879147529602,
		0.2117299884557724,
		0.015136735513806343,
		0.5161216259002686,
		0.25271207094192505,
		-0.1222100704908371,
		0.031640760600566864,
		-0.23569349944591522,
		0.16282851994037628,
		0.3452306389808655,
		0.4205223619937897,
		-0.059785544872283936,
		0.12928161025047302,
		-0.3689137101173401,
		-0.45657479763031006,
		0.1673787534236908,
		-0.23267358541488647,
		-0.06437713652849197,
		-0.24160459637641907,
		0.42402613162994385,
		0.4206666648387909,
		-0.20940503478050232,
		0.10747935622930527,
		0.1315826177597046,
		-0.11041617393493652,
		0.21803992986679077,
		0.34685173630714417,
		-0.2348446398973465,
		-0.3611466884613037,
		-0.24812112748622894,
		-0.37332162261009216,
		-0.08292001485824585,
		0.08445986360311508,
		0.09233681112527847,
		-0.307066947221756,
		0.3568020164966583,
		-0.13681213557720184,
		-0.13788099586963654,
		-0.26156389713287354,
		-0.07433146983385086,
		-0.29828476905822754,
		-0.03316764533519745,
		0.15263007581233978,
		-0.1865091472864151,
		0.32025468349456787,
		0.36622464656829834,
		-0.1940809041261673,
		0.015106546692550182,
		-0.1842491328716278,
		-0.017133435234427452,
		-0.01822805590927601,
		0.016105035319924355,
		0.36731472611427307,
		0.19261877238750458,
		0.35039541125297546,
		-0.437042772769928,
		-0.4095027446746826,
		0.22926689684391022,
		-0.3328718841075897,
		0.14160311222076416,
		-0.4664648175239563,
		-0.2837297022342682,
		-0.39432698488235474,
		0.316169410943985,
		0.29814523458480835,
		-0.11789476871490479,
		-0.002515464322641492,
		0.32260391116142273,
		-0.08500809222459793,
		0.11894659698009491,
		0.09904651343822479,
		0.4356346130371094,
		0.21991150081157684,
		0.35201987624168396,
		-0.44269412755966187,
		-0.32484203577041626,
		-0.2145228087902069,
		0.29819247126579285,
		-0.32094883918762207,
		-0.1268593817949295,
		-0.2431693822145462,
		0.15357783436775208,
		0.1352410763502121,
		-0.250031977891922,
		0.059818778187036514,
		-0.34204742312431335,
		0.33416715264320374,
		-0.41626280546188354,
		0.3369491398334503,
		0.20539802312850952,
		0.34162771701812744,
		0.20385606586933136,
		0.24631918966770172,
		0.20599180459976196,
		0.2531222999095917,
		-0.3259287476539612,
		0.2561461329460144,
		0.3208557665348053,
		-0.061647213995456696,
		0.02766399271786213,
		0.2813074290752411,
		-0.346833735704422,
		0.11936347931623459,
		0.18679320812225342,
		0.3287178575992584,
		0.14807943999767303,
		0.25278136134147644,
		0.2772517204284668,
		0.37781408429145813,
		-0.40475037693977356,
		0.337554931640625,
		0.37082618474960327,
		0.08027679473161697,
		0.1086915135383606,
		-0.14302821457386017,
		-0.0497191920876503,
		-0.27994000911712646,
		-0.04929455369710922,
		-0.2896915078163147,
		-0.36524081230163574,
		0.11908398568630219,
		-0.023307444527745247,
		-0.1270325630903244,
		-0.11101140081882477,
		-0.07030696421861649,
		0.43807628750801086,
		-0.4011297821998596,
		-0.4560152292251587,
		0.2338985949754715,
		-0.1806238442659378,
		0.4329933524131775,
		0.44133999943733215,
		0.2996070981025696,
		-0.30845907330513,
		0.3470696806907654,
		-0.1947346329689026,
		-0.020197566598653793,
		-0.2813064754009247,
		0.12506921589374542,
		-0.2611536681652069,
		-0.1352214366197586,
		0.1342625766992569,
		-0.3336222767829895,
		-0.17848388850688934,
		0.031710587441921234,
		0.07785626500844955,
		0.12907274067401886,
		0.351484477519989,
		0.01182284764945507,
		0.10786717385053635,
		-0.3494606912136078,
		0.16613341867923737,
		0.11182251572608948,
		0.028376862406730652,
		-0.3479825258255005,
		-0.24069125950336456,
		0.04731960967183113,
		-0.4483240842819214,
		0.3011074662208557,
		-0.19405466318130493,
		-0.27398884296417236,
		-0.429932177066803,
		0.3966491222381592,
		-0.13962866365909576,
		0.3806473910808563,
		0.3634820878505707,
		0.26974359154701233,
		-0.2902965545654297,
		-0.40617769956588745,
		0.3860258460044861,
		0.20503318309783936,
		-0.11401799321174622,
		0.15128371119499207,
		0.3228316605091095,
		-0.3555604815483093,
		-0.23023293912410736,
		-0.135428324341774,
		0.3509497344493866,
		0.07994898408651352,
		0.08741588145494461,
		-0.2519322335720062,
		0.3020344078540802,
		-0.27247560024261475,
		-0.2090330272912979,
		-0.3879205286502838,
		0.06842820346355438,
		-0.2117534577846527,
		0.4220016598701477,
		-0.41707414388656616,
		0.23635974526405334,
		-0.16501082479953766,
		0.058153849095106125,
		-0.0594642274081707,
		-0.12488339096307755,
		-0.17538514733314514,
		-0.008709386922419071,
		0.24670961499214172,
		-0.40404579043388367,
		-0.07802727818489075,
		0.203712597489357,
		-0.071607805788517,
		-0.3216725289821625,
		-0.21868184208869934,
		0.18724848330020905,
		-0.31057918071746826,
		-0.22389112412929535,
		0.04221297428011894,
		0.35183244943618774,
		0.25397375226020813,
		0.0828915685415268,
		0.3008851408958435,
		-0.1996837556362152,
		-0.02523713745176792,
		0.4145355522632599,
		0.4159804880619049,
		0.03814920783042908,
		0.10756941884756088,
		-0.4246982932090759,
		0.039782632142305374,
		0.2019931674003601,
		-0.10031791776418686,
		0.11989279091358185,
		-0.027026258409023285,
		0.35144349932670593,
		-0.17921437323093414,
		-0.38483691215515137,
		-0.29627764225006104,
		-0.11727699637413025,
		-0.0567072257399559,
		-0.38540753722190857,
		-0.23896688222885132,
		-0.17981891334056854,
		-0.4443928897380829,
		0.05514267832040787,
		-0.0976075530052185,
		0.17482782900333405,
		-0.405702143907547,
		-0.022713040933012962,
		-0.30160024762153625,
		-0.03572363406419754,
		-0.35039016604423523,
		-0.33451202511787415,
		0.4177687168121338,
		-0.21466580033302307,
		0.42484837770462036,
		-0.2803436815738678,
		0.3451978266239166,
		0.2410237342119217,
		-0.03377949818968773,
		-0.3159988522529602,
		-0.2916543483734131,
		0.22526773810386658,
		-0.23879064619541168,
		-0.19533243775367737,
		0.39111295342445374,
		0.17847149074077606,
		0.42520013451576233,
		0.23618748784065247,
		0.4000832736492157,
		-0.2749437093734741,
		0.35021883249282837,
		-0.16413447260856628,
		-0.2007504403591156,
		0.40378043055534363,
		0.420716792345047,
		-0.07374023646116257,
		-0.010723482817411423,
		0.12763145565986633,
		0.44979923963546753,
		-0.37700355052948,
		0.39794695377349854,
		-0.10686805099248886,
		-0.25660985708236694,
		-0.39929863810539246,
		0.10067898780107498,
		0.21543225646018982,
		0.035201024264097214,
		0.042826417833566666,
		0.18769356608390808,
		-0.04165750741958618,
		-0.08749724924564362,
		-0.3250584602355957,
		-0.3285123109817505,
		-0.04153135046362877,
		0.16259661316871643,
		-0.14594629406929016,
		-0.43012678623199463,
		-0.3425341546535492,
		-0.0057606687769293785,
		0.053980931639671326,
		-0.08148018270730972,
		0.42606544494628906,
		0.263636976480484,
		0.10246884077787399,
		0.1221381202340126,
		-0.2705549895763397,
		0.16926205158233643,
		0.4468945264816284,
		-0.07405182719230652,
		0.25673234462738037,
		-0.04370661824941635,
		-0.027358168736100197,
		0.2786003649234772,
		0.3709029257297516,
		0.1519688218832016,
		-0.09535800665616989,
		0.413903146982193,
		0.33866214752197266,
		-0.056945305317640305,
		0.4569942057132721,
		0.3923332095146179,
		-0.1169627457857132,
		-0.3366236686706543,
		0.024777812883257866,
		0.3957463800907135,
		0.011624250560998917,
		0.1698392629623413,
		0.34851837158203125,
		-0.10974087566137314,
		-0.011289043352007866,
		0.3423174321651459,
		-0.13003870844841003,
		0.16107265651226044,
		0.14569944143295288,
		-0.1202099472284317,
		-0.31824278831481934,
		0.3834276497364044,
		-0.4594188630580902,
		-0.04578711837530136,
		0.2925490140914917,
		-0.19142447412014008,
		0.1529669165611267,
		0.024918779730796814,
		-0.009290815331041813,
		-0.019373904913663864,
		-0.20878411829471588,
		0.22670666873455048,
		-0.025575516745448112,
		0.36709797382354736,
		-0.33582988381385803,
		0.25762316584587097,
		0.005444269627332687,
		0.04034920036792755,
		0.06336773186922073,
		-0.2904895544052124,
		-0.40855836868286133,
		-0.4138035178184509,
		-0.13350602984428406,
		0.30946066975593567,
		0.278136283159256,
		0.12207938730716705,
		0.36676105856895447,
		-0.3700121343135834,
		0.17185275256633759,
		0.26335203647613525,
		0.3691909611225128,
		0.32572808861732483,
		-0.24732555449008942,
		-0.2045808732509613,
		-0.2785305678844452,
		-0.383651465177536,
		0.364991694688797,
		-0.09201622754335403,
		0.07333007454872131,
		-0.1605025827884674,
		0.22250230610370636,
		-0.23309612274169922,
		-0.40822988748550415,
		0.25331515073776245,
		0.1330839991569519,
		0.13817423582077026,
		0.32257694005966187,
		0.14353449642658234,
		-0.2765161395072937,
		-0.371898889541626,
		0.4353160858154297,
		-0.10324951261281967,
		-0.18544907867908478,
		-0.17821529507637024,
		0.3981761932373047,
		-0.3354146182537079,
		0.07089638710021973,
		0.2758903503417969,
		-0.081763356924057,
		0.27177000045776367,
		0.06648360937833786,
		0.43820932507514954,
		0.31941795349121094,
		0.2770024836063385,
		0.2959234416484833,
		-0.09417390078306198,
		0.3854352533817291,
		0.3457343578338623,
		-0.07508548349142075,
		-0.15078593790531158,
		0.03170693665742874,
		-0.1424454301595688,
		0.19027593731880188,
		-0.3394298255443573,
		0.3161008059978485,
		0.12941424548625946,
		-0.03545726090669632,
		0.06926678121089935,
		-0.1607864648103714,
		-0.36315828561782837,
		0.333611398935318,
		0.3337659537792206,
		0.387091726064682,
		-0.04629295691847801,
		-0.3021027147769928,
		0.3695037066936493,
		0.11421582847833633,
		-0.18338671326637268,
		-0.40659067034721375,
		-0.307952344417572,
		-0.25962474942207336,
		0.3095475733280182,
		-0.30976080894470215,
		0.3279854953289032,
		0.10993903130292892,
		0.3376668393611908,
		-0.36365988850593567,
		-0.3702201247215271,
		-0.04846298322081566,
		-0.19672584533691406,
		-0.2269277423620224,
		-0.13283759355545044,
		-0.17204563319683075,
		0.3083609342575073,
		0.10636080056428909,
		0.14226892590522766,
		0.38761141896247864,
		0.35642191767692566,
		-0.36854833364486694,
		0.14227181673049927,
		0.2500801980495453,
		-0.11337587237358093,
		-0.2690025866031647,
		-0.031531382352113724,
		-0.3136696517467499,
		-0.31812894344329834,
		-0.26309531927108765,
		-0.3103049695491791,
		-0.13395901024341583,
		-0.380543977022171,
		0.4283011853694916,
		-0.12848712503910065,
		0.4432711601257324,
		-0.10545989871025085,
		0.07405220717191696,
		-0.254359632730484,
		0.07826258987188339,
		0.3600730001926422,
		0.3857576847076416,
		0.17259156703948975,
		-0.20945587754249573,
		0.2175895720720291,
		-0.015294937416911125,
		-0.27531713247299194,
		0.17320990562438965,
		0.39024657011032104,
		0.38739320635795593,
		0.42609497904777527,
		0.18483661115169525,
		-0.11774744838476181,
		0.2780449688434601,
		0.13265658915042877,
		0.3215543329715729,
		0.3755577504634857,
		-0.015427382662892342,
		0.031535644084215164,
		0.40772736072540283,
		0.3906213939189911,
		-0.23347477614879608,
		-0.33718815445899963,
		-0.2543744146823883,
		-0.34640443325042725,
		-0.313377320766449,
		0.1409422755241394,
		0.31086769700050354,
		0.3817048668861389,
		-0.07417209446430206,
		0.14857810735702515,
		0.21354614198207855,
		-0.41164717078208923,
		-0.24486680328845978,
		-0.32567286491394043,
		-0.13774742186069489,
		-0.2636950612068176,
		-0.23543334007263184,
		0.2955847680568695,
		-0.2949981391429901,
		0.405498743057251,
		0.31280237436294556,
		-0.04343421012163162,
		0.15519069135189056,
		-0.4021609425544739,
		-0.4065740704536438,
		-0.03290564566850662,
		-0.29181426763534546,
		0.2716276943683624,
		0.28514719009399414,
		0.2420889288187027,
		0.09231087565422058,
		0.39928704500198364,
		-0.10027527809143066,
		0.26996830105781555,
		-0.4129788875579834,
		0.1112036406993866,
		-0.07606334239244461,
		0.06504390388727188,
		-0.31334006786346436,
		0.4525868892669678,
		-0.3671390414237976,
		0.3909449577331543,
		-0.04627257585525513,
		-0.14685137569904327,
		-0.36264580488204956,
		0.42897549271583557,
		0.15827488899230957,
		0.04490445926785469,
		0.1565345674753189,
		0.20574960112571716,
		0.19827218353748322,
		-0.35815587639808655,
		-0.23155267536640167,
		-0.18498502671718597,
		-0.09528513252735138,
		-0.2479066699743271,
		-0.10622801631689072,
		0.3643895089626312,
		-0.1157786175608635,
		-0.28857317566871643,
		-0.12646006047725677,
		-0.2922975718975067,
		-0.4282975196838379,
		-0.3337780833244324,
		-0.22836589813232422,
		-0.2524428367614746,
		-0.07065077871084213,
		0.3818802535533905,
		-0.03525282442569733,
		-0.012507057748734951,
		0.3051435351371765,
		0.05718443542718887,
		0.10798048973083496,
		-0.34524431824684143,
		-0.053131744265556335,
		-0.08159331232309341,
		-0.1458134949207306,
		0.25015029311180115,
		-0.3684154152870178,
		-0.006828746292740107,
		-0.12511178851127625,
		-0.21828031539916992,
		0.3025168180465698,
		-0.35740992426872253,
		0.18020111322402954,
		0.13834117352962494,
		0.44174957275390625,
		0.16257067024707794,
		-0.3380148708820343,
		0.03401516005396843,
		0.36453521251678467,
		-0.14435997605323792,
		-0.2768336236476898,
		0.0924278050661087,
		0.20785851776599884,
		0.10225304961204529,
		-0.18993592262268066,
		-0.29621168971061707,
		0.35799118876457214,
		-0.18372967839241028,
		-0.4587138295173645,
		-0.1323145478963852,
		0.35850322246551514,
		-0.00627994816750288,
		0.11343768239021301,
		-0.26533034443855286,
		0.15973275899887085,
		-0.012602698057889938,
		-0.16675038635730743,
		0.3359828591346741,
		-0.16377738118171692,
		-0.409731388092041,
		0.35094061493873596,
		-0.19388431310653687,
		0.40440577268600464,
		-0.25932013988494873,
		0.27285143733024597,
		-0.24310263991355896,
		0.23671990633010864,
		-0.15100212395191193,
		-0.08478526771068573,
		0.09146163612604141,
		-0.3578187823295593,
		0.3192718029022217,
		-0.21437497437000275,
		-0.04121655225753784,
		0.43813300132751465,
		-0.14608794450759888,
		0.0646219402551651,
		0.42243537306785583,
		-0.1285582333803177,
		0.005850860849022865,
		0.03590419515967369,
		0.3487575650215149,
		0.44321441650390625,
		0.42563381791114807,
		0.05130324512720108,
		-0.2383764237165451,
		0.05579601973295212,
		0.14548572897911072,
		0.30046379566192627,
		0.4387180209159851,
		-0.195315882563591,
		0.3829081654548645,
		0.024223623797297478,
		-0.21819795668125153,
		0.3522438108921051,
		0.24346785247325897,
		0.35001805424690247,
		0.29294097423553467,
		0.32870256900787354,
		-0.29820501804351807,
		0.46460404992103577,
		-0.34812238812446594,
		0.28180497884750366,
		0.09646637737751007,
		-0.24424056708812714,
		0.24600867927074432,
		-0.2642465829849243,
		0.43754860758781433,
		0.14377713203430176,
		-0.18828868865966797,
		0.38588184118270874,
		0.2101527601480484,
		0.09233539551496506,
		0.04965788871049881,
		0.18217770755290985,
		0.44890543818473816,
		-0.16490298509597778,
		0.36694103479385376,
		-0.14426112174987793,
		-0.19625656306743622,
		0.18636348843574524,
		0.21362996101379395,
		0.06612049043178558,
		0.09840457886457443,
		-0.034534383565187454,
		-0.37867504358291626,
		0.3565979599952698,
		0.003276973497122526,
		0.1896500438451767,
		0.15631750226020813,
		0.15804672241210938,
		-0.2731805741786957,
		-0.19512835144996643,
		-0.1655556559562683,
		0.0044979527592659,
		0.3866276144981384,
		-0.2524399161338806,
		-0.10514789074659348,
		0.1664307415485382,
		-0.2849348783493042,
		0.3442367911338806,
		0.2774403989315033,
		0.08598483353853226,
		0.21475516259670258,
		-0.23117391765117645,
		0.4433477818965912,
		-0.08820401877164841,
		-0.45190778374671936,
		0.2619641423225403,
		-0.036594610661268234,
		0.06075659021735191,
		0.32976967096328735,
		0.3725244998931885,
		0.11486805975437164,
		-0.10885021835565567,
		0.048727601766586304,
		0.42214637994766235,
		0.32785892486572266,
		-0.043991658836603165,
		0.02476576715707779,
		0.15576377511024475,
		0.1759139448404312,
		0.42447152733802795,
		0.3435335159301758,
		0.22633332014083862,
		-0.46669310331344604,
		-0.299457311630249,
		0.4233931601047516,
		-0.22210420668125153,
		0.034751832485198975,
		-0.05429611727595329,
		0.23789875209331512,
		0.15113091468811035,
		-0.10641709715127945,
		0.2389940619468689,
		0.015990255400538445,
		0.2959434986114502,
		-0.25933563709259033,
		-0.267200767993927,
		0.27478283643722534,
		-0.3178810179233551,
		0.3211776316165924,
		0.09125836938619614,
		0.3445906639099121,
		0.24115681648254395,
		-0.4345431327819824,
		-0.12645123898983002,
		-0.3773730993270874,
		-0.3602769374847412,
		-0.13961577415466309,
		0.3029365539550781,
		-0.2844318151473999,
		-0.334001362323761,
		0.16779974102973938,
		-0.0014321889029815793,
		0.15098562836647034,
		0.13103319704532623,
		-0.4372573792934418,
		0.2538319528102875,
		-0.32292553782463074,
		-0.2645094692707062,
		0.06764159351587296,
		-0.0696578174829483,
		0.08931037783622742,
		-0.1924745738506317,
		-0.34143155813217163,
		-0.07049310952425003,
		-0.06715371459722519,
		0.24128542840480804,
		-0.33751681447029114,
		-0.33309346437454224,
		0.4253941774368286,
		0.20748655498027802,
		0.37744078040122986,
		-0.25876909494400024,
		-0.24901705980300903,
		0.11560127884149551,
		0.22655430436134338,
		-0.25564539432525635,
		-0.03656661882996559,
		-0.11755336076021194,
		0.34602972865104675,
		0.16073814034461975,
		0.13693878054618835,
		0.3998423218727112,
		-0.08578059822320938,
		-0.39489784836769104,
		0.2751091420650482,
		0.1297650933265686,
		0.3646860718727112,
		-0.31310907006263733,
		-0.0937247946858406,
		-0.3724147081375122,
		0.36487892270088196,
		-0.3132648468017578,
		-0.14077354967594147,
		0.3324911594390869,
		-0.2550431489944458,
		-0.21920868754386902,
		0.32297733426094055,
		-0.3267081379890442,
		0.16954642534255981,
		0.06967068463563919,
		0.417463481426239,
		0.3054935932159424,
		-0.21936827898025513,
		-0.38461917638778687,
		0.03373643383383751,
		-0.11300875246524811,
		-0.06955930590629578,
		0.46743467450141907,
		0.28071340918540955,
		0.39234256744384766,
		0.13941776752471924,
		0.17575177550315857,
		-0.3603861927986145,
		-0.10417113453149796,
		0.30122464895248413,
		-0.0997035801410675,
		0.02039913460612297,
		-0.15189121663570404,
		-0.2522338628768921,
		-0.14444808661937714,
		0.21959663927555084,
		-0.20996765792369843,
		-0.06164349988102913,
		0.39424264430999756,
		0.16119402647018433,
		-0.09576522558927536,
		-0.08433495461940765,
		0.5241308808326721,
		0.26868686079978943,
		0.09583787620067596,
		-0.21912741661071777,
		-0.06327363103628159,
		-0.07067207247018814,
		-0.024905085563659668,
		0.18750053644180298,
		-0.2632683515548706,
		0.42287206649780273,
		0.3083307147026062,
		0.2890256345272064,
		0.20473384857177734,
		-0.14234259724617004,
		0.2719692587852478,
		-0.4095366895198822,
		-0.08225934207439423,
		-0.3762962222099304,
		-0.3654021918773651,
		0.08664541691541672,
		0.3229523003101349,
		-0.08387302607297897,
		-0.15125814080238342,
		0.41790318489074707,
		0.06114736199378967,
		-0.1982155740261078,
		-0.21282805502414703,
		0.35726308822631836,
		0.35246139764785767,
		-0.016572140157222748,
		-0.16660575568675995,
		-0.10302884131669998,
		-0.5151416063308716,
		0.0856509879231453,
		0.28525352478027344,
		-0.3905814588069916,
		-0.2182687520980835,
		-0.17826391756534576,
		-0.4170679450035095,
		0.3920249342918396,
		0.12261562794446945,
		-0.18491427600383759,
		0.1428593397140503,
		-0.14706674218177795,
		-0.33711111545562744,
		-0.35897311568260193,
		-0.006725032348185778,
		-0.18842360377311707,
		0.05906319245696068,
		0.1663120836019516,
		0.23917722702026367,
		0.03523189201951027,
		-0.13908866047859192,
		0.10008764266967773,
		0.2833585739135742,
		-0.09336365014314651,
		0.010455727577209473,
		-0.25080981850624084,
		0.07045899331569672,
		0.14218874275684357,
		0.3446061611175537,
		-0.43010756373405457,
		-0.3203960061073303,
		0.15875279903411865,
		0.32871922850608826,
		0.10038696229457855,
		0.10473643988370895,
		-0.3238660395145416,
		0.11618039757013321,
		0.45709624886512756,
		-0.3893924057483673,
		-0.3072609305381775,
		0.16509410738945007,
		-0.4720742106437683,
		-0.17817845940589905,
		-0.36418601870536804,
		-0.3196116089820862,
		-0.07127521187067032,
		0.31619593501091003,
		-0.07782626152038574,
		-0.050697941333055496,
		0.28652480244636536,
		-0.20079348981380463,
		0.33260664343833923,
		-0.3872206509113312,
		-0.20368227362632751,
		0.15124306082725525,
		0.3712921142578125,
		-0.3278822898864746,
		-0.22512109577655792,
		0.3355742394924164,
		0.2904086410999298,
		0.12366990745067596,
		-0.27274468541145325,
		-0.05945926532149315,
		0.11232759803533554,
		0.13447515666484833,
		0.2951849400997162,
		-0.37882882356643677,
		-0.1285298466682434,
		-0.19868384301662445,
		0.384300172328949,
		-0.3123849928379059,
		0.04746094346046448,
		0.28589117527008057,
		0.35143011808395386,
		-0.24852460622787476,
		0.3759970963001251,
		0.46187520027160645,
		-0.20915775001049042,
		0.3584178388118744,
		-0.05916421860456467,
		0.04735783860087395,
		-0.10774676501750946,
		0.2950400412082672,
		-0.3099513649940491,
		-0.2731446921825409,
		-0.2459346204996109,
		0.16522274911403656,
		-0.24047619104385376,
		0.20480430126190186,
		-0.33601853251457214,
		-0.04117201268672943,
		-0.11672153323888779,
		-0.0044441805221140385,
		-0.37120842933654785,
		-0.3976016342639923,
		0.1587820202112198,
		-0.20213676989078522,
		0.14993715286254883,
		-0.35747721791267395,
		0.19775086641311646,
		-0.09243940562009811,
		-0.34098947048187256,
		-0.09587857127189636,
		-0.279155433177948,
		0.204121395945549,
		0.24007414281368256,
		0.11561352014541626,
		0.2917907238006592,
		0.09469927847385406,
		-0.30687159299850464,
		0.009566834196448326,
		0.1653580218553543,
		-0.4410433769226074,
		0.023041285574436188,
		-0.37357276678085327,
		0.40019866824150085,
		0.2586950659751892,
		-0.23430335521697998,
		-0.2600002586841583,
		-0.3138728439807892,
		-0.11466240137815475,
		0.2231590896844864,
		0.22824326157569885,
		0.14238274097442627,
		-0.41601961851119995,
		-0.12336479872465134,
		-0.12187747657299042,
		0.4277077317237854,
		0.22936488687992096,
		0.2443830966949463,
		-0.47279736399650574,
		0.3019441068172455,
		0.45658352971076965,
		-0.18628846108913422,
		0.08942532539367676,
		-0.47869881987571716,
		-0.12851549685001373,
		-0.10717388242483139,
		-0.4074365794658661,
		0.06602299213409424,
		-0.1016685962677002,
		-0.2592430114746094,
		0.2171105444431305,
		-0.07001937180757523,
		-0.26714983582496643,
		0.17935851216316223,
		-0.1756485402584076,
		-0.14511534571647644,
		-0.16512742638587952,
		-0.46453139185905457,
		0.3539108335971832,
		0.36711233854293823,
		-0.17717866599559784,
		0.4060417413711548,
		-0.06094362586736679,
		-0.1707441508769989,
		0.3903176486492157,
		0.1669258177280426,
		-0.2687268555164337,
		-0.334177166223526,
		-0.3635695278644562,
		0.2324259877204895,
		0.2530699670314789,
		-0.32152223587036133,
		-0.14246603846549988,
		0.2216024547815323,
		-0.32332316040992737,
		-0.03607448190450668,
		0.22689306735992432,
		0.4437119662761688,
		-0.058821309357881546,
		0.03799004852771759,
		-0.16916702687740326,
		-0.21844594180583954,
		-0.0374964140355587,
		-0.25998347997665405,
		-0.2088814675807953,
		-0.28720375895500183,
		-0.4256153106689453,
		-0.405473530292511,
		0.3336380422115326,
		0.1451408565044403,
		0.07325002551078796,
		-0.07478486746549606,
		0.15340736508369446,
		-0.35332202911376953,
		-0.12967167794704437,
		-0.31008651852607727,
		-0.03909660130739212,
		0.2323148101568222,
		0.0687154084444046,
		-0.25078266859054565,
		-0.22700290381908417,
		-0.4712828993797302,
		0.26343756914138794,
		-0.10061383992433548,
		-0.41957995295524597,
		0.014544096775352955,
		-0.12336960434913635,
		0.1403091549873352,
		0.14811979234218597,
		-0.23106896877288818,
		0.03491731360554695,
		-0.43399062752723694,
		0.11535178124904633,
		-0.07120292633771896,
		0.44970789551734924,
		-0.1651173233985901,
		0.37512072920799255,
		-0.35595420002937317,
		-0.44471630454063416,
		-0.05534287914633751,
		0.015359942801296711,
		0.42805245518684387,
		-0.3599604070186615,
		-0.14541028439998627,
		-0.3707852363586426,
		0.15024352073669434,
		-0.26018282771110535,
		-0.07301928102970123,
		0.235540509223938,
		0.06099194660782814,
		-0.332068532705307,
		-0.3264388144016266,
		0.1869262158870697,
		-0.03993203863501549,
		0.3002150356769562,
		-0.057009007781744,
		0.17863820493221283,
		-0.20753103494644165,
		-0.3685451149940491,
		0.2507033944129944,
		-0.08997979760169983,
		0.04173630475997925,
		-0.22089974582195282,
		-0.11236898601055145,
		0.37320607900619507,
		-0.41069406270980835,
		0.2743639051914215,
		0.18732468783855438,
		-0.2904929220676422,
		0.2517361640930176,
		-0.2577497065067291,
		-0.3097093999385834,
		-0.07242681831121445,
		0.1146923303604126,
		-0.4044880270957947,
		0.21331077814102173,
		-0.2706754207611084,
		-0.35491830110549927,
		0.37026238441467285,
		-0.18528619408607483,
		0.3985341787338257,
		0.08964898437261581,
		-0.2562069296836853,
		-0.36058762669563293,
		0.15113715827465057,
		0.010473564267158508,
		-0.16191710531711578,
		0.03881300613284111,
		-0.4078092873096466,
		0.4086962044239044,
		0.37411341071128845,
		-0.0011694858549162745,
		0.05454717203974724,
		0.07538194209337234,
		0.15426982939243317,
		0.32602056860923767,
		0.12725794315338135,
		-0.05132316052913666,
		0.05328254774212837,
		0.04195685312151909,
		0.15745548903942108,
		-0.27961471676826477,
		-0.2779410779476166,
		0.14830492436885834,
		0.2032202184200287,
		0.3302139341831207,
		-0.42245832085609436,
		0.12517251074314117,
		0.09920040518045425,
		0.37725239992141724,
		0.1798086017370224,
		0.1927352249622345,
		0.36670246720314026,
		0.12371870875358582,
		0.37143799662590027,
		-0.0916985273361206,
		-0.11808523535728455,
		-0.34268510341644287,
		0.292218416929245,
		-0.0882587656378746,
		0.37975868582725525,
		-0.13530007004737854,
		-0.3880140483379364,
		-0.2852127254009247,
		0.2931707501411438,
		0.43306848406791687,
		0.20415665209293365,
		-0.1261751800775528,
		-0.452826589345932,
		0.04175378754734993,
		-0.05685960501432419,
		-0.3777933418750763,
		-0.09025301784276962,
		4.470043641049415E-4,
		0.05630556493997574,
		-0.2440013289451599,
		0.14361995458602905,
		-0.03870580717921257,
		-0.27531734108924866,
		0.39984560012817383,
		-0.2899850010871887,
		0.3750658333301544,
		-0.14941908419132233,
		-0.0951007753610611,
		-0.17798343300819397,
		0.008291464298963547,
		0.41057756543159485,
		-0.007307171821594238,
		-0.2794269621372223,
		-0.38149935007095337,
		0.21895718574523926,
		-0.42109206318855286,
		0.32810211181640625,
		-0.32650893926620483,
		-0.21692200005054474,
		0.14219744503498077,
		-0.011347467079758644,
		-0.022396940737962723,
		0.319763720035553,
		0.09068584442138672,
		0.39173623919487,
		0.4747302234172821,
		0.1412269026041031,
		0.3489415645599365,
		-0.18108484148979187,
		0.15825068950653076,
		-0.32770034670829773,
		-0.208009734749794,
		0.28032439947128296,
		-0.05797717347741127,
		-0.11908219009637833,
		0.4330010414123535,
		-0.3586078882217407,
		-0.2728419899940491,
		-0.22427713871002197,
		0.4219905734062195,
		-0.1257750540971756,
		-0.10545676201581955,
		0.04933435842394829,
		-0.10124705731868744,
		0.25438857078552246,
		0.2014852911233902,
		-0.33773934841156006,
		-0.31476452946662903,
		0.06782497465610504,
		-0.18684472143650055,
		0.04925285652279854,
		0.23926198482513428,
		-0.35527196526527405,
		0.25857046246528625,
		-0.21490049362182617,
		0.05510828271508217,
		-0.2116110771894455,
		-0.3285084664821625,
		0.22508448362350464,
		-0.3629012703895569,
		-0.1695682555437088,
		-0.27254512906074524,
		0.35505610704421997,
		-0.052738454192876816,
		-0.1709471493959427,
		0.12330105900764465,
		-0.22748349606990814,
		0.3771437406539917,
		0.34380584955215454,
		0.30263739824295044,
		0.1138029396533966,
		0.19763027131557465,
		-0.1658380925655365,
		-0.39116403460502625,
		-0.09026631712913513,
		0.49874916672706604,
		0.09934663772583008
	],
	"biases": [
		0.0014993532095104456,
		1.0220044350717217E-4,
		-8.404163527302444E-4,
		-8.081781561486423E-4,
		-0.0013406890211626887,
		0.0016134484903886914,
		3.475535777397454E-5,
		4.937504418194294E-4,
		-0.0014504719292744994,
		-5.157908890396357E-4,
		2.761117648333311E-4,
		1.3090294669382274E-4,
		-9.219541680067778E-4,
		-4.0665638516657054E-4,
		-2.176081616198644E-4,
		-3.731439355760813E-4,
		7.95060012023896E-4,
		-5.334924790076911E-4,
		3.4324638545513153E-4,
		1.5869918570388108E-4,
		2.6100463583134115E-4,
		0.0018447025213390589,
		0.0012706619454547763,
		-1.881911448435858E-4,
		-2.3023723042570055E-4,
		-1.2172031711088493E-4,
		9.979136666515842E-5,
		5.1465471187839285E-5,
		-2.6022750535048544E-4,
		6.125516956672072E-4,
		-6.654605967923999E-4,
		8.538210531696677E-4,
		9.147124364972115E-4,
		-2.2922556672710925E-4,
		2.328798291273415E-4,
		-3.5638114786706865E-4,
		1.9220066315028816E-4,
		-1.768374495441094E-4,
		1.9689886539708823E-4,
		-1.2957685976289213E-4,
		2.662643964868039E-4,
		-2.4500349536538124E-4,
		1.0438988829264417E-4,
		-5.750879063270986E-4,
		1.4724998618476093E-4,
		5.259709432721138E-4,
		1.0062386718345806E-4,
		-4.909605922875926E-5,
		2.8705879230983555E-4,
		3.446021000854671E-4,
		4.0342440479435027E-4,
		-4.897603648714721E-4,
		3.35628938046284E-5,
		-1.1940422700718045E-4,
		5.068727186881006E-4,
		-7.460283231921494E-4,
		6.849518831586465E-5,
		9.092313121072948E-6,
		7.878277392592281E-5,
		0.0010045022936537862,
		3.3680313208606094E-5,
		9.379411494592205E-5,
		1.8021433788817376E-4,
		-2.0810177375096828E-4,
		-6.99415904819034E-5,
		-1.701054279692471E-4,
		7.276959513546899E-5,
		-3.802006831392646E-4,
		5.563241211348213E-5,
		-3.6095548421144485E-4,
		-1.8164746870752424E-4,
		2.072491406579502E-5,
		-1.4799599011894315E-4,
		6.582240457646549E-4,
		2.6777601306093857E-5,
		-2.6284533305442892E-5,
		5.687770317308605E-5,
		8.15049686934799E-4,
		-1.0155206837225705E-5,
		7.808097507222556E-6,
		0.0011554884258657694,
		5.470289033837616E-4
	]
}