{
	"settings": {
		"name": "PGCartpole",
		"weightDecay": 9.999999974752427E-7,
		"stepWeights": 3.3000000985339284E-4,
		"stepBiases": 3.3000000985339284E-4,
		"lossFunction": "NoLoss",
		"size": [
			4.0,
			64.0,
			64.0,
			16.0,
			2.0
		]
	},
	"activators": [
		"ReLU",
		"Tanh",
		"SoftMax",
		"Tanh"
	],
	"weights": [
		0.3546939492225647,
		0.3538118898868561,
		0.189919576048851,
		-0.31591662764549255,
		0.2890314757823944,
		-0.3771213889122009,
		0.08941187709569931,
		0.17697876691818237,
		-0.26037997007369995,
		0.48261961340904236,
		-0.3868582546710968,
		-0.32585182785987854,
		0.4800913333892822,
		0.0864991843700409,
		0.028483128175139427,
		-0.20097951591014862,
		-0.3151836395263672,
		0.04517911747097969,
		-0.2640301287174225,
		0.16091370582580566,
		0.17939665913581848,
		-0.48860418796539307,
		-0.2184431254863739,
		-0.28305137157440186,
		-0.32925769686698914,
		0.4472387135028839,
		-0.4229828417301178,
		-0.49165183305740356,
		0.30723047256469727,
		-0.06090615317225456,
		0.43958938121795654,
		0.04928860813379288,
		-0.23530185222625732,
		0.2801818251609802,
		-0.04644085466861725,
		-0.14700505137443542,
		0.11274067312479019,
		0.43060776591300964,
		0.42750322818756104,
		0.10055260360240936,
		-0.3969859182834625,
		-0.14282210171222687,
		0.21559196710586548,
		0.29693901538848877,
		-0.34001362323760986,
		0.1636839658021927,
		-0.043603841215372086,
		-0.2242075651884079,
		0.28017815947532654,
		-0.004254220053553581,
		0.3440401256084442,
		0.31575527787208557,
		0.2945934236049652,
		-0.46287769079208374,
		0.45604488253593445,
		-0.21693561971187592,
		-0.1445501446723938,
		-0.36333438754081726,
		0.18289326131343842,
		-0.42912527918815613,
		-0.0846870094537735,
		0.0036662810016423464,
		-0.13420391082763672,
		-0.08990953117609024,
		0.3803490400314331,
		0.1293305605649948,
		-0.19855032861232758,
		-0.47567760944366455,
		0.0804937332868576,
		-0.3901436924934387,
		-0.12190360575914383,
		-0.09869799017906189,
		-0.3046025335788727,
		0.3144461214542389,
		0.2423408329486847,
		-0.4674537777900696,
		0.31771206855773926,
		0.4323013722896576,
		-0.43224820494651794,
		-0.2734391689300537,
		0.36920619010925293,
		-0.2835468649864197,
		0.1679425984621048,
		0.30115118622779846,
		0.16000019013881683,
		0.43969249725341797,
		-0.01590515673160553,
		0.27510198950767517,
		-0.45326897501945496,
		0.4616524279117584,
		0.13515989482402802,
		-0.10716310143470764,
		-0.25581517815589905,
		0.43999895453453064,
		-0.3729880154132843,
		-0.23107685148715973,
		-0.43406903743743896,
		-0.21211549639701843,
		-0.4664459526538849,
		-0.33803677558898926,
		0.03556229546666145,
		0.13913565874099731,
		-0.104227215051651,
		0.40181422233581543,
		-0.38425347208976746,
		0.18600225448608398,
		0.41095754504203796,
		-0.18214325606822968,
		0.0010070113930851221,
		0.49800577759742737,
		-0.06717514246702194,
		0.040045734494924545,
		-0.18711425364017487,
		-0.4002385139465332,
		-0.27107036113739014,
		0.4947067201137543,
		0.2767075002193451,
		-0.11312034726142883,
		0.45014092326164246,
		-0.04354071244597435,
		0.4233112335205078,
		0.20130281150341034,
		-0.2594652473926544,
		-0.4942513108253479,
		0.1745673269033432,
		-0.27322253584861755,
		0.4508574903011322,
		-0.0574524886906147,
		0.16275006532669067,
		-0.3348134756088257,
		-0.4296376705169678,
		0.16484183073043823,
		0.06895242631435394,
		-0.3676290512084961,
		-0.05205270275473595,
		0.2928398847579956,
		-0.24547885358333588,
		-0.03460238128900528,
		0.18471556901931763,
		-0.10417723655700684,
		0.49722468852996826,
		0.24081362783908844,
		0.07645033299922943,
		0.4682120680809021,
		0.2074335366487503,
		0.1129763126373291,
		0.30196061730384827,
		0.45541372895240784,
		-0.46160688996315,
		0.2280556708574295,
		0.2288055568933487,
		0.4606398642063141,
		0.4962295591831207,
		0.37502729892730713,
		-0.038075681775808334,
		0.011976677924394608,
		0.2608998417854309,
		0.2079647183418274,
		0.07656557857990265,
		0.15444889664649963,
		-0.4247703552246094,
		-0.14002980291843414,
		-0.2157582938671112,
		0.42163652181625366,
		0.3644642233848572,
		-0.48369690775871277,
		-0.3793371915817261,
		0.21166831254959106,
		-0.07728298008441925,
		-0.4584676921367645,
		0.15924909710884094,
		0.4219684898853302,
		0.2564049959182739,
		0.0734686478972435,
		-0.35484838485717773,
		0.2755472660064697,
		0.08284205943346024,
		0.0917918011546135,
		-0.12230891734361649,
		-0.3973858654499054,
		0.19102603197097778,
		-0.1665945202112198,
		0.20752643048763275,
		-0.4829953908920288,
		-0.15144871175289154,
		0.10878362506628036,
		-0.05972107872366905,
		0.33883702754974365,
		0.2581765353679657,
		0.4920477867126465,
		0.03882184624671936,
		-0.19131648540496826,
		0.06317600607872009,
		-0.4236019551753998,
		-0.42146962881088257,
		0.11456461995840073,
		0.29523518681526184,
		0.4863313138484955,
		-0.023809846490621567,
		0.08459771424531937,
		0.22601597011089325,
		-0.3270001709461212,
		-0.2910565137863159,
		-0.15893754363059998,
		0.036819323897361755,
		0.4513208866119385,
		-0.17170365154743195,
		-0.3646584451198578,
		0.330016553401947,
		0.27298930287361145,
		0.35211607813835144,
		0.1406783163547516,
		0.06850499659776688,
		-0.348349004983902,
		0.2788606882095337,
		0.39327701926231384,
		-0.36202043294906616,
		-0.2699085474014282,
		-0.24458903074264526,
		-0.2743759751319885,
		0.4067769944667816,
		0.07659918814897537,
		-0.27218911051750183,
		-0.48894739151000977,
		0.32240813970565796,
		-0.21592584252357483,
		0.21185505390167236,
		0.27313992381095886,
		-0.23413729667663574,
		0.20720762014389038,
		0.17038559913635254,
		-0.2872557044029236,
		0.19248828291893005,
		-0.2793947756290436,
		-0.1273564100265503,
		0.49283698201179504,
		-0.18156105279922485,
		-0.3645240068435669,
		-0.4613458812236786,
		0.2782011330127716,
		-0.10187654197216034,
		0.09105594456195831,
		-0.003998568281531334,
		0.25395143032073975,
		0.04695001617074013,
		0.03785013407468796,
		0.07443994283676147,
		-0.36745724081993103,
		0.3516472280025482,
		-0.3769153952598572,
		0.44256630539894104,
		-0.03797587752342224,
		-0.03336181864142418,
		0.2299162894487381,
		-0.3196389079093933,
		-0.15394003689289093,
		0.2885451018810272,
		0.13889704644680023,
		0.3860740065574646,
		-0.41290873289108276,
		-0.19429239630699158,
		0.24514761567115784,
		0.3071908950805664,
		-0.3930424153804779,
		0.14581409096717834,
		-0.37962085008621216,
		-0.4968115985393524,
		-0.0021903638262301683,
		-0.04202386364340782,
		-0.31034567952156067,
		-0.17376011610031128,
		0.4012954533100128,
		-0.2749570310115814,
		-0.28582748770713806,
		0.1452263593673706,
		-0.47405362129211426,
		-0.22666126489639282,
		-0.17328524589538574,
		-0.05154029652476311,
		-0.011168287135660648,
		0.31000006198883057,
		0.330656498670578,
		0.2667921781539917,
		-0.10730651021003723,
		0.4927213191986084,
		0.133076474070549,
		0.13062717020511627,
		0.4035363495349884,
		0.20235972106456757,
		0.14606985449790955,
		0.06782407313585281,
		-0.049047861248254776,
		0.41820788383483887,
		0.27626314759254456,
		-0.4473741948604584,
		0.07700574398040771,
		-0.16596977412700653,
		0.1111057847738266,
		-0.35001054406166077,
		-0.14235015213489532,
		-0.4007628858089447,
		-0.2477577030658722,
		-0.43990200757980347,
		-0.19206947088241577,
		-0.06837112456560135,
		0.3334847688674927,
		0.16531041264533997,
		-0.38129502534866333,
		-0.36880937218666077,
		-0.3530646562576294,
		0.21434801816940308,
		-0.33895403146743774,
		0.40826573967933655,
		-0.08741424232721329,
		0.22807841002941132,
		0.1506814807653427,
		0.3785777986049652,
		0.25648945569992065,
		-0.18935568630695343,
		0.05222092568874359,
		-0.0753973200917244,
		-0.4258156716823578,
		-0.4306368827819824,
		0.28219208121299744,
		-0.32269904017448425,
		-0.47047939896583557,
		0.4866049885749817,
		-0.42851296067237854,
		0.3017069399356842,
		0.2167404741048813,
		0.20750582218170166,
		0.3340182304382324,
		0.3228089511394501,
		-0.4615194797515869,
		0.34091928601264954,
		0.3055398166179657,
		0.25912538170814514,
		-0.2875867784023285,
		-0.34909677505493164,
		0.21187956631183624,
		-0.03832869604229927,
		0.49549803137779236,
		-0.3666127622127533,
		-0.26060715317726135,
		0.1253332644701004,
		-0.4634460508823395,
		-0.16319973766803741,
		0.15674149990081787,
		-0.3713708519935608,
		-0.0011939727701246738,
		-0.010345758870244026,
		0.4569839537143707,
		0.4963149130344391,
		0.11682987213134766,
		-0.12307009845972061,
		-0.4291597902774811,
		0.059311896562576294,
		0.4758234918117523,
		-0.2677445709705353,
		0.25348013639450073,
		0.023747703060507774,
		-0.03150330111384392,
		-0.1929122507572174,
		-0.43153026700019836,
		0.06601862609386444,
		0.09723932296037674,
		-0.3118760287761688,
		0.3663622736930847,
		-0.24150852859020233,
		-0.03933318704366684,
		-0.12302355468273163,
		0.18091422319412231,
		-0.46311554312705994,
		-0.4324420988559723,
		0.14031562209129333,
		-0.07359059900045395,
		-0.22960041463375092,
		0.33704331517219543,
		0.12394631654024124,
		0.35796821117401123,
		-0.10970477759838104,
		-0.4333924949169159,
		-0.2182462066411972,
		-0.13373906910419464,
		-0.0390738807618618,
		0.3180050253868103,
		0.2350081354379654,
		0.17798803746700287,
		0.054795194417238235,
		-0.2074400633573532,
		-0.2080763578414917,
		-0.14558550715446472,
		0.27056002616882324,
		0.3823188841342926,
		-0.04991490766406059,
		-0.062428127974271774,
		0.26520925760269165,
		-0.17169886827468872,
		0.44297099113464355,
		0.016769496724009514,
		-0.2772994041442871,
		-0.40935957431793213,
		-0.48825693130493164,
		0.02275817096233368,
		0.2694624364376068,
		0.30691099166870117,
		-0.15698379278182983,
		0.4946156442165375,
		-0.015294906683266163,
		-0.4740697741508484,
		-0.08446162194013596,
		-0.2741027772426605,
		-0.2538401782512665,
		0.10802163183689117,
		-0.3136149048805237,
		0.12167532742023468,
		0.4131443202495575,
		-0.2712477445602417,
		-0.028493059799075127,
		0.4072064757347107,
		0.0013210800243541598,
		-0.46284806728363037,
		0.1759369820356369,
		-0.25606268644332886,
		-0.2551659941673279,
		-0.305736243724823,
		0.40885043144226074,
		-0.31167107820510864,
		0.2746013402938843,
		-0.2698720693588257,
		0.4630897045135498,
		-0.011520318686962128,
		-0.11683458834886551,
		-0.20552076399326324,
		-0.43953582644462585,
		-0.4587012529373169,
		0.19703878462314606,
		-0.2465250939130783,
		0.2430163025856018,
		-0.49572014808654785,
		0.49531659483909607,
		-0.2740519046783447,
		0.33986034989356995,
		0.4902370870113373,
		0.23447923362255096,
		0.1040426641702652,
		0.38864338397979736,
		-0.05341463163495064,
		0.3283138573169708,
		0.31917762756347656,
		-0.42533281445503235,
		0.29799968004226685,
		0.18210692703723907,
		-0.3913946747779846,
		-0.24201060831546783,
		0.2767287492752075,
		0.4455662667751312,
		-0.1752227544784546,
		-0.13287049531936646,
		-0.20795756578445435,
		0.017940478399395943,
		-0.08397670090198517,
		-0.4691421687602997,
		0.12110934406518936,
		-0.15491950511932373,
		-0.006648924667388201,
		-0.4224558472633362,
		-0.2260923832654953,
		-0.3109391927719116,
		0.09080870449542999,
		-0.26559582352638245,
		0.24983926117420197,
		0.11597145348787308,
		-0.4076368510723114,
		-0.3950674533843994,
		0.14823275804519653,
		-0.3575392961502075,
		-0.007402482908219099,
		-0.1867114156484604,
		0.45892390608787537,
		0.11437083780765533,
		0.15652625262737274,
		0.023703448474407196,
		-0.31453391909599304,
		0.17203277349472046,
		0.4385906159877777,
		0.37816548347473145,
		0.38014283776283264,
		-0.1897680163383484,
		0.11889763921499252,
		-0.19645199179649353,
		0.07075341045856476,
		-0.10389003902673721,
		0.3711652159690857,
		-0.4741708040237427,
		0.010345361195504665,
		-0.2253728210926056,
		-0.3762218654155731,
		0.11549998819828033,
		0.178221195936203,
		-0.08036532253026962,
		0.4841161072254181,
		0.3250705599784851,
		-0.004696868360042572,
		-0.008639455772936344,
		-0.34653782844543457,
		5.603923927992582E-4,
		-0.3090357780456543,
		-0.47412219643592834,
		0.05683644115924835,
		0.4074968993663788,
		-0.04341127350926399,
		-0.07005532830953598,
		0.306081086397171,
		0.37255728244781494,
		-0.4966416656970978,
		0.42922449111938477,
		-0.05634058266878128,
		-0.2821134924888611,
		0.38542890548706055,
		0.07143215090036392,
		0.3179130256175995,
		-0.35668882727622986,
		-0.4355989098548889,
		-0.054106056690216064,
		-0.03636413812637329,
		-0.1427859663963318,
		-0.09446967393159866,
		0.33765432238578796,
		0.17342570424079895,
		0.43365001678466797,
		0.059489019215106964,
		-0.40582892298698425,
		0.14517587423324585,
		-0.3613165616989136,
		-0.08464811742305756,
		0.10535670071840286,
		0.4171491861343384,
		0.18083979189395905,
		0.10368656367063522,
		0.0010596922365948558,
		-0.4393746554851532,
		-0.2917574942111969,
		-0.07083042711019516,
		-0.2524604797363281,
		0.0059395465068519115,
		-0.4244001507759094,
		0.3427148163318634,
		0.14411865174770355,
		-0.2909644544124603,
		0.3914889991283417,
		0.11833986639976501,
		-0.09987090528011322,
		-0.21158574521541595,
		0.14273521304130554,
		0.14158818125724792,
		0.24643954634666443,
		-0.30373841524124146,
		0.13100773096084595,
		-0.13924607634544373,
		-0.10638634860515594,
		0.481000691652298,
		0.44846099615097046,
		0.2480435073375702,
		-0.09136508405208588,
		-0.3488216698169708,
		0.13111509382724762,
		0.3173036575317383,
		0.03039971925318241,
		-0.27118661999702454,
		-0.3284492790699005,
		0.1138187050819397,
		0.2760384976863861,
		0.12540091574192047,
		0.1198621615767479,
		0.3423014283180237,
		-0.33359476923942566,
		0.07536184042692184,
		-0.43979910016059875,
		0.26206550002098083,
		0.3277728855609894,
		0.4441545903682709,
		0.32656046748161316,
		0.23350264132022858,
		0.2694811522960663,
		-0.005302028730511665,
		0.03782818093895912,
		0.3805225193500519,
		-0.4207233786582947,
		0.2208370864391327,
		0.0732058435678482,
		0.1335635930299759,
		-0.0767299085855484,
		0.26872676610946655,
		-0.06101062148809433,
		0.03618635609745979,
		-0.220645010471344,
		-0.4814119338989258,
		-0.4048275947570801,
		0.10416214168071747,
		-0.07352553308010101,
		0.3583654761314392,
		-0.3648037910461426,
		0.17563918232917786,
		0.4289998412132263,
		0.37504181265830994,
		-0.019551200792193413,
		0.16102631390094757,
		0.47510552406311035,
		-0.41365155577659607,
		-0.4325464367866516,
		-0.16747137904167175,
		0.16419246792793274,
		-0.31624799966812134,
		0.35854583978652954,
		-0.19379261136054993,
		-0.40909770131111145,
		0.23509034514427185,
		-0.07217781245708466,
		-0.32150885462760925,
		0.32545384764671326,
		-0.3987707495689392,
		-0.2978590726852417,
		-0.1630287915468216,
		-0.272237092256546,
		-0.06688805669546127,
		-0.001715811318717897,
		0.3522970974445343,
		0.3033791482448578,
		0.02516731061041355,
		-0.12190117686986923,
		0.4787260890007019,
		-0.20644204318523407,
		-0.1266031563282013,
		-0.10631594806909561,
		-0.2806955873966217,
		0.44283193349838257,
		-0.18840406835079193,
		-0.15331301093101501,
		0.11827259510755539,
		0.4710807502269745,
		-0.229161337018013,
		-0.27600228786468506,
		0.44719913601875305,
		-0.4002419412136078,
		-0.2822362184524536,
		0.09954696148633957,
		0.16144879162311554,
		0.07692767679691315,
		-0.38451823592185974,
		0.4206808805465698,
		-0.3826705515384674,
		-0.3591960370540619,
		0.30788952112197876,
		-0.2494230568408966,
		-0.1669105887413025,
		0.3592011630535126,
		-0.41321077942848206,
		-0.25591331720352173,
		0.19885507225990295,
		0.4869968891143799,
		0.28280171751976013,
		-0.1186157613992691,
		-0.0840446799993515,
		-0.028386393561959267,
		-0.2767821252346039,
		0.19226492941379547,
		-0.3613266348838806,
		0.48625147342681885,
		-0.053279243409633636,
		0.04680640250444412,
		-0.2543722093105316,
		-0.48383909463882446,
		0.1934700757265091,
		-0.12630483508110046,
		-0.11428530514240265,
		0.1860445886850357,
		-0.19635936617851257,
		0.04449551925063133,
		-0.029076846316456795,
		0.382299542427063,
		0.27021199464797974,
		-0.4700605273246765,
		-0.40939152240753174,
		-0.1579568088054657,
		0.49461376667022705,
		0.34116503596305847,
		-0.11167091131210327,
		-0.1811930388212204,
		0.3459213674068451,
		0.26477691531181335,
		0.3255942165851593,
		0.20965231955051422,
		-0.4435572922229767,
		-0.21266448497772217,
		0.3622433841228485,
		-0.10588862746953964,
		-0.39692530035972595,
		-0.2827455997467041,
		0.03949546813964844,
		0.44754624366760254,
		-0.3049412965774536,
		0.47875145077705383,
		-0.35712239146232605,
		0.3472565710544586,
		0.16387441754341125,
		-0.3438439667224884,
		0.10408393293619156,
		0.18490341305732727,
		-0.3942968249320984,
		-0.0653008371591568,
		-0.4189596176147461,
		0.46998196840286255,
		-0.14501261711120605,
		0.300788015127182,
		-0.3341963291168213,
		0.0808480754494667,
		0.49403876066207886,
		-0.08828269690275192,
		0.06989132612943649,
		0.48043426871299744,
		-0.1205248013138771,
		-0.1664998084306717,
		0.16632893681526184,
		0.44273215532302856,
		-0.1701899766921997,
		-0.4524227976799011,
		-0.2874683737754822,
		0.0849127471446991,
		0.05094097927212715,
		-0.14317917823791504,
		0.23213313519954681,
		-0.2832588255405426,
		-0.0014843131648376584,
		-0.33995750546455383,
		0.005709095858037472,
		0.1570037603378296,
		0.3981436789035797,
		-0.16655190289020538,
		0.30452093482017517,
		-0.09805995225906372,
		-0.11015870422124863,
		0.3650287985801697,
		-0.3971641957759857,
		-0.25904741883277893,
		0.25660425424575806,
		-0.2757536768913269,
		-0.2955425977706909,
		0.2432851940393448,
		-0.41711944341659546,
		0.37712761759757996,
		0.3960295021533966,
		-0.20221185684204102,
		0.18316715955734253,
		0.34886491298675537,
		0.015271257609128952,
		-0.27304720878601074,
		-0.3605034351348877,
		-0.38309580087661743,
		-0.49334022402763367,
		0.4128279387950897,
		0.30499592423439026,
		0.22594396770000458,
		-0.027503499761223793,
		0.21195070445537567,
		-0.28166279196739197,
		0.014730772003531456,
		0.40027227997779846,
		0.38728657364845276,
		-0.05959048494696617,
		-0.12583574652671814,
		0.23423612117767334,
		0.2842233180999756,
		0.4739969074726105,
		-0.3494316637516022,
		-0.24902679026126862,
		0.4031846225261688,
		-0.4130399823188782,
		-0.14379271864891052,
		-0.2706865072250366,
		0.10868790745735168,
		-0.017356954514980316,
		-0.43188023567199707,
		-0.2625080943107605,
		0.22282631695270538,
		-0.3641619086265564,
		0.05406682938337326,
		0.45882463455200195,
		-0.11978244036436081,
		0.13392610847949982,
		-0.05938337743282318,
		-0.09854612499475479,
		-0.40639716386795044,
		0.4013606905937195,
		-0.06977754086256027,
		-0.04596202075481415,
		-0.324708491563797,
		-0.23950758576393127,
		0.4366544783115387,
		-0.21215589344501495,
		-0.1932065486907959,
		0.31901049613952637,
		-0.2215030938386917,
		-0.25774917006492615,
		-0.2283872365951538,
		0.424210786819458,
		-0.07538775354623795,
		-0.0711272656917572,
		0.11299022287130356,
		0.39357516169548035,
		0.22426912188529968,
		-0.4564286172389984,
		-0.24401026964187622,
		0.13219520449638367,
		-0.11403822153806686,
		-0.04126221314072609,
		0.4121306836605072,
		0.27477654814720154,
		0.4767214357852936,
		0.061066240072250366,
		-0.020382419228553772,
		0.4039382040500641,
		0.18953827023506165,
		-0.11766248941421509,
		-0.06886551529169083,
		-0.4695078432559967,
		0.0774456188082695,
		-0.4443979859352112,
		0.1875775158405304,
		0.46501365303993225,
		0.07934959977865219,
		-0.2077292948961258,
		-0.1862250417470932,
		-0.02666374482214451,
		0.15749096870422363,
		-0.41690677404403687,
		0.3786770701408386,
		0.4957035779953003,
		-0.48540419340133667,
		-0.4333759844303131,
		-0.16552035510540009,
		0.15672309696674347,
		0.46421951055526733,
		-0.403069406747818,
		0.21963368356227875,
		0.1852736622095108,
		0.2422102391719818,
		0.32860761880874634,
		-0.3436392843723297,
		0.3505946695804596,
		-0.3531211018562317,
		0.28408190608024597,
		-0.42534783482551575,
		0.0491340346634388,
		0.24427823722362518,
		-0.2799318730831146,
		0.33293616771698,
		-0.36812517046928406,
		-0.44718366861343384,
		-0.171512171626091,
		-0.03258057311177254,
		0.24233336746692657,
		0.3997077941894531,
		0.2337110936641693,
		0.008405463770031929,
		-0.09299911558628082,
		-0.4325254559516907,
		0.4747333228588104,
		0.0555216409265995,
		-0.16379514336585999,
		-0.46125471591949463,
		0.2026921659708023,
		-0.026173163205385208,
		-7.426446536555886E-4,
		0.21181906759738922,
		0.10590466111898422,
		0.40323323011398315,
		-0.22610309720039368,
		0.22276562452316284,
		0.16433244943618774,
		-0.4348430335521698,
		0.10591260343790054,
		-0.46405959129333496,
		-0.31910082697868347,
		0.15404102206230164,
		-0.0028195383492857218,
		-0.06882720440626144,
		-0.31471458077430725,
		-0.4458199441432953,
		0.25732406973838806,
		0.025288643315434456,
		-0.2527901530265808,
		0.38900062441825867,
		0.4471316635608673,
		0.4656384289264679,
		-0.09855707734823227,
		0.002735875081270933,
		-0.388632208108902,
		0.07760889828205109,
		0.4094551205635071,
		0.26659584045410156,
		-0.07616043090820312,
		-0.22481968998908997,
		0.33158108592033386,
		-0.24368682503700256,
		-0.3258649408817291,
		0.24185924232006073,
		0.42310550808906555,
		0.23024336993694305,
		0.012968269176781178,
		-0.48794350028038025,
		-0.27082350850105286,
		0.014097877778112888,
		-0.18099930882453918,
		-0.22651509940624237,
		0.31257274746894836,
		-0.12404994666576385,
		-0.41867685317993164,
		0.005551507696509361,
		0.010659968480467796,
		-0.3081996440887451,
		-0.32853367924690247,
		0.22589831054210663,
		-0.3044727146625519,
		0.27606716752052307,
		-0.4758094251155853,
		0.49641090631484985,
		-0.4279158413410187,
		0.48187845945358276,
		0.22414681315422058,
		0.11399347335100174,
		0.19838860630989075,
		-0.15178753435611725,
		-0.226530060172081,
		-0.23009653389453888,
		0.48002859950065613,
		-0.15305522084236145,
		-0.21238873898983002,
		-0.13466456532478333,
		-0.34592482447624207,
		0.05236811935901642,
		-0.23323659598827362,
		-0.43771252036094666,
		0.381540983915329,
		0.3306838572025299,
		0.09350075572729111,
		-0.40236160159111023,
		0.4443139433860779,
		-0.47414010763168335,
		-0.1451861411333084,
		0.39077916741371155,
		0.10432896763086319,
		-0.05187343806028366,
		0.19292333722114563,
		0.45512741804122925,
		0.21241644024848938,
		0.4248434603214264,
		0.3770899176597595,
		-0.3348155915737152,
		0.2873683571815491,
		-0.47501489520072937,
		-0.0463428795337677,
		-0.4719211459159851,
		0.2835390567779541,
		0.0928281620144844,
		0.3738098442554474,
		0.19418472051620483,
		-0.4483582675457001,
		0.23094065487384796,
		0.2798207402229309,
		-0.43440186977386475,
		-0.48030298948287964,
		0.30755922198295593,
		0.14849185943603516,
		-0.47512489557266235,
		-0.016284575685858727,
		-0.2681967318058014,
		0.4012657701969147,
		0.054278042167425156,
		0.463505357503891,
		-0.25820809602737427,
		0.16910062730312347,
		-0.3354465961456299,
		0.008748186752200127,
		-0.37437736988067627,
		-0.1857079118490219,
		0.3540688753128052,
		-0.011108909733593464,
		0.3928672969341278,
		0.023149637505412102,
		0.13857795298099518,
		-0.11390621215105057,
		0.15346504747867584,
		-0.26756802201271057,
		-0.07480696588754654,
		-0.2044423371553421,
		0.10323958843946457,
		0.3925856649875641,
		0.4600299596786499,
		0.40236520767211914,
		0.33921706676483154,
		0.1529606580734253,
		-0.10794097185134888,
		0.4823834002017975,
		0.42936211824417114,
		0.2877686321735382,
		0.4146123230457306,
		-0.46223166584968567,
		0.0069074067287147045,
		-0.1290239840745926,
		0.4587867856025696,
		0.06658747792243958,
		0.4850492477416992,
		-0.008380292914807796,
		-0.21518312394618988,
		0.11330626904964447,
		0.3733517527580261,
		0.03852974995970726,
		-0.08098991215229034,
		0.10290785133838654,
		-0.4709106385707855,
		0.45494791865348816,
		0.3880569338798523,
		-0.23583868145942688,
		0.16500967741012573,
		0.1385258436203003,
		0.25271153450012207,
		-0.14760632812976837,
		0.37997499108314514,
		0.11452896893024445,
		-0.4212538003921509,
		-0.3018933832645416,
		0.42179813981056213,
		0.44246944785118103,
		-0.3941955268383026,
		0.11723785102367401,
		0.0021096854470670223,
		0.3333057463169098,
		-0.45606476068496704,
		0.09120635688304901,
		0.4666503369808197,
		0.32166796922683716,
		0.09649105370044708,
		-0.3135323226451874,
		-0.23715052008628845,
		-0.025360258296132088,
		0.0869971364736557,
		0.11828271299600601,
		-0.2985726594924927,
		-0.006366159301251173,
		-0.23261207342147827,
		-0.47849196195602417,
		0.24940794706344604,
		-0.20779037475585938,
		-0.2712991535663605,
		-0.09047192335128784,
		0.18081477284431458,
		-0.43576788902282715,
		-0.37654852867126465,
		0.12226453423500061,
		-0.3274693191051483,
		-0.35827720165252686,
		0.2627241015434265,
		-0.023068923503160477,
		0.17624491453170776,
		0.45268070697784424,
		0.062166307121515274,
		-0.2828618884086609,
		0.1647636592388153,
		-0.2849413752555847,
		0.17591160535812378,
		-0.10760893672704697,
		0.12704318761825562,
		-0.4331315755844116,
		0.17261409759521484,
		0.17394118010997772,
		-0.4145283102989197,
		0.28013479709625244,
		-0.48478052020072937,
		0.2443394511938095,
		-0.28625375032424927,
		-0.2217605710029602,
		-0.3425122797489166,
		-0.16560159623622894,
		-0.413814902305603,
		-0.34929442405700684,
		0.11331526935100555,
		0.17387880384922028,
		-0.03354716673493385,
		-0.3798615038394928,
		0.38817206025123596,
		-0.3724319636821747,
		0.0635908991098404,
		0.336651086807251,
		0.3036240339279175,
		0.005761994048953056,
		-0.3777003288269043,
		0.22891198098659515,
		-0.13688956201076508,
		0.16891278326511383,
		0.2753806710243225,
		-0.3518902063369751,
		0.47004392743110657,
		-0.22127658128738403,
		0.14283429086208344,
		-0.06320099532604218,
		0.024450834840536118,
		-0.26519522070884705,
		0.19809310138225555,
		0.15204644203186035,
		0.10021887719631195,
		-0.30241963267326355,
		0.12343886494636536,
		0.06500449776649475,
		0.251331090927124,
		0.257251113653183,
		-0.05158537998795509,
		-0.21327368915081024,
		0.19231964647769928,
		-0.20195218920707703,
		-0.007760603912174702,
		-0.18894098699092865,
		0.48075464367866516,
		-0.20584255456924438,
		0.3274403214454651,
		-0.4706725478172302,
		0.16704288125038147,
		0.35591861605644226,
		0.22516755759716034,
		0.2859122157096863,
		-0.26091164350509644,
		0.07574212551116943,
		-0.1857667863368988,
		-0.10197142511606216,
		-0.35783839225769043,
		-0.16698189079761505,
		-0.4951225519180298,
		0.08550797402858734,
		-0.42977285385131836,
		0.09759151190519333,
		-0.4485902786254883,
		-0.26650717854499817,
		-0.2902475595474243,
		0.37380826473236084,
		-0.4985615909099579,
		-0.04244265332818031,
		0.13771148025989532,
		-0.1295756846666336,
		0.1723131388425827,
		-0.02281901426613331,
		-0.39697667956352234,
		0.18068447709083557,
		0.24906660616397858,
		0.4450778663158417,
		-0.016438879072666168,
		-0.23309315741062164,
		-0.4827578365802765,
		0.4434790313243866,
		-0.14056365191936493,
		0.24640944600105286,
		0.2811524271965027,
		-0.410723477602005,
		-0.30375951528549194,
		0.11609143018722534,
		-0.4611953794956207,
		-0.21248963475227356,
		0.38248834013938904,
		0.2810404300689697,
		-0.031604114919900894,
		0.020451469346880913,
		0.011761465109884739,
		-0.04214717075228691,
		0.007826036773622036,
		0.138336181640625,
		0.01743263192474842,
		-0.1650722771883011,
		-0.2320198118686676,
		0.0866374522447586,
		0.08951548486948013,
		0.1068122610449791,
		-0.20517389476299286,
		0.1531592160463333,
		-0.4839145243167877,
		-0.08703787624835968,
		0.3117833137512207,
		-0.1955980658531189,
		-0.04088689386844635,
		-0.04218697175383568,
		-0.19586728513240814,
		0.4167560040950775,
		0.03603294491767883,
		-0.3732961416244507,
		-0.4657534658908844,
		-0.22564423084259033,
		0.40541645884513855,
		-0.3310439884662628,
		-0.1058918833732605,
		0.4506843686103821,
		-0.45249098539352417,
		-0.3552192449569702,
		0.25350236892700195,
		0.39398229122161865,
		-0.2029310166835785,
		-0.35076820850372314,
		0.32737529277801514,
		-0.22031430900096893,
		-0.24789033830165863,
		-0.49603667855262756,
		-0.043462447822093964,
		-0.031860340386629105,
		-0.41204550862312317,
		-0.4939539134502411,
		-0.41535669565200806,
		-0.2151896357536316,
		0.43828484416007996,
		0.04212944209575653,
		-0.3478753864765167,
		-0.45065194368362427,
		-0.4649474620819092,
		-0.1436547189950943,
		-0.41416916251182556,
		0.3277631402015686,
		0.36471307277679443,
		-0.4872518479824066,
		0.04994247108697891,
		-0.3647286593914032,
		-0.1495847851037979,
		-0.3238770067691803,
		-0.32711899280548096,
		0.3508652448654175,
		0.05853746086359024,
		0.1306200921535492,
		0.47457683086395264,
		0.0484001450240612,
		-0.18647505342960358,
		0.07623142004013062,
		-0.121051125228405,
		-0.07001668959856033,
		0.17182862758636475,
		0.13629962503910065,
		0.20657780766487122,
		-0.3977001905441284,
		-0.41676825284957886,
		-0.30493825674057007,
		0.3270747661590576,
		-0.4880469739437103,
		0.263901025056839,
		-0.39493879675865173,
		0.19665975868701935,
		0.3922538757324219,
		0.22437891364097595,
		0.08074915409088135,
		-0.1814584881067276,
		0.30119043588638306,
		0.13487696647644043,
		-0.4210212230682373,
		0.35369962453842163,
		-0.157325878739357,
		0.20556749403476715,
		-0.23383928835391998,
		-0.08539461344480515,
		0.029925379902124405,
		0.09653538465499878,
		0.29403501749038696,
		-0.16676051914691925,
		-0.2015942633152008,
		-0.15062297880649567,
		-0.09924821555614471,
		0.10702915489673615,
		-0.4472607374191284,
		-0.1898767203092575,
		-0.4636508524417877,
		0.018088823184370995,
		0.3244171440601349,
		-0.482649028301239,
		-0.35656365752220154,
		-0.13780304789543152,
		0.02999909408390522,
		-0.4379722774028778,
		0.3930589258670807,
		0.1532726287841797,
		0.016631020233035088,
		-0.4822132885456085,
		-0.3105969727039337,
		-0.37929466366767883,
		-0.34583741426467896,
		0.11425362527370453,
		-0.008410290814936161,
		-0.20234452188014984,
		-0.07266072183847427,
		-0.006540917791426182,
		-0.3801122009754181,
		0.07066798210144043,
		0.12086887657642365,
		-0.48798027634620667,
		-0.07116211950778961,
		-0.4488576650619507,
		0.4749133586883545,
		0.29439306259155273,
		-0.03639157861471176,
		0.2600965201854706,
		0.3636168837547302,
		0.44893211126327515,
		-0.49491626024246216,
		-0.2504645586013794,
		-0.08231181651353836,
		-0.4139147102832794,
		0.146968811750412,
		0.3523333668708801,
		0.22776620090007782,
		0.12724658846855164,
		-0.00980122946202755,
		0.06200422719120979,
		0.22781847417354584,
		-0.30532106757164,
		-0.271064817905426,
		0.10971642285585403,
		0.08598790317773819,
		-0.335009902715683,
		0.49696609377861023,
		0.1833622008562088,
		-0.4945352077484131,
		0.46338555216789246,
		-0.412794828414917,
		0.4067419767379761,
		-0.38968542218208313,
		0.496309369802475,
		0.21628828346729279,
		0.06399456411600113,
		0.22080905735492706,
		0.09802969545125961,
		-0.0279542189091444,
		0.35434767603874207,
		0.16513533890247345,
		0.36788275837898254,
		0.06389385461807251,
		0.369153767824173,
		-0.049600593745708466,
		0.2564266324043274,
		-0.42020857334136963,
		-0.16855062544345856,
		-0.43378746509552,
		-0.21171152591705322,
		0.031231455504894257,
		0.11413858830928802,
		0.3812960088253021,
		-0.08160017430782318,
		0.04682167246937752,
		-0.4931015968322754,
		0.1359231024980545,
		0.09722069650888443,
		-0.23971736431121826,
		-0.34968599677085876,
		-0.24705973267555237,
		0.24401703476905823,
		-0.44237834215164185,
		-0.33529314398765564,
		0.3380933403968811,
		-0.4787577986717224,
		0.1319858282804489,
		0.4612046778202057,
		0.019585635513067245,
		-0.03295358270406723,
		0.42638182640075684,
		0.39496615529060364,
		0.402728408575058,
		-0.18140855431556702,
		-0.08443239331245422,
		0.46251365542411804,
		0.3896591365337372,
		0.03801678121089935,
		-0.12474417686462402,
		-0.0284004807472229,
		-0.2911395728588104,
		0.43923142552375793,
		-0.2610231935977936,
		-0.28345775604248047,
		0.04230165481567383,
		-0.44146111607551575,
		0.34446918964385986,
		0.4669399857521057,
		-0.1303481012582779,
		0.2882448732852936,
		-0.05713924765586853,
		-0.21268603205680847,
		0.13972917199134827,
		0.22487527132034302,
		0.07608670741319656,
		-0.040094487369060516,
		-0.22919081151485443,
		0.4847346842288971,
		0.08765406161546707,
		0.17102645337581635,
		0.4919259250164032,
		-0.17516198754310608,
		-0.1934085190296173,
		-0.15310627222061157,
		-0.0013978765346109867,
		-0.23777492344379425,
		0.14851070940494537,
		0.4742826819419861,
		0.4521559774875641,
		0.48916637897491455,
		-0.21720214188098907,
		0.12722423672676086,
		0.4141891598701477,
		0.3532184958457947,
		-0.30892330408096313,
		0.29925140738487244,
		-0.10095568001270294,
		-0.2331167459487915,
		0.48260655999183655,
		-0.30578935146331787,
		-0.17209437489509583,
		-0.4626925587654114,
		-0.44623762369155884,
		0.0200361218303442,
		0.4033504128456116,
		-0.29415637254714966,
		-0.2834256887435913,
		-0.04774608463048935,
		-0.007938011549413204,
		0.16360162198543549,
		-0.16502486169338226,
		-0.1030537486076355,
		-0.06013265252113342,
		-0.48593252897262573,
		-0.008400742895901203,
		0.3492125868797302,
		0.41247254610061646,
		-0.14069627225399017,
		0.2069937288761139,
		0.21453948318958282,
		-0.29556381702423096,
		0.4955378770828247,
		0.3499599099159241,
		-0.38714298605918884,
		-0.3310021758079529,
		-0.2810453474521637,
		-0.15160678327083588,
		0.38932687044143677,
		-0.06856396794319153,
		0.3129083216190338,
		0.037493783980607986,
		-0.23696333169937134,
		0.22429651021957397,
		-0.32874324917793274,
		-0.4756668508052826,
		0.23145726323127747,
		-0.22206860780715942,
		-0.21805733442306519,
		-0.30926045775413513,
		0.24255040287971497,
		-0.022641994059085846,
		-0.13746623694896698,
		-0.38738805055618286,
		-0.1900404840707779,
		-0.37415796518325806,
		-0.2512610852718353,
		-0.046878594905138016,
		-0.3030768930912018,
		-0.025285279378294945,
		-0.29767289757728577,
		0.0985480472445488,
		-0.3916727900505066,
		0.4107070565223694,
		-0.22076214849948883,
		-0.3236362934112549,
		0.23002970218658447,
		0.05922338366508484,
		0.4388308823108673,
		-0.17087267339229584,
		-0.08474572747945786,
		-0.1746188998222351,
		-0.3371359705924988,
		0.10329339653253555,
		0.23064063489437103,
		0.392817884683609,
		0.414812833070755,
		-0.44749554991722107,
		-0.35967618227005005,
		0.4646012485027313,
		-0.008329346776008606,
		-0.2754393517971039,
		0.036500006914138794,
		0.09344431012868881,
		0.3473491668701172,
		-0.45316681265830994,
		-0.013847632333636284,
		0.3198655843734741,
		0.3221067190170288,
		-0.32182884216308594,
		0.04404700547456741,
		0.44406598806381226,
		0.2982800006866455,
		-0.14305691421031952,
		-0.30561068654060364,
		0.15041187405586243,
		-0.3360196352005005,
		-0.1075986847281456,
		0.062340978533029556,
		0.42074650526046753,
		0.18928100168704987,
		0.42966631054878235,
		-0.2285498082637787,
		-0.36369889974594116,
		0.2978094518184662,
		0.35346466302871704,
		-0.02274947427213192,
		0.480560302734375,
		-6.99648808222264E-4,
		-0.3134413957595825,
		-0.07937389612197876,
		0.37407854199409485,
		0.20482595264911652,
		0.17235498130321503,
		0.045904550701379776,
		-0.13822545111179352,
		0.02154679410159588,
		0.2996861934661865,
		0.09580820053815842,
		0.09426563233137131,
		-0.438079833984375,
		0.34934937953948975,
		0.3886449933052063,
		-0.1563400775194168,
		-0.18750791251659393,
		0.25262802839279175,
		-0.11810062825679779,
		-0.3452787399291992,
		0.09792593121528625,
		0.4163579046726227,
		0.49316033720970154,
		-0.28469201922416687,
		-0.2966577410697937,
		0.4060833156108856,
		-0.3639010488986969,
		-0.29543229937553406,
		0.3099129796028137,
		0.34385406970977783,
		-0.2046695351600647,
		0.39627155661582947,
		0.013277332298457623,
		0.162194162607193,
		-0.41093048453330994,
		0.0897974967956543,
		-0.2341768592596054,
		0.38794055581092834,
		-0.3481747806072235,
		-0.036810483783483505,
		0.33801567554473877,
		-0.0254500862210989,
		0.33991238474845886,
		0.3510793447494507,
		0.022610094398260117,
		-0.21503491699695587,
		0.2849735617637634,
		-0.48223650455474854,
		-0.45809173583984375,
		-0.2389651983976364,
		0.44619905948638916,
		-0.08499328792095184,
		-0.08056461811065674,
		0.44242826104164124,
		-0.49820172786712646,
		0.1578485518693924,
		0.323714941740036,
		0.48989152908325195,
		0.030628405511379242,
		-0.1780201941728592,
		0.21789783239364624,
		0.06729955226182938,
		0.23881901800632477,
		0.006118745543062687,
		-0.4751579165458679,
		0.4915899634361267,
		-0.3803829848766327,
		0.10107901692390442,
		-0.1196296364068985,
		0.33965128660202026,
		0.3047439754009247,
		-0.49773961305618286,
		0.48295971751213074,
		0.25320273637771606,
		-0.35750681161880493,
		0.12397704273462296,
		0.45608949661254883,
		0.10376323759555817,
		-0.18657660484313965,
		0.46077972650527954,
		0.15797960758209229,
		-0.23648405075073242,
		0.28446832299232483,
		-0.4591093957424164,
		0.3667827844619751,
		-0.3176027536392212,
		0.17800427973270416,
		-0.38398733735084534,
		-0.19081717729568481,
		-0.3296087384223938,
		-0.3616469204425812,
		-0.353817880153656,
		0.05169999226927757,
		-0.2405238151550293,
		-0.2782989740371704,
		-0.4207788109779358,
		0.43104761838912964,
		-0.2005288004875183,
		0.3257938623428345,
		0.28188085556030273,
		0.26402953267097473,
		0.4789853096008301,
		0.19276276230812073,
		-0.4910375773906708,
		0.2924688458442688,
		-0.19130440056324005,
		0.07974778860807419,
		-0.3890414237976074,
		0.007270850706845522,
		-0.327644020318985,
		-0.20054124295711517,
		-0.10464287549257278,
		0.19540627300739288,
		0.018804261460900307,
		-0.08935422450304031,
		0.35109743475914,
		-0.14479650557041168,
		0.3546101450920105,
		-0.472589910030365,
		0.22604256868362427,
		0.36599302291870117,
		-0.2903628349304199,
		-0.14104987680912018,
		0.3621916174888611,
		-0.31880879402160645,
		-0.045288242399692535,
		-0.14806009829044342,
		0.4824237525463104,
		0.0834374725818634,
		0.40251442790031433,
		0.4884660542011261,
		-0.3811182677745819,
		0.03191589191555977,
		-0.13786983489990234,
		0.13680805265903473,
		-0.2959808111190796,
		0.4254286289215088,
		-0.05699734017252922,
		-0.4162791669368744,
		-0.03509289398789406,
		-0.33511754870414734,
		0.27104970812797546,
		0.28676560521125793,
		0.07566267251968384,
		-0.22053487598896027,
		0.37130075693130493,
		-0.2902637720108032,
		0.24095092713832855,
		-0.01856318861246109,
		0.44114091992378235,
		0.47899535298347473,
		0.29331186413764954,
		-0.03656402602791786,
		-0.0723988488316536,
		-0.36773136258125305,
		-0.3922078013420105,
		0.3919196128845215,
		-0.20507913827896118,
		0.03698331117630005,
		0.13679176568984985,
		0.1300506591796875,
		-0.33663082122802734,
		-0.2729523479938507,
		0.18066342175006866,
		-0.1640530377626419,
		-0.4882015585899353,
		-0.24441823363304138,
		-0.49420055747032166,
		-0.20882001519203186,
		0.49505728483200073,
		-0.13555464148521423,
		0.33953267335891724,
		-0.02929769642651081,
		-0.46001794934272766,
		0.2575230598449707,
		0.3749610483646393,
		-0.38627704977989197,
		-0.28472498059272766,
		0.43793928623199463,
		0.2700154781341553,
		-0.198142871260643,
		0.1675424575805664,
		0.1912650167942047,
		0.4136091470718384,
		-0.13354867696762085,
		0.22047016024589539,
		0.49155300855636597,
		-0.3778981566429138,
		-0.2751910984516144,
		-0.4198935031890869,
		0.3229336738586426,
		0.1974274069070816,
		-0.3598480224609375,
		0.05659627169370651,
		0.12194998562335968,
		0.359389990568161,
		0.25972938537597656,
		0.039729394018650055,
		-0.13205672800540924,
		0.2841856777667999,
		0.21323664486408234,
		-0.010168857872486115,
		-0.38765212893486023,
		0.17500559985637665,
		-0.024580389261245728,
		-0.3579578697681427,
		-0.40201810002326965,
		-0.39775925874710083,
		0.21684151887893677,
		0.19780133664608002,
		-0.019670985639095306,
		0.024396782740950584,
		0.3399282395839691,
		-0.24938681721687317,
		-0.4348723888397217,
		-0.1358058750629425,
		0.441866934299469,
		0.3364834189414978,
		-0.10916348546743393,
		-0.32424867153167725,
		-0.4611058831214905,
		-0.42347803711891174,
		0.49100062251091003,
		0.012915886007249355,
		0.4534710943698883,
		-0.4745928645133972,
		0.10326032340526581,
		0.33699238300323486,
		0.46296143531799316,
		-0.48030999302864075,
		0.15495027601718903,
		-0.11900964379310608,
		0.36433932185173035,
		0.028590774163603783,
		-0.07437247037887573,
		-0.2634730041027069,
		0.4364193379878998,
		0.20815953612327576,
		0.31561729311943054,
		-0.4341576099395752,
		0.4110477864742279,
		-0.3034987449645996,
		0.33733054995536804,
		0.21386446058750153,
		0.3615157902240753,
		0.38965359330177307,
		0.03247270733118057,
		0.23025918006896973,
		0.20830939710140228,
		0.39913514256477356,
		-0.24957767128944397,
		-0.2712227404117584,
		0.35161131620407104,
		0.0721534714102745,
		0.40159159898757935,
		0.3141772747039795,
		-0.1944425255060196,
		0.05116725340485573,
		-0.43381887674331665,
		-0.18269021809101105,
		0.0691661685705185,
		-0.40715375542640686,
		0.06522322446107864,
		0.35245493054389954,
		-0.06933742761611938,
		-0.05056456848978996,
		0.0075136213563382626,
		-0.09493579715490341,
		0.2790883779525757,
		-0.4847313165664673,
		0.02261723019182682,
		-0.09421523660421371,
		0.05186888575553894,
		-0.484482079744339,
		-0.10839918255805969,
		-0.4691062867641449,
		0.3830126225948334,
		-0.48080170154571533,
		-0.4032074809074402,
		0.2991645932197571,
		0.12519893050193787,
		-0.31547409296035767,
		0.2833530604839325,
		0.3456612825393677,
		-0.07866422086954117,
		-0.31416410207748413,
		-0.41018930077552795,
		0.16703090071678162,
		0.16828393936157227,
		-0.4931269586086273,
		0.24615906178951263,
		-1.8606150115374476E-4,
		0.3048633635044098,
		-0.1526123434305191,
		-0.030294353142380714,
		-0.0052963667549192905,
		0.03415906801819801,
		-0.27930712699890137,
		0.09877725690603256,
		0.2213262915611267,
		0.2932206690311432,
		-0.09391836822032928,
		-0.3606962263584137,
		0.16055718064308167,
		0.013530739583075047,
		0.35561689734458923,
		-0.1041436642408371,
		-0.25738582015037537,
		-0.05607660859823227,
		0.28295308351516724,
		0.1001930832862854,
		0.1856587529182434,
		0.1477922648191452,
		-0.3610665798187256,
		0.05879003927111626,
		-0.13378703594207764,
		0.0620783306658268,
		-0.08640913665294647,
		0.1042957603931427,
		0.1617245376110077,
		0.3780023753643036,
		-0.2725195586681366,
		0.35607969760894775,
		-0.18543529510498047,
		0.39861953258514404,
		0.43161213397979736,
		-0.42769530415534973,
		-0.41042304039001465,
		-0.0881316214799881,
		0.08998087048530579,
		-0.3301435708999634,
		0.17313843965530396,
		0.0935223251581192,
		0.4846271574497223,
		0.37043020129203796,
		0.08780313283205032,
		0.42790356278419495,
		-0.4681392014026642,
		0.23235444724559784,
		0.055040571838617325,
		0.11802271008491516,
		0.29984983801841736,
		-0.2287398874759674,
		-0.28075993061065674,
		0.023198459297418594,
		0.1615232676267624,
		0.3063974380493164,
		-0.19053390622138977,
		-0.2629926800727844,
		-0.05493731424212456,
		-0.3837328553199768,
		-0.13524673879146576,
		-0.012677490711212158,
		-0.13932070136070251,
		0.44993579387664795,
		0.39076003432273865,
		0.21744157373905182,
		-0.07373898476362228,
		-0.4364704191684723,
		-0.0814545601606369,
		-0.16703006625175476,
		-0.010891319252550602,
		-0.14554227888584137,
		-0.2655787765979767,
		0.31908100843429565,
		0.04094932600855827,
		-0.06747714430093765,
		0.23442837595939636,
		0.1710229367017746,
		0.41619765758514404,
		0.4119207262992859,
		-0.289675772190094,
		0.2866637110710144,
		-0.3592308759689331,
		-0.006969452369958162,
		0.07419150322675705,
		0.33629652857780457,
		0.1271882802248001,
		0.48903560638427734,
		-0.45029088854789734,
		0.37648311257362366,
		-0.2872292697429657,
		-0.2529444098472595,
		-0.4884887933731079,
		-0.1260618269443512,
		-0.05378511920571327,
		-0.4431115984916687,
		-0.2049494981765747,
		0.1581815481185913,
		0.45217615365982056,
		-0.4677399694919586,
		-0.4738761782646179,
		0.2733301818370819,
		0.1758481115102768,
		0.14461860060691833,
		0.15354925394058228,
		0.09274905920028687,
		0.22528286278247833,
		0.008208666928112507,
		-0.2376134842634201,
		-0.40737614035606384,
		0.17449544370174408,
		-0.1756347417831421,
		-0.1646895706653595,
		0.1513371616601944,
		0.07355117797851562,
		0.34569305181503296,
		-0.3377428948879242,
		-0.1870916187763214,
		0.15557296574115753,
		0.11276528984308243,
		0.22356079518795013,
		0.4684235751628876,
		0.19715286791324615,
		-0.3241511285305023,
		-0.04741177335381508,
		0.10548285394906998,
		-0.24472269415855408,
		-0.45168909430503845,
		-0.005200915038585663,
		0.2912425696849823,
		0.05415624752640724,
		0.11833266913890839,
		-0.2816082239151001,
		0.34138983488082886,
		0.13976940512657166,
		0.325429230928421,
		0.0015170677797868848,
		-0.2803167700767517,
		-0.009955697692930698,
		-0.021017204970121384,
		-0.48631492257118225,
		-0.4963027834892273,
		-0.2919014096260071,
		0.23435720801353455,
		-0.4477319121360779,
		-4.902155487798154E-4,
		-0.4328485429286957,
		-0.11392329633235931,
		0.2535440921783447,
		-0.14142559468746185,
		-0.3585473895072937,
		-0.21235552430152893,
		-0.09528627246618271,
		0.3773301839828491,
		-0.010617186315357685,
		-0.023193037137389183,
		-0.14389288425445557,
		0.04969203844666481,
		-0.12479184567928314,
		-0.22527317702770233,
		0.09943549335002899,
		-0.2466992735862732,
		0.3036406338214874,
		0.4252161383628845,
		-0.16866029798984528,
		0.4459358751773834,
		0.2472914606332779,
		-0.3350222408771515,
		0.4512444734573364,
		-0.3565402626991272,
		0.26100170612335205,
		-0.11124192178249359,
		0.3349750339984894,
		0.41344401240348816,
		-0.12659727036952972,
		-0.45479047298431396,
		0.32238277792930603,
		0.2224692851305008,
		0.019021548330783844,
		-0.325426310300827,
		0.37400466203689575,
		0.36481863260269165,
		0.022470803931355476,
		-0.45488911867141724,
		0.006046967580914497,
		0.4274546504020691,
		0.08713313192129135,
		-0.2804924547672272,
		0.1445808708667755,
		-0.2680952548980713,
		0.04983660206198692,
		-0.06416363269090652,
		-0.169052392244339,
		0.3813973665237427,
		0.17915156483650208,
		-0.32633519172668457,
		-0.2651110291481018,
		0.22270791232585907,
		0.1442677080631256,
		0.34598368406295776,
		-0.1713935285806656,
		-0.3478408753871918,
		-0.12375707924365997,
		-0.3348224461078644,
		-0.3438931405544281,
		0.01973295956850052,
		-0.05300658196210861,
		-0.21646499633789062,
		-0.4385705292224884,
		0.084283247590065,
		0.26275429129600525,
		-0.43581217527389526,
		-0.0703195258975029,
		-0.24304111301898956,
		0.31268253922462463,
		0.3980371654033661,
		-0.04452415928244591,
		0.23329319059848785,
		-0.04169148579239845,
		-0.1931932270526886,
		-0.29976001381874084,
		0.44417741894721985,
		-0.23484157025814056,
		0.20629633963108063,
		0.24978426098823547,
		-0.38074350357055664,
		0.17629805207252502,
		0.10328321903944016,
		-0.40824341773986816,
		-0.29474878311157227,
		0.40210726857185364,
		0.16905620694160461,
		0.3887563645839691,
		0.3290615677833557,
		-0.24180901050567627,
		-0.411508709192276,
		0.2931309640407562,
		-0.06937427073717117,
		0.3320646584033966,
		0.36381813883781433,
		0.47211530804634094,
		-0.26568230986595154,
		0.3024214506149292,
		0.22835773229599,
		0.0906919315457344,
		0.281118243932724,
		-0.12854240834712982,
		0.16285192966461182,
		0.10505429655313492,
		0.2752968966960907,
		-0.1579909324645996,
		-0.42320501804351807,
		0.3010946810245514,
		-0.3838575780391693,
		0.08245887607336044,
		-0.3849424719810486,
		-0.25907713174819946,
		-0.3600383996963501,
		-0.3188142478466034,
		0.1434689462184906,
		-0.13354381918907166,
		-0.25326117873191833,
		0.4215492308139801,
		0.4750344753265381,
		0.37231847643852234,
		-0.236211895942688,
		0.34970149397850037,
		0.011634904891252518,
		-0.4578249454498291,
		-0.3378954827785492,
		-0.47364163398742676,
		-0.41345450282096863,
		0.17105408012866974,
		0.4733288884162903,
		-0.19121909141540527,
		0.44904178380966187,
		0.43100664019584656,
		-0.43045225739479065,
		0.423443466424942,
		-0.4895038604736328,
		-0.10024462640285492,
		-0.26648473739624023,
		0.3050800561904907,
		-0.3585287630558014,
		-0.16890470683574677,
		-0.09323194622993469,
		-0.2667045593261719,
		-0.3361678123474121,
		0.22823111712932587,
		-0.2466367781162262,
		-0.41681617498397827,
		-0.19023096561431885,
		-0.41233983635902405,
		-0.3025139570236206,
		-0.42055758833885193,
		0.3452681005001068,
		0.28271302580833435,
		0.49205005168914795,
		0.29727959632873535,
		0.3323236405849457,
		0.4772365093231201,
		-0.1332726925611496,
		0.32160356640815735,
		0.37737345695495605,
		0.020068151876330376,
		0.2791742980480194,
		-0.14092794060707092,
		-0.3566235899925232,
		0.3093821704387665,
		0.4179486632347107,
		0.3449247181415558,
		0.28341177105903625,
		0.2875586152076721,
		-0.43947938084602356,
		0.05226479843258858,
		-0.014612771570682526,
		-0.2886215150356293,
		-0.4156385660171509,
		0.44547829031944275,
		0.21165460348129272,
		-0.3321326971054077,
		0.03996661305427551,
		0.14763082563877106,
		0.36168184876441956,
		-0.15030865371227264,
		0.3221399486064911,
		-0.37629157304763794,
		0.03324802219867706,
		0.431039959192276,
		-0.2800835967063904,
		0.3737049102783203,
		0.21006517112255096,
		-0.45273062586784363,
		-0.17578436434268951,
		0.2847635746002197,
		0.30851349234580994,
		0.23971505463123322,
		-0.4382998049259186,
		-0.06389293074607849,
		-0.3573674261569977,
		-0.4982072412967682,
		-0.14369402825832367,
		0.177018404006958,
		0.07037334889173508,
		0.3914354741573334,
		-0.18425190448760986,
		-0.02633684314787388,
		0.3097076714038849,
		-0.3928579092025757,
		0.12143222242593765,
		-0.45492151379585266,
		-0.39964184165000916,
		-0.24034102261066437,
		0.245039165019989,
		0.13560356199741364,
		0.21830128133296967,
		-0.4199070334434509,
		-0.020009232684969902,
		0.331173300743103,
		-0.34448951482772827,
		-0.27127811312675476,
		-0.24379470944404602,
		-0.33332589268684387,
		0.03508741408586502,
		0.369010865688324,
		0.17111574113368988,
		0.45228222012519836,
		-0.16722072660923004,
		-0.2378024458885193,
		0.1812272071838379,
		0.16702938079833984,
		-0.2656261622905731,
		0.08126670122146606,
		0.4232735335826874,
		0.4042970836162567,
		0.0035458593629300594,
		0.41815078258514404,
		0.24350717663764954,
		0.45574867725372314,
		-0.37206384539604187,
		0.3681930899620056,
		0.06754941493272781,
		-0.226596862077713,
		0.01973079890012741,
		-0.06288046389818192,
		-0.08018183708190918,
		0.16529865562915802,
		0.10509692132472992,
		-0.4597877264022827,
		0.03694210946559906,
		0.4054676294326782,
		0.1283063292503357,
		-0.2807532846927643,
		-0.2660039961338043,
		1.9916315795853734E-4,
		-0.3493780195713043,
		-0.17320646345615387,
		-0.10755464434623718,
		0.3020506203174591,
		-0.21019141376018524,
		0.3255380094051361,
		-0.27300047874450684,
		-0.18058530986309052,
		-0.061970870941877365,
		-0.43398720026016235,
		-0.26453667879104614,
		0.48159483075141907,
		-0.1676475703716278,
		-0.17264074087142944,
		0.10256757587194443,
		-0.059817273169755936,
		0.10231482982635498,
		0.2328307181596756,
		0.1492163985967636,
		0.3919105529785156,
		0.14865776896476746,
		-0.4096302390098572,
		-0.1897943615913391,
		0.3350715637207031,
		0.46622756123542786,
		-0.41059064865112305,
		-0.4507901966571808,
		-0.37798014283180237,
		0.3619973361492157,
		-0.12227044999599457,
		-0.44362643361091614,
		-0.37170642614364624,
		0.3185069262981415,
		0.36846035718917847,
		-0.44978228211402893,
		-0.03889515995979309,
		0.15948529541492462,
		-0.1603742390871048,
		0.01638306863605976,
		0.038962263613939285,
		-0.45983007550239563,
		0.28367918729782104,
		0.26537325978279114,
		0.10542383790016174,
		0.23218657076358795,
		-0.25847262144088745,
		0.24074937403202057,
		-0.2805761396884918,
		0.1532668024301529,
		0.26295170187950134,
		-0.3622834086418152,
		-0.4855387508869171,
		0.02089020237326622,
		-0.4592602849006653,
		-0.49668705463409424,
		0.09177818894386292,
		0.12474987655878067,
		0.1910909116268158,
		0.17615875601768494,
		0.22435151040554047,
		-0.30583441257476807,
		0.14603127539157867,
		0.10013659298419952,
		0.15140105783939362,
		-0.05107926204800606,
		-0.4015451967716217,
		-0.22782327234745026,
		-0.3315441608428955,
		0.06296507269144058,
		-0.02673914097249508,
		-0.1239003986120224,
		-0.14927934110164642,
		-0.1290920078754425,
		0.02468394674360752,
		0.40740641951560974,
		-0.2623082101345062,
		0.3727741539478302,
		-0.38218456506729126,
		0.42962613701820374,
		5.453855264931917E-4,
		-0.20729276537895203,
		0.04932454973459244,
		-0.04787014052271843,
		-0.3172135055065155,
		0.15297850966453552,
		-0.22721078991889954,
		0.3130292594432831,
		0.34475040435791016,
		0.18165649473667145,
		0.1758291870355606,
		0.3649596571922302,
		-0.4111570119857788,
		-0.4249301552772522,
		-0.27499184012413025,
		-0.32277345657348633,
		-0.28882622718811035,
		-0.4433957636356354,
		0.07835347950458527,
		-0.010579300113022327,
		0.485595703125,
		0.00904491450637579,
		0.01926969550549984,
		0.14872244000434875,
		0.3936828374862671,
		0.3444337546825409,
		-0.09056994318962097,
		-0.234996497631073,
		0.38029786944389343,
		-0.27192822098731995,
		0.15721239149570465,
		-0.05740301311016083,
		0.21047274768352509,
		0.21989043056964874,
		-0.3462316691875458,
		-0.4699680507183075,
		-0.27979275584220886,
		-0.07653003931045532,
		0.41013601422309875,
		0.43175145983695984,
		-0.1586618572473526,
		0.18106183409690857,
		-0.2559047043323517,
		-0.23557905852794647,
		0.10370898246765137,
		-0.48585397005081177,
		0.10847976803779602,
		-0.2729495167732239,
		0.4056919813156128,
		-0.012497789226472378,
		0.4170948565006256,
		0.41797399520874023,
		0.2667231857776642,
		0.3981410562992096,
		-0.00932285189628601,
		-0.03313678503036499,
		0.4230491518974304,
		-0.2614445984363556,
		-0.46757274866104126,
		-0.3027770519256592,
		-0.3921568989753723,
		0.1353902369737625,
		0.4753580689430237,
		0.3778112530708313,
		-0.4498262107372284,
		-0.3255065977573395,
		-0.19496718049049377,
		-0.07450778037309647,
		-0.19210995733737946,
		0.19365061819553375,
		-0.05369701609015465,
		0.31070676445961,
		-0.22454522550106049,
		-0.4854133725166321,
		-0.2735590636730194,
		-0.10338576138019562,
		0.33661046624183655,
		0.26185259222984314,
		0.38277584314346313,
		-0.21891027688980103,
		-0.012585786171257496,
		-0.10744881629943848,
		-0.41708794236183167,
		0.29754751920700073,
		-0.14224864542484283,
		0.2760438621044159,
		-0.025416869670152664,
		0.2625705301761627,
		0.04585941880941391,
		-0.28047019243240356,
		0.33888211846351624,
		0.12335970997810364,
		-0.1749419867992401,
		0.12055885046720505,
		-0.48538509011268616,
		-0.2501641809940338,
		-0.20511603355407715,
		-0.48110243678092957,
		0.34840330481529236,
		0.18094642460346222,
		-0.17451457679271698,
		0.18973302841186523,
		-0.28672826290130615,
		0.3066108524799347,
		-0.3355284035205841,
		0.07296553999185562,
		0.09563351422548294,
		0.08787094056606293,
		0.422895610332489,
		0.25589868426322937,
		-0.23829646408557892,
		-0.33776500821113586,
		-0.2226722538471222,
		-0.06122354045510292,
		0.4676274061203003,
		0.37190067768096924,
		-0.4342918395996094,
		0.3283160328865051,
		-0.26449355483055115,
		-0.4573441743850708,
		-0.28379157185554504,
		-0.3649010956287384,
		0.269807904958725,
		-0.4294907748699188,
		-0.1915244311094284,
		0.4500776529312134,
		-0.29840222001075745,
		-0.19671586155891418,
		0.3596358001232147,
		-0.4074557423591614,
		-0.057533569633960724,
		0.4300464987754822,
		-0.06345697492361069,
		-0.3753345012664795,
		-0.3823033273220062,
		-0.42479267716407776,
		0.4608456790447235,
		0.16606715321540833,
		-0.2744489908218384,
		-0.3627263903617859,
		-0.27998992800712585,
		0.2997284531593323,
		0.3708030581474304,
		-0.061768896877765656,
		-0.14428165555000305,
		0.2842114269733429,
		-0.2713928818702698,
		-0.36902445554733276,
		-0.130954310297966,
		0.13739697635173798,
		-0.4338013529777527,
		-0.10722548514604568,
		0.47774386405944824,
		-0.45924898982048035,
		-0.3667334318161011,
		0.4605487883090973,
		0.4691879451274872,
		-0.046950627118349075,
		-0.1230257973074913,
		-0.3944264054298401,
		-0.3975588083267212,
		-0.1968511939048767,
		-0.0026720408350229263,
		-0.2373625636100769,
		0.42593348026275635,
		0.07108083367347717,
		0.11449267715215683,
		0.2049361616373062,
		-0.07020840048789978,
		-0.33081021904945374,
		0.3921288847923279,
		0.23460222780704498,
		-0.2992357611656189,
		-0.49064525961875916,
		0.3017543852329254,
		-0.3697207570075989,
		0.4897231459617615,
		0.2982865571975708,
		-0.16458185017108917,
		0.285628080368042,
		0.38176465034484863,
		-0.31982317566871643,
		0.3899073898792267,
		0.2581300437450409,
		0.464218407869339,
		0.4807969331741333,
		0.2405197024345398,
		-0.32229918241500854,
		-0.11264131218194962,
		-0.4235572814941406,
		0.44955742359161377,
		0.36579275131225586,
		0.36838871240615845,
		-0.027910493314266205,
		-0.11916462332010269,
		0.32635802030563354,
		-0.20937198400497437,
		-0.40143296122550964,
		0.4379092752933502,
		-0.37644630670547485,
		0.25173062086105347,
		0.42974287271499634,
		0.045592982321977615,
		-0.3540060520172119,
		0.11090756952762604,
		0.4912984371185303,
		-0.11075524985790253,
		0.15904219448566437,
		-0.1810281127691269,
		-0.4706808626651764,
		0.40883058309555054,
		0.01953106001019478,
		0.0648287981748581,
		0.07753463089466095,
		0.12048903107643127,
		-0.0473126582801342,
		-0.36711040139198303,
		0.030284974724054337,
		-0.19922149181365967,
		0.3416614532470703,
		-0.4262055456638336,
		-0.2959352731704712,
		-0.18111497163772583,
		-0.47414591908454895,
		-0.18343620002269745,
		-0.07136169821023941,
		0.35774749517440796,
		-0.297110915184021,
		0.06571710854768753,
		-0.3648296892642975,
		0.07607951760292053,
		0.22026464343070984,
		-0.09254353493452072,
		-0.06264247000217438,
		0.3042452931404114,
		-0.3792836666107178,
		0.36537855863571167,
		-0.19919292628765106,
		0.2543536126613617,
		-0.4391290247440338,
		-0.226189985871315,
		-0.08002201467752457,
		-0.21104228496551514,
		0.45650574564933777,
		-0.31693223118782043,
		-0.3964504599571228,
		0.25132977962493896,
		0.42210298776626587,
		-0.24241024255752563,
		0.061055295169353485,
		-0.46026769280433655,
		-0.11952212452888489,
		0.003470021765679121,
		-0.27921274304389954,
		0.028721604496240616,
		0.07088283449411392,
		0.45257943868637085,
		-0.14586520195007324,
		0.2927493453025818,
		0.49856290221214294,
		0.42441526055336,
		0.10384832322597504,
		0.4949559271335602,
		0.25600606203079224,
		-0.21670548617839813,
		0.2127486616373062,
		0.22571289539337158,
		0.07585817575454712,
		0.1965075433254242,
		-0.3940735161304474,
		0.10101091861724854,
		-0.07372783124446869,
		0.2681349515914917,
		0.2881603240966797,
		-0.1533864438533783,
		-0.08873721212148666,
		-0.4783064126968384,
		-0.07639951258897781,
		-0.27934497594833374,
		0.27062180638313293,
		-0.3182789087295532,
		-0.21177348494529724,
		0.09157347679138184,
		0.3069016933441162,
		0.39057567715644836,
		-0.17755240201950073,
		-0.3035952150821686,
		0.12930229306221008,
		0.45434558391571045,
		-0.1224772185087204,
		-0.4091651737689972,
		0.2254561334848404,
		0.009107152931392193,
		-0.20282496511936188,
		0.12629589438438416,
		-0.007591953966766596,
		-0.45295244455337524,
		-0.018790990114212036,
		0.3077736496925354,
		-0.48163655400276184,
		-0.44626641273498535,
		-0.35694536566734314,
		-0.25232094526290894,
		0.11923228204250336,
		-0.37096938490867615,
		0.039216648787260056,
		0.0667891576886177,
		0.3600305914878845,
		0.34645864367485046,
		-0.391348272562027,
		0.0031982949003577232,
		-0.48104211688041687,
		-0.19781912863254547,
		0.043726105242967606,
		-0.36327722668647766,
		-0.2162884622812271,
		-0.2893878221511841,
		0.08126144111156464,
		0.16548487544059753,
		-0.2119024097919464,
		0.2143196314573288,
		-0.07963933795690536,
		0.3909861147403717,
		0.39305901527404785,
		0.014201968908309937,
		-0.003790402552112937,
		-0.41566959023475647,
		0.08658535778522491,
		0.2607702910900116,
		0.06870059669017792,
		-0.247465118765831,
		-0.29162484407424927,
		-0.2494189441204071,
		0.39839351177215576,
		0.41889071464538574,
		-0.27694690227508545,
		0.2658044099807739,
		0.1335502415895462,
		-0.1348877102136612,
		-0.30795058608055115,
		-0.3768758177757263,
		-0.1254294067621231,
		0.47281280159950256,
		0.11987432837486267,
		-0.1827356070280075,
		-0.1844477653503418,
		0.27253782749176025,
		0.40566810965538025,
		-0.031736526638269424,
		-0.23940467834472656,
		-0.06804782152175903,
		0.17379458248615265,
		0.14974258840084076,
		-0.208614781498909,
		-0.4719737768173218,
		-0.11774733662605286,
		0.030309980735182762,
		0.3548506200313568,
		0.14648251235485077,
		0.23571543395519257,
		0.25718429684638977,
		0.06583350151777267,
		-0.0317341648042202,
		-0.40568017959594727,
		-0.12861387431621552,
		-0.44588330388069153,
		-0.20543135702610016,
		0.24218116700649261,
		-0.3806059956550598,
		0.3121270537376404,
		0.15601760149002075,
		0.17764495313167572,
		-0.03797530010342598,
		-0.40688034892082214,
		0.0013211761834099889,
		-0.26265692710876465,
		-0.2823501527309418,
		0.022257450968027115,
		-0.336001992225647,
		0.26359525322914124,
		-0.2649812400341034,
		-0.1266937106847763,
		0.29793646931648254,
		-0.2109595388174057,
		-0.24006180465221405,
		-0.46945810317993164,
		0.204987570643425,
		-0.45372599363327026,
		-0.37193822860717773,
		0.02345138043165207,
		0.4875980019569397,
		0.06667777895927429,
		0.2475927323102951,
		0.2312924861907959,
		0.3367178738117218,
		0.47537320852279663,
		0.4133227467536926,
		-0.33920228481292725,
		-0.21604393422603607,
		-0.4326329231262207,
		0.3219268023967743,
		-0.4346456527709961,
		0.1805155724287033,
		0.22014255821704865,
		-0.15077587962150574,
		-0.4655284881591797,
		-0.1946246325969696,
		-0.253022700548172,
		0.02900194562971592,
		-0.4465964734554291,
		-0.09025011956691742,
		-0.2707883417606354,
		-0.08826076239347458,
		0.0015960079617798328,
		0.296950101852417,
		0.08033542335033417,
		-0.07241349667310715,
		0.002419056138023734,
		-0.03599721938371658,
		0.07542753964662552,
		0.1910988986492157,
		0.019985266029834747,
		-0.3484804034233093,
		0.2753891944885254,
		-0.30268874764442444,
		-0.34717443585395813,
		0.2177501618862152,
		0.43566659092903137,
		0.1921752393245697,
		0.09246470779180527,
		-0.4201129674911499,
		-0.3357778489589691,
		-0.35075441002845764,
		-0.155148446559906,
		-0.4268333315849304,
		0.3293190598487854,
		-0.4039541482925415,
		-0.12684878706932068,
		-0.44303449988365173,
		-0.48580020666122437,
		0.3085266053676605,
		-0.45705342292785645,
		-0.3084559738636017,
		0.006149322260171175,
		-0.23876751959323883,
		0.3564615249633789,
		-0.14743152260780334,
		0.27768656611442566,
		0.47917208075523376,
		-0.2524286210536957,
		-0.13622471690177917,
		0.11114619672298431,
		0.013309072703123093,
		-0.1371058225631714,
		0.2716919481754303,
		0.02363888919353485,
		0.4365652799606323,
		-0.35263729095458984,
		0.20580241084098816,
		0.005560237914323807,
		0.48321375250816345,
		0.2287938892841339,
		-0.059773847460746765,
		-0.45813435316085815,
		0.17952939867973328,
		0.04588474705815315,
		-0.319309264421463,
		0.36220458149909973,
		-0.44540995359420776,
		-0.06044222414493561,
		-0.2689112722873688,
		-0.09628639370203018,
		-0.11369386315345764,
		-0.09160251170396805,
		-0.35269245505332947,
		-0.06578990817070007,
		0.17598237097263336,
		0.09443914145231247,
		0.19257593154907227,
		0.46732041239738464,
		-0.008878768421709538,
		0.06659657508134842,
		-0.06472992151975632,
		-0.4002732038497925,
		-0.3754328191280365,
		0.4412282407283783,
		0.06648984551429749,
		-0.42454439401626587,
		-0.4568121135234833,
		0.4253276288509369,
		-0.35652437806129456,
		0.08860934525728226,
		0.42993417382240295,
		-0.10760978609323502,
		-0.26524922251701355,
		0.4458777606487274,
		-0.25527098774909973,
		0.2182902693748474,
		0.14040204882621765,
		0.007510742172598839,
		-0.419004887342453,
		0.21688343584537506,
		0.21124149858951569,
		0.0528256893157959,
		-0.14546380937099457,
		0.13185244798660278,
		0.009633254259824753,
		0.02902490273118019,
		0.20964078605175018,
		-0.12403331696987152,
		-0.4771386981010437,
		-0.07552120834589005,
		-0.16277383267879486,
		0.37467896938323975,
		-0.12354148924350739,
		0.40113741159439087,
		0.38059061765670776,
		0.14848363399505615,
		-0.4492151141166687,
		0.18883775174617767,
		0.4378625452518463,
		-1.821887562982738E-4,
		0.3728042244911194,
		0.13832898437976837,
		-0.3115842938423157,
		0.03590121120214462,
		-0.2724100947380066,
		0.3243323862552643,
		-0.40566468238830566,
		0.039341434836387634,
		-0.30028828978538513,
		-0.48048657178878784,
		-0.2542985677719116,
		-0.4023081958293915,
		0.14211271703243256,
		0.3816443681716919,
		0.31623685359954834,
		0.2896912395954132,
		0.48985007405281067,
		-0.21458204090595245,
		-0.15423773229122162,
		-0.3167509138584137,
		-0.07162265479564667,
		-0.31306639313697815,
		-0.49617546796798706,
		-0.20713138580322266,
		-0.003233029041439295,
		0.16235871613025665,
		0.3085397779941559,
		0.24761059880256653,
		0.017655545845627785,
		0.265159547328949,
		0.27859988808631897,
		0.3315356969833374,
		-0.24163269996643066,
		-0.4220200181007385,
		0.3222233057022095,
		-0.3130567967891693,
		-0.37665045261383057,
		-0.4801524877548218,
		-0.1644793152809143,
		-0.46799972653388977,
		0.27904051542282104,
		-0.2965954840183258,
		0.295365571975708,
		-0.12444673478603363,
		0.02803914248943329,
		-0.1345357447862625,
		-0.12037510424852371,
		0.3365600109100342,
		0.41161924600601196,
		0.21995851397514343,
		0.022229230031371117,
		-0.1184418722987175,
		-0.445923775434494,
		0.38861533999443054,
		0.1381886899471283,
		-0.013065049424767494,
		0.41498303413391113,
		0.4106126129627228,
		0.1812708079814911,
		-0.49194684624671936,
		-0.2264358103275299,
		-0.26807278394699097,
		-0.44138532876968384,
		-0.24875040352344513,
		-0.07299820333719254,
		0.46815577149391174,
		-0.03348543867468834,
		0.12772104144096375,
		0.35224637389183044,
		-0.2740119397640228,
		0.11239513754844666,
		0.03264499455690384,
		0.30683010816574097,
		0.15417909622192383,
		-0.13125917315483093,
		-0.49088260531425476,
		0.08867435157299042,
		-0.45588406920433044,
		0.3913620412349701,
		-0.36173608899116516,
		0.09168069809675217,
		-0.32240939140319824,
		-0.08883059024810791,
		-0.4637027680873871,
		0.004950112663209438,
		0.3427719175815582,
		0.3628535270690918,
		0.27230143547058105,
		-0.4912855923175812,
		-0.07228197902441025,
		-0.13820289075374603,
		0.06950795650482178,
		-0.39518603682518005,
		-0.3149040639400482,
		-0.02062390372157097,
		-0.3963882327079773,
		0.2920035719871521,
		0.44387638568878174,
		0.20979367196559906,
		0.34317895770072937,
		-0.38040605187416077,
		0.19905829429626465,
		-0.46328434348106384,
		0.41863298416137695,
		0.2793787717819214,
		-0.2589015066623688,
		-0.050840601325035095,
		-0.3895673155784607,
		-0.13749559223651886,
		0.29298827052116394,
		-0.05586060509085655,
		-0.25124460458755493,
		0.4745762348175049,
		-0.13309647142887115,
		0.43618616461753845,
		-0.031057950109243393,
		0.023881008848547935,
		-0.13783174753189087,
		0.3228742480278015,
		-0.04617869853973389,
		-0.4010155498981476,
		0.34872427582740784,
		-0.1129114031791687,
		-0.4157330393791199,
		-0.48822054266929626,
		0.2848195433616638,
		-0.4215651750564575,
		0.16272911429405212,
		0.3063451945781708,
		-0.12709398567676544,
		0.2564816176891327,
		-0.29627591371536255,
		-0.3203877806663513,
		0.20723767578601837,
		-0.13792924582958221,
		-0.4271579682826996,
		-0.41109374165534973,
		0.33535656332969666,
		-0.41257745027542114,
		0.20397745072841644,
		0.05557166039943695,
		-0.15390540659427643,
		0.10513351857662201,
		0.449900358915329,
		0.022770948708057404,
		0.16979239881038666,
		0.05547390133142471,
		-0.41861626505851746,
		0.3967055678367615,
		-0.1590568721294403,
		-0.0048960004933178425,
		-0.08262966573238373,
		-0.08898714929819107,
		0.034995149821043015,
		0.3072017729282379,
		-0.4241258502006531,
		-0.31580230593681335,
		-0.10082820802927017,
		0.08269710093736649,
		-0.20903682708740234,
		0.469163715839386,
		0.2817537784576416,
		-0.17949841916561127,
		-0.10024841129779816,
		0.3898792862892151,
		-0.2668316662311554,
		-0.07388902455568314,
		0.09578922390937805,
		-0.4119393825531006,
		-0.19023722410202026,
		0.35351070761680603,
		-0.2716822624206543,
		-0.3501307964324951,
		0.047466572374105453,
		0.4202677309513092,
		0.033636461943387985,
		-0.16007983684539795,
		0.18407131731510162,
		-0.22418907284736633,
		-0.09313783049583435,
		0.12508727610111237,
		-0.41171693801879883,
		-0.2574354112148285,
		0.4789145290851593,
		-0.23598189651966095,
		0.17188861966133118,
		-0.22595734894275665,
		0.07621455192565918,
		-0.26934754848480225,
		0.48427197337150574,
		-0.4584607183933258,
		0.335317462682724,
		-0.4094852805137634,
		0.03759368136525154,
		0.27212682366371155,
		0.1400526911020279,
		0.4986455738544464,
		0.42619892954826355,
		0.3213571608066559,
		0.29198843240737915,
		-0.08083109557628632,
		0.257314532995224,
		-0.437574177980423,
		-0.22240884602069855,
		0.24701929092407227,
		0.3811163902282715,
		0.15387888252735138,
		-0.17533066868782043,
		0.06203917786478996,
		-0.4783117175102234,
		0.43269628286361694,
		-0.06496807187795639,
		-0.16542363166809082,
		-0.09875918924808502,
		0.12054751813411713,
		0.48104235529899597,
		0.014387952163815498,
		0.13876736164093018,
		-0.13031844794750214,
		-0.4984334707260132,
		0.15293419361114502,
		0.2412078082561493,
		0.17892013490200043,
		-0.20054496824741364,
		0.28850406408309937,
		0.25859591364860535,
		0.046917472034692764,
		-0.41464412212371826,
		0.1797858476638794,
		-0.18168099224567413,
		0.3323896527290344,
		0.37669453024864197,
		0.082122802734375,
		0.4918767511844635,
		-0.28331854939460754,
		0.1125817820429802,
		-0.31600087881088257,
		-0.26588916778564453,
		0.2778468728065491,
		-0.028656044974923134,
		0.4900279939174652,
		-0.1475714147090912,
		0.21980516612529755,
		-0.3317335247993469,
		0.442320853471756,
		0.39924177527427673,
		-0.06363223493099213,
		-0.3670448362827301,
		-0.24115818738937378,
		0.11381944268941879,
		-0.2960290312767029,
		-0.23170141875743866,
		0.07807541638612747,
		0.4935269355773926,
		-0.47011736035346985,
		0.23495900630950928,
		-0.23266573250293732,
		-0.002920641331002116,
		0.2836362421512604,
		0.031107105314731598,
		-0.17486053705215454,
		-0.23910725116729736,
		0.11183429509401321,
		-0.049033187329769135,
		0.2539834678173065,
		-0.22412700951099396,
		0.23518823087215424,
		-0.0908014327287674,
		-0.13063301146030426,
		0.4048309922218323,
		-0.27769434452056885,
		0.47582724690437317,
		0.4737633466720581,
		0.21136479079723358,
		0.4514807164669037,
		-0.06449054926633835,
		0.07848276197910309,
		0.10209561884403229,
		-0.45189952850341797,
		0.1020306944847107,
		0.27266553044319153,
		-0.06303655356168747,
		-0.25609514117240906,
		-0.31771013140678406,
		0.2300610989332199,
		-0.15917104482650757,
		-0.21070589125156403,
		-0.08548391610383987,
		-0.19470812380313873,
		-0.3449345529079437,
		-0.2659367620944977,
		-0.1414688229560852,
		0.08461013436317444,
		0.1417076587677002,
		0.1124192327260971,
		-0.2822001874446869,
		0.36232975125312805,
		-0.19842830300331116,
		0.4092332422733307,
		0.2543346881866455,
		-0.09979341924190521,
		0.3855535089969635,
		-0.14006447792053223,
		0.477750301361084,
		0.04334422945976257,
		-0.45846936106681824,
		-0.4005359709262848,
		0.459536075592041,
		0.2386689931154251,
		0.2530720829963684,
		0.4213550090789795,
		0.37087127566337585,
		0.21565955877304077,
		0.21772699058055878,
		-0.09578841179609299,
		-0.4445706903934479,
		0.16287854313850403,
		-0.4608362317085266,
		0.4453161954879761,
		-0.2740584909915924,
		0.027620242908596992,
		-0.3400381803512573,
		-0.0982784852385521,
		0.21032291650772095,
		0.15968695282936096,
		-0.1628555953502655,
		-0.22983263432979584,
		0.45393916964530945,
		0.4055328071117401,
		-0.0637885183095932,
		-0.3862115144729614,
		-0.09442020952701569,
		0.40552178025245667,
		-0.1345052272081375,
		0.2573026120662689,
		-0.21667638421058655,
		0.2923586666584015,
		0.48393023014068604,
		-0.4455604553222656,
		0.17009671032428741,
		0.21032507717609406,
		0.4063750207424164,
		-0.05474346503615379,
		0.3219343423843384,
		0.06963178515434265,
		-0.29884007573127747,
		-0.11617088317871094,
		0.08399945497512817,
		-0.264971524477005,
		0.14965783059597015,
		0.14357230067253113,
		-0.163539320230484,
		0.4099603593349457,
		0.38754910230636597,
		0.4509577751159668,
		0.43854811787605286,
		0.33818885684013367,
		-0.09037207812070847,
		0.42906513810157776,
		0.23540660738945007,
		0.02541523240506649,
		-0.2977059781551361,
		-0.23554083704948425,
		0.2817500829696655,
		0.15592166781425476,
		1.6751869407016784E-4,
		-0.3334304690361023,
		-0.35404103994369507,
		0.0184249896556139,
		0.44379931688308716,
		0.16177372634410858,
		-0.23816289007663727,
		-0.26761534810066223,
		-0.24676914513111115,
		0.4699350893497467,
		-0.41466134786605835,
		-0.16093778610229492,
		-0.13136248290538788,
		-0.24860426783561707,
		0.4783318340778351,
		-0.16434387862682343,
		0.4324170649051666,
		-0.20086555182933807,
		-0.4000946283340454,
		0.03981965780258179,
		0.3386179208755493,
		-0.14521047472953796,
		-0.21035069227218628,
		-0.21099373698234558,
		0.06910189241170883,
		-0.46611645817756653,
		-0.10399941354990005,
		0.3243693709373474,
		-0.48856121301651,
		0.040214959532022476,
		-0.27400824427604675,
		-0.09188216924667358,
		-0.06606605648994446,
		0.25957560539245605,
		-0.19541792571544647,
		-0.40094465017318726,
		-0.12852966785430908,
		-0.005875611677765846,
		-0.48754680156707764,
		-0.09155382215976715,
		-0.3042175769805908,
		-0.3681592047214508,
		0.12849391996860504,
		-0.004295464139431715,
		-0.19124546647071838,
		-0.21738149225711823,
		-0.16394144296646118,
		0.3662235140800476,
		0.48167872428894043,
		-0.030164936557412148,
		-0.29041987657546997,
		0.11910850554704666,
		-0.4451499581336975,
		0.2844782769680023,
		0.336870402097702,
		-0.4042976498603821,
		0.37351194024086,
		0.04107771813869476,
		-0.24635368585586548,
		-0.05504980683326721,
		-0.3483664393424988,
		-0.16072896122932434,
		-0.0068841055035591125,
		-0.4865438640117645,
		0.059987813234329224,
		0.13653431832790375,
		-0.23677514493465424,
		0.1271253377199173,
		-0.1848708987236023,
		0.36773917078971863,
		0.3437906503677368,
		0.37755003571510315,
		-0.31505903601646423,
		-0.11027354747056961,
		0.11337777227163315,
		-0.32153356075286865,
		0.31930437684059143,
		-0.45101121068000793,
		-0.23724041879177094,
		0.4674125015735626,
		0.12047147005796432,
		0.47546035051345825,
		-0.3890608847141266,
		0.23062396049499512,
		0.2900349199771881,
		-0.22502340376377106,
		0.1826009899377823,
		0.05218749865889549,
		0.18523865938186646,
		0.12104735523462296,
		-0.4197867810726166,
		0.38016560673713684,
		-0.4755741357803345,
		-0.01153201051056385,
		0.01351083442568779,
		0.2655861973762512,
		-0.45795363187789917,
		0.05530659481883049,
		0.3200726807117462,
		-0.19766128063201904,
		-0.27676135301589966,
		-0.37125909328460693,
		0.14325465261936188,
		-0.27156975865364075,
		0.29276594519615173,
		0.34742698073387146,
		-0.02130337432026863,
		0.1326226443052292,
		0.2751096189022064,
		0.25001823902130127,
		0.2562510371208191,
		-0.006018586922436953,
		-0.45869171619415283,
		0.2659749388694763,
		0.15327149629592896,
		-0.15617790818214417,
		-0.05225713551044464,
		-0.3909640908241272,
		-0.11610658466815948,
		0.2038239687681198,
		0.37044548988342285,
		0.07431235909461975,
		-0.18112026154994965,
		-0.4420100748538971,
		0.1250208467245102,
		0.2104375809431076,
		-0.11403023451566696,
		-0.4857107996940613,
		0.07310796529054642,
		0.43082526326179504,
		0.3563826382160187,
		-0.44683021306991577,
		0.48627418279647827,
		-0.33629781007766724,
		0.31335797905921936,
		0.15495510399341583,
		-0.4504701793193817,
		-0.19700933992862701,
		-0.2098315954208374,
		0.41499659419059753,
		0.2307736575603485,
		0.3090852200984955,
		-0.16754432022571564,
		0.2404560148715973,
		0.1955777257680893,
		-0.4644924998283386,
		-0.4948057234287262,
		0.06980506330728531,
		0.23517641425132751,
		-0.024246344342827797,
		0.14548136293888092,
		-0.36638471484184265,
		-0.23932582139968872,
		-0.4819338023662567,
		0.05680451914668083,
		-0.3534480631351471,
		-0.21358610689640045,
		-0.166016086935997,
		0.1300886571407318,
		0.4973995089530945,
		-0.09541062265634537,
		-0.41815292835235596,
		-0.13764862716197968,
		-0.07279965281486511,
		-0.25594767928123474,
		-0.3124653697013855,
		-0.4017217457294464,
		0.385730504989624,
		-0.49089670181274414,
		0.04764391854405403,
		-0.16602252423763275,
		0.3341454863548279,
		0.2857556641101837,
		0.20047786831855774,
		-0.10771926492452621,
		-0.07291178405284882,
		-0.05459727719426155,
		0.08960635215044022,
		0.29740551114082336,
		-0.32144612073898315,
		-0.3983236849308014,
		-0.12998630106449127,
		-0.23744413256645203,
		0.4982181787490845,
		-0.15290933847427368,
		-0.18808813393115997,
		-0.2565171718597412,
		0.13968074321746826,
		0.15235814452171326,
		-0.24788978695869446,
		0.19044378399848938,
		0.46822047233581543,
		0.09978637844324112,
		0.21068806946277618,
		0.21894827485084534,
		0.22663471102714539,
		0.4159599244594574,
		0.25886738300323486,
		0.1345263570547104,
		-0.15949055552482605,
		0.0905924141407013,
		0.43259066343307495,
		0.46178874373435974,
		-0.351724237203598,
		0.19423773884773254,
		-0.4577268958091736,
		0.35660234093666077,
		0.41670456528663635,
		0.43989792466163635,
		-0.02540072426199913,
		0.04949366673827171,
		0.3466886579990387,
		-0.10229486227035522,
		0.23554939031600952,
		-0.1993573009967804,
		-0.16640934348106384,
		-0.25484609603881836,
		-0.25282159447669983,
		0.15637029707431793,
		0.1734648048877716,
		0.4247669279575348,
		-0.36055412888526917,
		0.1838393211364746,
		0.028503376990556717,
		0.059861693531274796,
		0.1654406636953354,
		-0.26086536049842834,
		-0.1107424721121788,
		-0.4779095947742462,
		-0.437181681394577,
		-0.21940797567367554,
		0.042445313185453415,
		0.15553247928619385,
		-0.32889673113822937,
		0.18947111070156097,
		-0.4912835955619812,
		-0.2752804458141327,
		0.4262987971305847,
		-0.45742475986480713,
		0.20344966650009155,
		-0.22804363071918488,
		0.3315642178058624,
		-0.19060185551643372,
		0.17979981005191803,
		0.31043124198913574,
		0.371707946062088,
		0.0413232259452343,
		0.07363862544298172,
		0.38984572887420654,
		0.46762311458587646,
		-0.3693832457065582,
		0.09422314912080765,
		-0.15626361966133118,
		0.409351646900177,
		-0.09752289205789566,
		-0.26186782121658325,
		0.2846331000328064,
		0.4168097972869873,
		0.4362226128578186,
		0.11893767863512039,
		0.20620593428611755,
		-0.0785355493426323,
		-0.3354155123233795,
		0.29197263717651367,
		-0.16797611117362976,
		-0.11430656909942627,
		0.032778188586235046,
		0.16068916022777557,
		0.26734185218811035,
		0.020629506558179855,
		0.27689221501350403,
		-0.36919480562210083,
		0.3535458445549011,
		-0.47347065806388855,
		0.06905334442853928,
		0.4570930600166321,
		-0.4680069088935852,
		-0.420462429523468,
		-0.3305683434009552,
		-0.14100201427936554,
		-6.580838235095143E-4,
		-0.3378574848175049,
		0.015114245936274529,
		0.28226444125175476,
		0.4174768924713135,
		-0.06558218598365784,
		0.06221583113074303,
		-0.032087575644254684,
		0.39345937967300415,
		0.31090572476387024,
		0.07257350534200668,
		-0.22225593030452728,
		0.05750938504934311,
		-0.4145301878452301,
		0.006537282839417458,
		-0.422120600938797,
		0.09469667822122574,
		-0.0724240094423294,
		0.10918278247117996,
		-0.1079648807644844,
		-0.29558801651000977,
		0.3858174681663513,
		0.29163870215415955,
		-0.1290542483329773,
		0.07568208128213882,
		-0.4942467212677002,
		-0.07668918371200562,
		-0.3471399247646332,
		0.17308533191680908,
		0.05513426661491394,
		0.20543034374713898,
		0.064704529941082,
		-0.2327016294002533,
		-0.02212027832865715,
		0.405568927526474,
		0.22518859803676605,
		-0.07808882743120193,
		-0.005795154720544815,
		-0.1912066787481308,
		0.004001902882009745,
		0.38888970017433167,
		0.05750279873609543,
		0.42465606331825256,
		-0.4886223375797272,
		-0.3588842451572418,
		-0.256004273891449,
		0.18149684369564056,
		-0.2640426456928253,
		-0.3996325433254242,
		-0.07695531845092773,
		0.48084738850593567,
		0.21858812868595123,
		-0.49350619316101074,
		-0.4195956885814667,
		-0.1653696596622467,
		0.1583033949136734,
		-0.315313458442688,
		0.42469123005867004,
		0.47025465965270996,
		-0.3180551826953888,
		0.4532814919948578,
		0.05317357927560806,
		-0.2942593991756439,
		0.0979541689157486,
		-0.1747983992099762,
		-0.27978843450546265,
		0.10785416513681412,
		-0.16382476687431335,
		0.11920560151338577,
		-0.49891501665115356,
		0.4610365927219391,
		0.3956020772457123,
		0.17462778091430664,
		0.4734156131744385,
		-0.16937538981437683,
		0.13609442114830017,
		0.3003849983215332,
		-0.1913168877363205,
		0.030501030385494232,
		-0.1246800497174263,
		-0.2433658391237259,
		0.08154356479644775,
		0.25106143951416016,
		0.3420305848121643,
		0.10202480852603912,
		-0.019271234050393105,
		-0.45040175318717957,
		0.26180803775787354,
		0.42863258719444275,
		-0.481410950422287,
		0.47724688053131104,
		0.4202202260494232,
		0.11133476346731186,
		0.273244172334671,
		0.18605713546276093,
		0.4327372610569,
		0.44409552216529846,
		-0.23099014163017273,
		-0.14473094046115875,
		0.02445151098072529,
		0.25644469261169434,
		-0.049098290503025055,
		-0.4757472276687622,
		-0.4356388747692108,
		0.3203772008419037,
		-0.017910320311784744,
		-0.041238971054553986,
		0.2776266038417816,
		0.2127673476934433,
		-0.06686904281377792,
		0.4229051172733307,
		0.0361139215528965,
		0.06071984022855759,
		-0.24677647650241852,
		-0.09547556191682816,
		-0.15935876965522766,
		0.4886668920516968,
		-0.11507128924131393,
		-0.39589646458625793,
		0.21301716566085815,
		-0.04236285015940666,
		0.20211640000343323,
		0.28011488914489746,
		0.4615606665611267,
		-0.4199265241622925,
		-0.48194217681884766,
		0.32483524084091187,
		0.4046314060688019,
		0.49177801609039307,
		-0.23259982466697693,
		0.2814142405986786,
		-0.47716230154037476,
		-0.20452816784381866,
		0.145790234208107,
		-0.07793828099966049,
		-0.3548939824104309,
		0.08251556754112244,
		-0.15408192574977875,
		-0.14814919233322144,
		0.2466755211353302,
		-0.32306408882141113,
		-0.21038827300071716,
		0.07620368152856827,
		0.10667784512042999,
		-0.3247639238834381,
		-0.2700870931148529,
		-0.09554299712181091,
		-0.38655030727386475,
		0.08978200703859329,
		0.3359910845756531,
		0.0647113025188446,
		0.28369835019111633,
		0.4483243227005005,
		0.4610274136066437,
		-0.055587392300367355,
		0.12069623917341232,
		0.40819287300109863,
		-0.41693928837776184,
		0.3915332555770874,
		0.24646525084972382,
		0.13148118555545807,
		-0.45076456665992737,
		-0.3552370071411133,
		-0.05119079351425171,
		0.39398664236068726,
		0.14791694283485413,
		-0.4810155928134918,
		-0.3975585103034973,
		-0.33398208022117615,
		-0.33131393790245056,
		0.20058321952819824,
		0.1768789440393448,
		-0.3364547789096832,
		-0.40848273038864136,
		-0.38858675956726074,
		-0.011712098494172096,
		0.2514103055000305,
		-0.1941312700510025,
		-0.45988690853118896,
		0.08052239567041397,
		-0.13766860961914062,
		0.21860511600971222,
		-0.4743225574493408,
		0.21506807208061218,
		0.013414560817182064,
		0.4550584554672241,
		-0.3286169469356537,
		-0.3047886788845062,
		-0.05597016587853432,
		0.4154837727546692,
		0.43884360790252686,
		0.3799017071723938,
		-0.22208921611309052,
		-0.18143610656261444,
		-0.21416285634040833,
		0.13728447258472443,
		0.15284158289432526,
		0.49300119280815125,
		-0.1463848352432251,
		-0.42583170533180237,
		-0.2577608823776245,
		0.13305771350860596,
		-0.1170005351305008,
		0.4074799716472626,
		-0.38231486082077026,
		0.3670922517776489,
		-0.1301092505455017,
		0.009282859973609447,
		0.020545095205307007,
		-0.4183611571788788,
		0.014875467866659164,
		-0.36776602268218994,
		-0.3370806574821472,
		-0.4105433523654938,
		-0.024893101304769516,
		-0.3058541715145111,
		0.32760199904441833,
		0.3901172876358032,
		0.45426133275032043,
		-0.026279360055923462,
		0.24017883837223053,
		-0.484833687543869,
		-0.2575285732746124,
		-0.041517652571201324,
		0.3011358678340912,
		0.0843658298254013,
		0.3589998781681061,
		-0.29532676935195923,
		0.08813140541315079,
		-0.34243395924568176,
		0.15161927044391632,
		0.47507986426353455,
		0.2176956683397293,
		-1.0545426630415022E-4,
		-0.26116085052490234,
		0.12017418444156647,
		-0.4976884424686432,
		0.4910508096218109,
		0.47969064116477966,
		-0.40707331895828247,
		0.1098308265209198,
		-0.48231756687164307,
		-0.19919222593307495,
		0.3138081431388855,
		-0.1452765166759491,
		0.26265010237693787,
		-0.06511836498975754,
		0.07796431332826614,
		-0.4663819670677185,
		-0.3614293336868286,
		-0.006476841866970062,
		-0.0011229886440560222,
		0.2423495650291443,
		-0.43169188499450684,
		0.48176875710487366,
		-0.3480791747570038,
		0.48571664094924927,
		-0.16112899780273438,
		0.2991543412208557,
		-0.1314806193113327,
		-0.12477840483188629,
		-0.24117611348628998,
		-0.4276660084724426,
		-0.14247676730155945,
		0.2510152757167816,
		0.34278133511543274,
		-0.3920789957046509,
		0.2167823612689972,
		0.09571971744298935,
		0.4493243992328644,
		-0.33050453662872314,
		0.1663804054260254,
		0.13080376386642456,
		0.24145697057247162,
		0.22160260379314423,
		-0.2114974558353424,
		0.17002613842487335,
		-0.34047842025756836,
		-0.17430897057056427,
		0.37916263937950134,
		0.3672258257865906,
		0.10040993988513947,
		-0.16019336879253387,
		0.07022887468338013,
		0.20320820808410645,
		0.36337050795555115,
		-0.3050747513771057,
		-0.3098459243774414,
		-0.2704322338104248,
		-0.014653909020125866,
		-0.4621027112007141,
		-0.47326183319091797,
		-0.16998291015625,
		-0.46851199865341187,
		-0.2955687344074249,
		-0.0023755088914185762,
		-0.48326218128204346,
		0.050472866743803024,
		-0.3901739716529846,
		0.45909541845321655,
		-0.4536251127719879,
		-0.1307791918516159,
		0.3197687864303589,
		0.33575794100761414,
		0.004554592538625002,
		0.10791197419166565,
		0.3081630766391754,
		-0.48340678215026855,
		-0.17934292554855347,
		-0.12335649877786636,
		-0.40214675664901733,
		0.4870454668998718,
		-0.4293917715549469,
		-0.16565372049808502,
		-0.18769973516464233,
		0.006517288740724325,
		0.3579206168651581,
		-0.06175772845745087,
		0.4446142911911011,
		0.1527605503797531,
		-0.006347553804516792,
		-0.4745192527770996,
		-0.02878301404416561,
		-0.4298302233219147,
		0.1458788812160492,
		-0.4714563190937042,
		0.32585686445236206,
		0.26344233751296997,
		-0.2811717987060547,
		-0.4378015995025635,
		-0.32308873534202576,
		-0.14818443357944489,
		0.1568961888551712,
		-0.21044215559959412,
		0.29588308930397034,
		0.2919620871543884,
		0.04067685827612877,
		-0.004390651825815439,
		-0.11331687867641449,
		0.21139834821224213,
		-0.14677244424819946,
		0.038779038935899734,
		-0.3945930600166321,
		-0.3517288863658905,
		-0.4900563359260559,
		-0.08791768550872803,
		-0.3472815752029419,
		-0.34662064909935,
		-0.1508733332157135,
		-0.031421005725860596,
		0.2797843813896179,
		-0.48785918951034546,
		0.018242813646793365,
		0.48001423478126526,
		-0.3087652921676636,
		0.45862218737602234,
		0.3801356554031372,
		-0.4113267958164215,
		0.4024451971054077,
		-0.2878502309322357,
		0.3658471405506134,
		-0.13696272671222687,
		0.33502256870269775,
		0.2687756419181824,
		0.44807717204093933,
		0.18996655941009521,
		-0.0038079177029430866,
		0.4787100553512573,
		0.2677764296531677,
		0.36812350153923035,
		-0.07697412371635437,
		-0.46001172065734863,
		-0.2334325611591339,
		-0.12179622054100037,
		-0.2658306360244751,
		0.18650294840335846,
		0.08380986750125885,
		-0.45365285873413086,
		-0.06938918679952621,
		-0.3594290018081665,
		-0.10652574896812439,
		0.4280632734298706,
		-0.0931687131524086,
		0.4114222228527069,
		-0.23216426372528076,
		0.08528070896863937,
		0.4403364062309265,
		0.04705798998475075,
		0.1877954751253128,
		-0.453465074300766,
		0.334596186876297,
		-0.06333304196596146,
		-0.21426421403884888,
		-0.26722487807273865,
		-0.2582232356071472,
		0.349415123462677,
		0.4459429383277893,
		-0.23424039781093597,
		0.17000915110111237,
		-0.4884611666202545,
		0.01339629478752613,
		-0.41653621196746826,
		0.12206777930259705,
		0.053373437374830246,
		0.36620256304740906,
		-0.42798668146133423,
		-0.2234829217195511,
		0.4946792423725128,
		-0.13762781023979187,
		0.45030975341796875,
		0.20446664094924927,
		0.39297544956207275,
		0.2116156816482544,
		0.4861834943294525,
		0.13384272158145905,
		-0.2747911214828491,
		0.13580314815044403,
		0.2047976404428482,
		0.34616222977638245,
		-0.35609889030456543,
		0.30497264862060547,
		0.19289059937000275,
		0.4609164595603943,
		0.17838245630264282,
		0.3814261257648468,
		0.2296966165304184,
		-0.04401971772313118,
		-0.3758786916732788,
		0.23264463245868683,
		-0.05586796998977661,
		-0.014929870143532753,
		0.3303997814655304,
		-0.2705872356891632,
		0.4359729588031769,
		-0.22913424670696259,
		0.40086254477500916,
		-0.1174212098121643,
		-0.17117458581924438,
		0.05643133446574211,
		0.25159120559692383,
		0.46998724341392517,
		0.468460351228714,
		0.425922155380249,
		0.3926262855529785,
		-0.30024757981300354,
		-0.3448726236820221,
		0.06317780911922455,
		-0.1736941933631897,
		-0.09520281851291656,
		0.02468697912991047,
		-0.12114040553569794,
		0.34024396538734436,
		-0.21025003492832184,
		0.4919397234916687,
		-0.18768543004989624,
		-0.3252478837966919,
		0.16491349041461945,
		0.4426363706588745,
		0.4830876886844635,
		-0.1050398126244545,
		-0.25529518723487854,
		0.16830244660377502,
		0.33411678671836853,
		-0.36362260580062866,
		0.07301993668079376,
		-0.01680774986743927,
		-0.17102181911468506,
		-0.2328379601240158,
		0.3185752332210541,
		0.2292291522026062,
		0.3076168894767761,
		-0.09933659434318542,
		0.23979435861110687,
		0.4311184883117676,
		-0.4001806080341339,
		-0.31939375400543213,
		0.3445279896259308,
		0.18416951596736908,
		-0.47521913051605225,
		0.14301711320877075,
		-0.057783231139183044,
		-0.02360132709145546,
		0.07448635250329971,
		-0.4118840992450714,
		0.4986283481121063,
		0.03855269029736519,
		0.10419678688049316,
		0.25653931498527527,
		-0.49010056257247925,
		0.47787538170814514,
		0.053620606660842896,
		-0.11924038827419281,
		-0.18146267533302307,
		0.41664355993270874,
		0.4054383337497711,
		-0.46713152527809143,
		0.23919609189033508,
		-0.4193047285079956,
		0.27877798676490784,
		-0.4349230229854584,
		0.07484413683414459,
		-0.1885651797056198,
		-0.20080912113189697,
		0.3777956962585449,
		0.09326595067977905,
		0.2802879810333252,
		-0.3166387975215912,
		-0.38380032777786255,
		0.40976017713546753,
		-0.27544936537742615,
		-0.2367497682571411,
		-0.056272849440574646,
		-0.3384164571762085,
		-0.07889731228351593,
		0.009997609071433544,
		0.0034688098821789026,
		-0.16352719068527222,
		-0.23160387575626373,
		-3.533911658450961E-4,
		0.21301144361495972,
		0.17042209208011627,
		-0.2940313220024109,
		-0.3505176603794098,
		0.09066401422023773,
		0.4921141266822815,
		-0.0202734787017107,
		0.4907684624195099,
		0.45491287112236023,
		-0.4633646607398987,
		0.19757016003131866,
		-0.2791668176651001,
		0.38825705647468567,
		-0.20185860991477966,
		-0.09777702391147614,
		-0.29304882884025574,
		0.0954577624797821,
		-0.3101668357849121,
		0.43509596586227417,
		-0.24456357955932617,
		-0.10815674066543579,
		-0.15182840824127197,
		0.2103002369403839,
		0.38259756565093994,
		0.3724963068962097,
		-0.2790307104587555,
		-0.4205854535102844,
		-0.4826529622077942,
		0.4560100734233856,
		-0.27642449736595154,
		-0.07578819990158081,
		-0.3989885151386261,
		0.3818182647228241,
		-0.4405820965766907,
		0.24779386818408966,
		-0.20856226980686188,
		-0.03612663596868515,
		-0.4444579482078552,
		0.478493869304657,
		0.052501603960990906,
		0.33617058396339417,
		0.21100351214408875,
		-0.0231512188911438,
		0.20891371369361877,
		0.21111181378364563,
		0.495614618062973,
		0.21213987469673157,
		-0.253857284784317,
		0.15919129550457,
		-0.18669039011001587,
		0.41274258494377136,
		0.41468602418899536,
		-0.2107342630624771,
		-0.024979205802083015,
		0.023770445957779884,
		-0.46562376618385315,
		-0.25098368525505066,
		-0.018368618562817574,
		0.20874761044979095,
		0.15132799744606018,
		0.3816394507884979,
		-0.15503402054309845,
		0.26730215549468994,
		0.2012798935174942,
		-0.4887412190437317,
		0.2454601377248764,
		-0.26747819781303406,
		0.07253596931695938,
		0.24857230484485626,
		0.33298739790916443,
		0.15033099055290222,
		0.03245332092046738,
		0.012791337445378304,
		-0.45963993668556213,
		0.029528416693210602,
		0.35867708921432495,
		-0.17610381543636322,
		-0.09732107818126678,
		0.1694139540195465,
		0.04352077841758728,
		-0.14537346363067627,
		0.01866309717297554,
		-0.30509117245674133,
		0.4436545670032501,
		-0.31466007232666016,
		0.39710816740989685,
		0.38212475180625916,
		0.34285029768943787,
		0.09484201669692993,
		-0.2886948585510254,
		-0.45583000779151917,
		0.41886094212532043,
		0.35229530930519104,
		0.13037298619747162,
		-0.45955413579940796,
		0.2935897707939148,
		-0.14890599250793457,
		-0.2593230605125427,
		0.27237069606781006,
		-0.06140412762761116,
		-0.35740721225738525,
		-0.24497658014297485,
		0.36025574803352356,
		0.42049193382263184,
		-0.10466136038303375,
		0.14291301369667053,
		0.4981425702571869,
		-0.31641677021980286,
		-0.46415722370147705,
		0.07759305834770203,
		-0.4940386414527893,
		0.2653561532497406,
		0.3672429323196411,
		-0.478449285030365,
		-0.1582881361246109,
		-0.2899782657623291,
		-0.18682704865932465,
		0.18349027633666992,
		-0.00244062184356153,
		-0.383092999458313,
		-0.06126326695084572,
		0.0334676057100296,
		-0.03761640563607216,
		0.23980453610420227,
		-0.09799262881278992,
		0.49048444628715515,
		0.17014029622077942,
		-0.18687541782855988,
		0.02005181647837162,
		0.4965207874774933,
		-0.27636486291885376,
		-0.28161123394966125,
		-0.33281952142715454,
		-0.3666211664676666,
		0.3858962059020996,
		0.0681968629360199,
		-0.11610324680805206,
		-0.42226043343544006,
		-0.13606874644756317,
		0.18630579113960266,
		0.11939191073179245,
		0.276632696390152,
		0.09016713500022888,
		-0.007601808290928602,
		-0.22967743873596191,
		0.3336222767829895,
		-0.13092616200447083,
		0.3214365839958191,
		0.2711526155471802,
		0.28290891647338867,
		-0.033285822719335556,
		-0.23629549145698547,
		0.34387272596359253,
		-0.35972675681114197,
		-0.0698731541633606,
		-0.3308138847351074,
		-0.4061824083328247,
		-0.19582365453243256,
		0.24522961676120758,
		-0.3607296347618103,
		0.09761238098144531,
		0.19062690436840057,
		0.16271193325519562,
		-0.09277249127626419,
		-0.18917839229106903,
		0.2220819592475891,
		0.4358072876930237,
		-0.2537359297275543,
		-0.46717017889022827,
		0.15354032814502716,
		0.49106356501579285,
		0.21620313823223114,
		0.012390324845910072,
		0.05784112215042114,
		0.02626648359000683,
		0.3426220715045929,
		0.23754972219467163,
		-0.3305114805698395,
		-0.14022944867610931,
		0.04636235535144806,
		0.283023476600647,
		0.20402832329273224,
		-0.07199979573488235,
		-0.004492968786507845,
		0.20784737169742584,
		-0.26354384422302246,
		-0.32711660861968994,
		-0.13497960567474365,
		0.3423711955547333,
		0.14514389634132385,
		-0.28420108556747437,
		0.34925657510757446,
		-0.01993664726614952,
		0.2257014364004135,
		-0.35420331358909607,
		-0.2975972592830658,
		-0.09199448674917221,
		0.015431527979671955,
		-0.07257266342639923,
		0.46116966009140015,
		0.4608437418937683,
		0.025976380333304405,
		0.4492085874080658,
		-0.4465831518173218,
		-0.2448505163192749,
		-0.35905829071998596,
		-0.021935170516371727,
		-0.14424659311771393,
		-0.4618307650089264,
		-0.4310331642627716,
		-0.1663154661655426,
		-0.044525545090436935,
		-0.2961704432964325,
		-0.06614671647548676,
		0.4560298025608063,
		-0.23903173208236694,
		-0.2048172801733017,
		0.2510996162891388,
		0.10799621045589447,
		0.3135773837566376,
		-0.007481894921511412,
		0.2806970179080963,
		-0.1437612771987915,
		0.22303885221481323,
		-0.018198776990175247,
		-0.4909780025482178,
		0.18596971035003662,
		-0.22045724093914032,
		-0.22609296441078186,
		-0.21213598549365997,
		0.006181235425174236,
		0.026079824194312096,
		0.029162559658288956,
		-0.48592373728752136,
		-0.4434570074081421,
		-0.24697691202163696,
		-0.3085479438304901,
		-0.4817655384540558,
		-0.23709304630756378,
		-0.3915438652038574,
		-0.2535344958305359,
		-0.19726024568080902,
		-0.1340610235929489,
		0.33738046884536743,
		-0.22317388653755188,
		0.110507532954216,
		-0.28187301754951477,
		0.43019020557403564,
		-0.4699179530143738,
		0.2910943329334259,
		0.03096351958811283,
		0.29632309079170227,
		0.1262195110321045,
		0.39745286107063293,
		-0.01590297371149063,
		0.48361730575561523,
		-0.3097791075706482,
		0.45662474632263184,
		0.012171296402812004,
		0.32889002561569214,
		0.08635879307985306,
		-0.1027635782957077,
		0.32667776942253113,
		-0.14007781445980072,
		0.23800648748874664,
		-0.31810376048088074,
		-0.3148575723171234,
		-0.2512783408164978,
		-0.08495183289051056,
		0.31535646319389343,
		0.18482118844985962,
		-0.40185925364494324,
		0.23380209505558014,
		0.010090461000800133,
		0.4541231691837311,
		-0.14256373047828674,
		0.1486879140138626,
		0.44925209879875183,
		0.3591190278530121,
		0.2436118870973587,
		0.03626462444663048,
		-0.158597931265831,
		-0.4608577489852905,
		-0.39211001992225647,
		0.14635729789733887,
		0.09071450680494308,
		0.4157366156578064,
		-0.19078375399112701,
		0.06380739063024521,
		0.27810367941856384,
		0.048976872116327286,
		0.33899614214897156,
		-0.4746066927909851,
		-0.16648553311824799,
		0.07491154223680496,
		0.06124051660299301,
		-0.09206375479698181,
		0.17239068448543549,
		0.32539644837379456,
		-0.3103097975254059,
		0.46542227268218994,
		-0.09247732162475586,
		0.12743638455867767,
		0.3651703894138336,
		-0.10833577811717987,
		0.08927593380212784,
		0.14133137464523315,
		-0.043846189975738525,
		0.12554292380809784,
		0.41388338804244995,
		-0.3285158574581146,
		0.4876645803451538,
		0.43053215742111206,
		-0.28050974011421204,
		-0.2870200276374817,
		-0.47586190700531006,
		-0.4069729745388031,
		-0.40275123715400696,
		-0.31599003076553345,
		0.07263364642858505,
		-0.2075318843126297,
		0.47310692071914673,
		-0.33142393827438354,
		0.1239524632692337,
		0.14611637592315674,
		0.013105954974889755,
		0.2380763590335846,
		-0.27896153926849365,
		0.08368880301713943,
		0.2841293513774872,
		0.38828104734420776,
		0.03720295429229736,
		-0.2225891649723053,
		-0.23321828246116638,
		-0.11600010842084885,
		-0.12442570179700851,
		-0.39611610770225525,
		-0.15989862382411957,
		0.3746073842048645,
		-0.48281562328338623,
		0.17882412672042847,
		0.13784363865852356,
		-0.026827219873666763,
