{
	"settings": {
		"name": "PGPendulum",
		"weightDecay": 9.999999974752427E-7,
		"stepWeights": 3.3000000985339284E-4,
		"stepBiases": 3.3000000985339284E-4,
		"lossFunction": "NoLoss",
		"size": [
			2.0,
			32.0,
			64.0,
			32.0,
			16.0,
			16.0,
			2.0
		]
	},
	"activators": [
		"Linear",
		"Swish",
		"Tanh",
		"Swish",
		"Tanh",
		"SoftMax"
	],
	"weights": [
		0.2829437255859375,
		-0.02705981396138668,
		0.12279082834720612,
		0.36368808150291443,
		0.41122832894325256,
		-0.060593899339437485,
		0.16061154007911682,
		0.17715486884117126,
		0.43730878829956055,
		-0.26594460010528564,
		-0.3134908378124237,
		0.06229818984866142,
		-0.3675795793533325,
		0.296976774930954,
		0.4277748167514801,
		0.06196150556206703,
		-0.2985169589519501,
		0.359375923871994,
		0.36485692858695984,
		-0.1282234638929367,
		0.017998525872826576,
		0.1469164788722992,
		0.09041137248277664,
		-0.26617851853370667,
		0.3942386209964752,
		-0.44167226552963257,
		-0.22575581073760986,
		-0.02189316600561142,
		0.30742016434669495,
		-0.24167878925800323,
		0.19827476143836975,
		0.0837407335639,
		-0.2600880563259125,
		0.3073351979255676,
		0.23013129830360413,
		0.13227471709251404,
		-0.3883589804172516,
		0.4553983509540558,
		0.07542116194963455,
		0.44187599420547485,
		0.13040195405483246,
		0.08295442909002304,
		-0.030217083171010017,
		-0.03703879565000534,
		-0.34922683238983154,
		-0.4092254340648651,
		-0.35990479588508606,
		-0.24582481384277344,
		0.23743782937526703,
		-0.44622519612312317,
		0.18696226179599762,
		-0.09186717867851257,
		-0.09550624340772629,
		0.23304715752601624,
		-0.21201887726783752,
		-0.395192950963974,
		0.28230804204940796,
		-0.09310751408338547,
		-0.2780623435974121,
		0.26230236887931824,
		-0.04312516003847122,
		0.3336290121078491,
		0.1210455447435379,
		0.3165854513645172,
		0.2903103232383728,
		0.15106530487537384,
		-0.41197338700294495,
		-0.2887534499168396,
		-0.1681859940290451,
		0.1501491814851761,
		-0.06798332184553146,
		-0.1873152256011963,
		-0.41702067852020264,
		-0.4130411744117737,
		-0.3393232226371765,
		0.4216372072696686,
		0.2927889823913574,
		0.4308807849884033,
		0.35596635937690735,
		-0.30853328108787537,
		-0.4239000082015991,
		-0.0809662938117981,
		0.1396639496088028,
		-0.365451455116272,
		-0.1676650494337082,
		-0.38777658343315125,
		0.38564521074295044,
		0.4007601737976074,
		0.349730521440506,
		-0.1086079552769661,
		-0.3172340989112854,
		-0.10115806013345718,
		-0.10734488815069199,
		0.35064074397087097,
		-0.2960919439792633,
		0.44061025977134705,
		-0.08501534909009933,
		0.1720232516527176,
		-0.37001949548721313,
		0.12036619335412979,
		0.0031830950174480677,
		0.38084688782691956,
		-0.3445609509944916,
		0.16468384861946106,
		-0.15468071401119232,
		-0.02986854873597622,
		0.2885444760322571,
		0.01621706411242485,
		0.3027918338775635,
		0.34903445839881897,
		0.277119904756546,
		0.05172117426991463,
		0.2225448042154312,
		-0.08149508386850357,
		0.07441660016775131,
		-0.25512123107910156,
		-0.03237427771091461,
		0.4224458336830139,
		-0.25115373730659485,
		-0.06535591185092926,
		-0.1239890456199646,
		-0.4521893858909607,
		0.3319787383079529,
		0.4209515452384949,
		0.35239890217781067,
		-0.36217933893203735,
		0.10529282689094543,
		0.452205628156662,
		-0.10249917954206467,
		-0.22254231572151184,
		-0.2554393410682678,
		-0.4185330271720886,
		4.970966256223619E-4,
		0.3280893862247467,
		-0.4031370282173157,
		8.045781287364662E-4,
		0.43910330533981323,
		0.12080994993448257,
		-0.1542031466960907,
		-0.3788386285305023,
		-0.09950616955757141,
		0.1396695375442505,
		-0.3076059818267822,
		-0.16322049498558044,
		0.16398689150810242,
		-0.3388204872608185,
		-0.38897502422332764,
		0.0228884294629097,
		0.21945342421531677,
		-0.03829079866409302,
		0.27490970492362976,
		0.13122574985027313,
		-0.24294735491275787,
		0.15078966319561005,
		0.192391037940979,
		0.054717227816581726,
		0.05488510802388191,
		-0.20744001865386963,
		-0.36603596806526184,
		0.07953304797410965,
		0.17436516284942627,
		-0.2078637331724167,
		0.04928163066506386,
		-0.37198540568351746,
		0.12161700427532196,
		0.38541868329048157,
		-0.3127329647541046,
		-0.09172656387090683,
		0.23535890877246857,
		0.1974238008260727,
		0.1725919097661972,
		-0.08343968540430069,
		0.3183308243751526,
		-0.4393079876899719,
		-0.2254941612482071,
		0.10827384889125824,
		0.18134810030460358,
		0.046782758086919785,
		0.11248434334993362,
		0.09592180699110031,
		-0.16526727378368378,
		-0.33880189061164856,
		-0.042159553617239,
		-0.1626218557357788,
		-0.15058737993240356,
		0.22799231112003326,
		0.39988812804222107,
		-0.4546564519405365,
		0.40941154956817627,
		-0.006273292470723391,
		0.3639500141143799,
		0.3045705556869507,
		0.3826354444026947,
		-0.1040857806801796,
		-0.17166906595230103,
		-0.4051191210746765,
		-0.11360976099967957,
		0.3083993196487427,
		-0.2696431577205658,
		0.03817897289991379,
		0.3837684094905853,
		-0.42464688420295715,
		-0.013332772068679333,
		0.035807184875011444,
		-0.0779489129781723,
		-0.35902515053749084,
		0.1967703104019165,
		0.156829833984375,
		0.4536401927471161,
		0.3186017572879791,
		-0.4078426659107208,
		0.42039546370506287,
		-0.043790288269519806,
		-0.2978937327861786,
		0.08541733026504517,
		-0.29211029410362244,
		0.19223660230636597,
		0.00407450832426548,
		-0.32967543601989746,
		0.006686581298708916,
		-0.07361902296543121,
		0.3357369899749756,
		0.3957013189792633,
		-0.35130321979522705,
		0.2238513082265854,
		-0.06551189720630646,
		-0.14984425902366638,
		0.4510820508003235,
		-0.20627711713314056,
		0.3275209069252014,
		-0.07690420746803284,
		-0.3632201552391052,
		0.1717437505722046,
		-0.41650158166885376,
		-0.01034444198012352,
		0.08723422884941101,
		-0.32724887132644653,
		-0.25246432423591614,
		-0.2894113063812256,
		0.28031638264656067,
		0.12571440637111664,
		0.3983769118785858,
		-0.29764115810394287,
		-0.15342974662780762,
		0.02635248191654682,
		0.24213005602359772,
		0.40640556812286377,
		0.02688737027347088,
		-0.2852534055709839,
		-0.30824828147888184,
		0.4298945367336273,
		0.08980730175971985,
		-0.20548132061958313,
		-0.07901135832071304,
		0.016833320260047913,
		-0.2013629823923111,
		0.056569598615169525,
		-0.36414918303489685,
		0.35263803601264954,
		-0.2560661733150482,
		-0.33360081911087036,
		-0.24780599772930145,
		-0.21868930757045746,
		0.4501914381980896,
		0.41279932856559753,
		0.08895275741815567,
		-0.0014159547863528132,
		0.2581357955932617,
		-0.2968263030052185,
		0.3489325940608978,
		-0.3147498369216919,
		0.23221544921398163,
		-0.1647292524576187,
		-0.19353441894054413,
		0.1869412660598755,
		-0.20770946145057678,
		-0.11050582677125931,
		0.1355208307504654,
		-0.007683239411562681,
		-0.3308860957622528,
		-0.26337024569511414,
		-0.1643548309803009,
		-0.3182506561279297,
		-0.24358901381492615,
		-0.3412841558456421,
		-0.2623329162597656,
		-0.11422310024499893,
		-0.3890630900859833,
		-0.10728703439235687,
		0.3770439028739929,
		0.16761675477027893,
		0.4447578489780426,
		-0.0468052439391613,
		0.36102259159088135,
		0.027899641543626785,
		0.33027371764183044,
		-0.23750799894332886,
		-0.04988187924027443,
		-0.04940145090222359,
		0.14539992809295654,
		-0.23304791748523712,
		-0.37237197160720825,
		-0.3277451694011688,
		-0.2780907452106476,
		-0.08644663542509079,
		0.45231837034225464,
		-0.05638042837381363,
		0.44195762276649475,
		0.298345685005188,
		0.4335094392299652,
		0.15100151300430298,
		-0.1530754417181015,
		0.39993831515312195,
		0.059336092323064804,
		0.1495232731103897,
		-0.2766680419445038,
		0.005798251833766699,
		0.296600341796875,
		0.35758766531944275,
		0.28436583280563354,
		0.44521358609199524,
		-0.11294563114643097,
		-0.27975380420684814,
		-0.032384417951107025,
		-0.3850090503692627,
		-0.004398322198539972,
		0.15083755552768707,
		-0.17035561800003052,
		0.3813040554523468,
		0.4384898245334625,
		0.22430047392845154,
		0.1392400860786438,
		-0.08496574312448502,
		0.34406420588493347,
		-0.421120822429657,
		0.0508967861533165,
		-0.2765347957611084,
		-0.36978527903556824,
		0.13633941113948822,
		-0.09479740262031555,
		0.0018721878295764327,
		-0.0820416659116745,
		0.2759750485420227,
		-0.11923766881227493,
		0.06555383652448654,
		-0.13593310117721558,
		-0.22395364940166473,
		0.22795800864696503,
		0.222892165184021,
		0.4065071642398834,
		0.12394477427005768,
		-0.18204912543296814,
		-0.1538911610841751,
		-0.06174534931778908,
		-0.3022378087043762,
		0.384549617767334,
		-0.29137852787971497,
		0.05117400363087654,
		-0.16428537666797638,
		-0.09004262089729309,
		0.154024139046669,
		-0.23067203164100647,
		0.3660169839859009,
		0.29800087213516235,
		-0.4196828603744507,
		-0.38653409481048584,
		0.24443240463733673,
		-0.3975759446620941,
		-0.03963260352611542,
		-0.3544520437717438,
		0.24410033226013184,
		-0.011285579763352871,
		0.3541938066482544,
		-0.029628053307533264,
		0.3043680191040039,
		-0.4218139946460724,
		0.40426579117774963,
		-0.34557703137397766,
		-0.32217937707901,
		0.014942229725420475,
		-0.3850713074207306,
		-0.17495954036712646,
		-0.35964053869247437,
		-0.44834664463996887,
		-0.29196155071258545,
		-0.3179868161678314,
		-0.05262206494808197,
		-0.27813005447387695,
		-0.09589030593633652,
		0.43596938252449036,
		-0.28575363755226135,
		-0.12211453914642334,
		-0.28341227769851685,
		-0.28919509053230286,
		-0.13279704749584198,
		0.3632364273071289,
		-0.3798666000366211,
		-0.1281685084104538,
		-0.3085840046405792,
		-0.4213801622390747,
		-0.2873626947402954,
		0.3558250665664673,
		-0.19179107248783112,
		0.34113073348999023,
		0.12335462123155594,
		-0.35448622703552246,
		-0.24387434124946594,
		0.01948527991771698,
		-0.13054537773132324,
		0.17015144228935242,
		-0.4328082501888275,
		0.11148801445960999,
		-0.4350915849208832,
		0.3128001093864441,
		0.2211933732032776,
		-0.00721441674977541,
		-0.4371904134750366,
		0.1505548655986786,
		0.42329245805740356,
		-0.10460689663887024,
		-0.21021312475204468,
		0.22747400403022766,
		-0.39366859197616577,
		0.10460681468248367,
		-0.31162604689598083,
		-0.33831068873405457,
		0.08009856939315796,
		0.0030246104579418898,
		0.032007403671741486,
		0.018505915999412537,
		-0.37707942724227905,
		-0.05478745698928833,
		0.1293771117925644,
		0.13691861927509308,
		0.4015890955924988,
		0.12158557772636414,
		-0.35467422008514404,
		0.08799190074205399,
		-0.26558032631874084,
		0.010866617783904076,
		0.1554173231124878,
		0.3225153982639313,
		-0.21757321059703827,
		-0.37214046716690063,
		0.44953837990760803,
		-0.3754024803638458,
		-0.28169864416122437,
		-0.3932381272315979,
		-0.26750633120536804,
		-0.12943953275680542,
		-0.3707174062728882,
		0.2881227731704712,
		0.4036705195903778,
		0.37985968589782715,
		-0.27601829171180725,
		0.4200359284877777,
		-0.04697343334555626,
		0.06766078621149063,
		-0.017679652199149132,
		0.19472357630729675,
		-0.2804393768310547,
		-0.4524502158164978,
		0.3082588315010071,
		0.1567981094121933,
		0.11269813030958176,
		-0.18280364573001862,
		-0.3686191737651825,
		-0.10524588823318481,
		-0.2667350769042969,
		0.05995117500424385,
		-0.309069961309433,
		0.05929098278284073,
		0.12435726076364517,
		-0.18525062501430511,
		-0.09921755641698837,
		-0.012669059447944164,
		-0.30233362317085266,
		0.31117185950279236,
		0.27825427055358887,
		0.2156008929014206,
		-0.12977148592472076,
		-0.17904311418533325,
		-0.3336166739463806,
		-0.24126780033111572,
		-0.38685330748558044,
		0.27686330676078796,
		0.28106093406677246,
		-0.3587430417537689,
		0.08038308471441269,
		-0.30944928526878357,
		0.37169820070266724,
		0.27661630511283875,
		0.13230612874031067,
		0.1717587411403656,
		0.24652372300624847,
		0.11271138489246368,
		0.44301092624664307,
		0.45478585362434387,
		-0.055400971323251724,
		0.10642874240875244,
		-0.0930619165301323,
		-0.09735933691263199,
		-0.12154636532068253,
		0.1949063390493393,
		-0.012001855298876762,
		0.16897153854370117,
		0.31211528182029724,
		0.2708398997783661,
		0.10049913823604584,
		-0.3906956911087036,
		-0.08246416598558426,
		-0.13596396148204803,
		-0.4474152624607086,
		0.4141562283039093,
		-0.3360293209552765,
		-0.21122661232948303,
		-0.4282395541667938,
		-0.01519445888698101,
		0.4189637005329132,
		-0.10951042175292969,
		-0.025285419076681137,
		0.3924053907394409,
		0.08644022792577744,
		-0.21224525570869446,
		0.018270891159772873,
		0.3843230903148651,
		-0.29130467772483826,
		0.4282788932323456,
		-0.07459087669849396,
		0.4351513385772705,
		0.3506723642349243,
		-0.2094862461090088,
		-0.4181138575077057,
		0.2543872594833374,
		0.3926016390323639,
		-0.15754897892475128,
		0.24564597010612488,
		-0.39937442541122437,
		0.37648406624794006,
		0.07960382103919983,
		0.12098883837461472,
		-0.3893589675426483,
		-0.1773722618818283,
		-0.4157290458679199,
		0.010451249778270721,
		-0.38378700613975525,
		0.3709220886230469,
		-0.34055233001708984,
		-0.18193349242210388,
		-0.0047648074105381966,
		0.09384975582361221,
		0.19980645179748535,
		-0.15976382791996002,
		0.30150943994522095,
		-0.25672242045402527,
		-0.3797788619995117,
		0.4309024214744568,
		0.27145400643348694,
		-0.05522884801030159,
		0.200497567653656,
		-0.028140684589743614,
		0.08386842161417007,
		0.2150956392288208,
		0.05769900232553482,
		0.3997657299041748,
		0.08610787987709045,
		0.44051939249038696,
		-0.2536904215812683,
		-0.056228503584861755,
		-0.03260181099176407,
		0.4535360038280487,
		-0.10753302276134491,
		-0.07291246950626373,
		0.3414771854877472,
		0.029140908271074295,
		0.36516791582107544,
		-0.29216352105140686,
		0.4130621552467346,
		-0.1353866159915924,
		0.051094841212034225,
		-0.2776874601840973,
		0.28737568855285645,
		0.37033915519714355,
		0.3729785978794098,
		0.3741782605648041,
		-0.03480184078216553,
		0.23736460506916046,
		-0.24175114929676056,
		-0.061943430453538895,
		0.17674535512924194,
		-0.10902849584817886,
		-0.443381667137146,
		0.2917914092540741,
		0.13152311742305756,
		-0.3606884479522705,
		-0.38939693570137024,
		-0.3299318850040436,
		0.43499255180358887,
		-0.34358978271484375,
		-0.43618443608283997,
		-0.2871338427066803,
		0.2784070074558258,
		-0.39545050263404846,
		-0.17234666645526886,
		0.3580894470214844,
		0.3615027666091919,
		-0.11484652757644653,
		0.3450685739517212,
		0.17523616552352905,
		0.2687093913555145,
		0.42181649804115295,
		-0.41383492946624756,
		0.2423943132162094,
		-0.3842279314994812,
		0.2961774468421936,
		-0.3956824839115143,
		0.4535549581050873,
		-0.3836328685283661,
		-0.3548121750354767,
		-0.026982886716723442,
		0.08325240015983582,
		-0.41067418456077576,
		0.39177265763282776,
		-0.3002155125141144,
		0.282518208026886,
		0.4031805396080017,
		0.06649196147918701,
		-0.39816346764564514,
		0.4472077488899231,
		0.15958644449710846,
		-0.3500581681728363,
		0.24376969039440155,
		-0.42747360467910767,
		0.453151673078537,
		-0.1006196141242981,
		0.45534127950668335,
		0.29955926537513733,
		0.324690043926239,
		-0.34602877497673035,
		0.44052278995513916,
		0.22067461907863617,
		-0.04053119942545891,
		0.12549223005771637,
		-0.1999111771583557,
		0.4474557936191559,
		-0.4145408868789673,
		0.3842880427837372,
		-0.11738333106040955,
		-0.3929244875907898,
		0.31422683596611023,
		0.3804352283477783,
		-0.15671680867671967,
		0.14020998775959015,
		-0.09079867601394653,
		0.44817230105400085,
		0.44422879815101624,
		-0.2651403248310089,
		-0.3507729768753052,
		-0.354070782661438,
		-0.3977055847644806,
		-0.04001707211136818,
		0.12880784273147583,
		0.3103334307670593,
		0.2561744153499603,
		-0.30920177698135376,
		-0.15811651945114136,
		0.01831398531794548,
		0.19340476393699646,
		-0.24637046456336975,
		0.38989168405532837,
		-0.3887293338775635,
		0.1722548007965088,
		0.39533647894859314,
		-0.1301393359899521,
		0.1924477219581604,
		0.312521755695343,
		-0.27306222915649414,
		-0.16161535680294037,
		-0.055683333426713943,
		-0.4010584354400635,
		-0.19739648699760437,
		-0.15741506218910217,
		0.17462174594402313,
		-0.09514428675174713,
		0.2957567274570465,
		0.145807147026062,
		0.07443863898515701,
		-0.1961074024438858,
		-0.23233862221240997,
		0.15955951809883118,
		-0.23441298305988312,
		0.182272270321846,
		0.14487725496292114,
		0.34531641006469727,
		-0.014522606506943703,
		0.24423278868198395,
		-0.44548290967941284,
		-0.3814721703529358,
		0.014929842203855515,
		0.21916106343269348,
		0.39972010254859924,
		-0.3217064440250397,
		0.28145527839660645,
		0.10374459624290466,
		0.3964419662952423,
		0.16543038189411163,
		-0.23146647214889526,
		-0.3004528284072876,
		0.2392728179693222,
		-0.15166249871253967,
		0.1101640835404396,
		0.14040495455265045,
		0.1723916083574295,
		-0.22454965114593506,
		-0.31027087569236755,
		0.3010757267475128,
		-0.40725192427635193,
		0.13829316198825836,
		-0.26389914751052856,
		0.18946321308612823,
		0.3411800265312195,
		-0.1531694531440735,
		-0.041270773857831955,
		0.24811409413814545,
		0.17625536024570465,
		0.032902106642723083,
		0.44596347212791443,
		-0.28473013639450073,
		0.09814532101154327,
		-0.06561699509620667,
		-0.07084330171346664,
		-0.4120503067970276,
		0.010376403108239174,
		-0.39111968874931335,
		0.164813831448555,
		-0.05439720302820206,
		0.34146857261657715,
		0.28004175424575806,
		0.0669066309928894,
		0.23488865792751312,
		-0.4438755214214325,
		0.033837806433439255,
		-0.19779646396636963,
		-0.04711538925766945,
		0.1684202402830124,
		0.00888432189822197,
		0.3324221670627594,
		-0.3420788049697876,
		-0.4295533299446106,
		0.3572608530521393,
		0.01657330058515072,
		0.24670074880123138,
		-0.17264001071453094,
		0.051630135625600815,
		0.33674007654190063,
		0.07722533494234085,
		0.16352473199367523,
		-0.22757495939731598,
		0.2277969866991043,
		0.3233855664730072,
		-0.3192753493785858,
		0.031838927417993546,
		0.45015206933021545,
		-0.3089863657951355,
		-0.15450908243656158,
		0.16679798066616058,
		0.07751473039388657,
		-0.3736805319786072,
		0.44896841049194336,
		-0.4551317095756531,
		-0.3796112537384033,
		0.10279736667871475,
		-0.061022888869047165,
		0.36272767186164856,
		0.12226995080709457,
		-0.23183336853981018,
		0.21073786914348602,
		-0.09884480386972427,
		-0.43746063113212585,
		-0.34354203939437866,
		-0.07251542806625366,
		0.1100759208202362,
		-0.3124173879623413,
		-0.31186535954475403,
		0.2692091763019562,
		-0.09654698520898819,
		-0.3144034743309021,
		0.020786570385098457,
		-0.3933880627155304,
		0.22152823209762573,
		0.05346565693616867,
		0.2782372832298279,
		0.31882715225219727,
		0.41055071353912354,
		0.1616899073123932,
		-0.17422892153263092,
		0.4337863028049469,
		0.046480655670166016,
		0.4238533675670624,
		-0.3235703408718109,
		0.035572607070207596,
		-0.13558325171470642,
		-0.2146579772233963,
		0.41708701848983765,
		-0.38110804557800293,
		0.09629681706428528,
		-0.13747994601726532,
		-0.14444799721240997,
		-0.16969873011112213,
		-0.3593757152557373,
		0.10196825116872787,
		-0.19275018572807312,
		-0.11521529406309128,
		-0.3775620460510254,
		0.38928258419036865,
		-0.2115819752216339,
		0.11368443816900253,
		0.024852421134710312,
		0.1749107837677002,
		0.35071200132369995,
		-0.27455857396125793,
		0.15025357902050018,
		0.2744932174682617,
		-0.08649778366088867,
		-0.4383193850517273,
		-0.24791213870048523,
		0.3065152168273926,
		0.2891714870929718,
		0.3124910295009613,
		-0.24118196964263916,
		-0.39028170704841614,
		0.020109152421355247,
		0.3869134485721588,
		0.4222920835018158,
		0.4489443004131317,
		-0.28716954588890076,
		-0.20173519849777222,
		-0.41451746225357056,
		0.35285642743110657,
		0.23818083107471466,
		-0.31537312269210815,
		0.019715895876288414,
		0.22828765213489532,
		-0.2557598948478699,
		-0.2276417315006256,
		-0.3890839219093323,
		-0.31267425417900085,
		-0.4422883987426758,
		-0.07001683115959167,
		0.0822567418217659,
		0.44468769431114197,
		0.4189164936542511,
		-0.36332303285598755,
		0.17330080270767212,
		0.3682144284248352,
		0.19115115702152252,
		-0.08629196882247925,
		0.27476435899734497,
		-0.24641624093055725,
		0.22660669684410095,
		-0.44720542430877686,
		0.40390685200691223,
		-0.0251813642680645,
		-0.09635546803474426,
		-0.3482116162776947,
		-0.09819738566875458,
		-0.3893832564353943,
		-0.3984805643558502,
		0.027973083779215813,
		-0.44041821360588074,
		-0.39592286944389343,
		0.22344885766506195,
		0.15645775198936462,
		-0.3002258241176605,
		-0.20541401207447052,
		-0.07658159732818604,
		0.11285944283008575,
		0.17419223487377167,
		-0.14481332898139954,
		0.3419310748577118,
		0.15271781384944916,
		0.21126458048820496,
		-0.14365345239639282,
		-0.1313338577747345,
		0.05115703493356705,
		0.32955339550971985,
		-0.42746755480766296,
		-0.3871006667613983,
		0.2537417709827423,
		-0.3521882891654968,
		0.2164064645767212,
		0.26869457960128784,
		-0.13209329545497894,
		-0.054039277136325836,
		0.2808723747730255,
		-0.12298987060785294,
		-0.18391481041908264,
		-0.15169134736061096,
		-0.4288715720176697,
		-0.2865484356880188,
		0.19660714268684387,
		-0.269377738237381,
		0.3463630676269531,
		-0.017937518656253815,
		0.1793428212404251,
		-0.001295039663091302,
		0.09343571960926056,
		-0.185769721865654,
		0.02026970498263836,
		-0.0909380316734314,
		-0.4362696707248688,
		-0.2876787781715393,
		-0.034530315548181534,
		-0.06462930887937546,
		0.2394775152206421,
		0.07480788230895996,
		-0.09472429752349854,
		-0.2875470519065857,
		-0.4307592511177063,
		-0.4377778470516205,
		0.24395979940891266,
		0.4457753002643585,
		-0.14386975765228271,
		-0.07532984018325806,
		0.3910776674747467,
		-0.26846110820770264,
		0.27758684754371643,
		0.3548763394355774,
		0.22871564328670502,
		0.056221574544906616,
		-0.3249324560165405,
		0.16592955589294434,
		0.010876741260290146,
		0.3613838851451874,
		0.0697641521692276,
		-0.3728204369544983,
		-0.06292427331209183,
		-0.12184257060289383,
		0.3055005669593811,
		-0.033410582691431046,
		0.38315847516059875,
		-0.18441693484783173,
		0.38410571217536926,
		0.16960904002189636,
		0.05699601769447327,
		0.04641621559858322,
		-0.3375735580921173,
		0.3407747447490692,
		-0.39673465490341187,
		-0.024625258520245552,
		0.10858868062496185,
		-0.1539001762866974,
		0.4117739498615265,
		-0.21740436553955078,
		-0.13457387685775757,
		-0.23632319271564484,
		0.06157269701361656,
		0.30645930767059326,
		0.027052434161305428,
		0.40893054008483887,
		-0.4369771480560303,
		-0.3480483889579773,
		0.2246229350566864,
		-0.3045615255832672,
		-0.3839998245239258,
		0.4148266315460205,
		0.4299877882003784,
		0.33754417300224304,
		0.1460455358028412,
		0.27301573753356934,
		-0.35666903853416443,
		-0.25288593769073486,
		-0.015105503611266613,
		0.13482441008090973,
		-0.15495362877845764,
		-0.15531401336193085,
		0.13726688921451569,
		0.1560218185186386,
		0.09871987998485565,
		-0.20497220754623413,
		-0.0730287954211235,
		-0.052152637392282486,
		0.3258295953273773,
		-0.0640895888209343,
		-0.28343668580055237,
		0.1370338797569275,
		0.3482472598552704,
		0.1743692010641098,
		0.23991970717906952,
		0.19089901447296143,
		0.3664827346801758,
		0.43020057678222656,
		-0.17545582354068756,
		0.2278706431388855,
		0.23422259092330933,
		0.40290889143943787,
		0.44475480914115906,
		-0.42260318994522095,
		-0.4325730502605438,
		0.2440507709980011,
		-0.2588562071323395,
		0.44882914423942566,
		-0.2758273780345917,
		-0.13952362537384033,
		0.05536671727895737,
		0.15152421593666077,
		0.21498948335647583,
		-0.1665181815624237,
		0.32670632004737854,
		0.12053379416465759,
		-0.1651563048362732,
		0.42408233880996704,
		0.26594865322113037,
		-0.4032860994338989,
		0.28722459077835083,
		0.4354190528392792,
		-0.263070672750473,
		0.35173025727272034,
		0.07127320021390915,
		0.3583095967769623,
		0.2586129903793335,
		0.3523580729961395,
		-0.04449119418859482,
		-0.44641992449760437,
		-0.3474844694137573,
		0.09030860662460327,
		-0.023659097030758858,
		-0.0361284501850605,
		-0.08855824917554855,
		-0.40103209018707275,
		0.14584772288799286,
		-0.3421838581562042,
		0.17148634791374207,
		0.05077943578362465,
		-0.12302245199680328,
		-0.3698350191116333,
		-0.0655001625418663,
		0.04548310488462448,
		0.1922401636838913,
		-0.0880315899848938,
		0.03891827538609505,
		-0.12809684872627258,
		-0.22975027561187744,
		0.3099097013473511,
		-0.19495335221290588,
		-0.3441312313079834,
		0.03011680580675602,
		0.2183299958705902,
		-0.0390799380838871,
		-0.378060907125473,
		0.08909565210342407,
		0.27787718176841736,
		-0.42288127541542053,
		-0.20844553411006927,
		-0.16005371510982513,
		-0.3120715618133545,
		-0.30340635776519775,
		-0.3292675316333771,
		0.1034100130200386,
		-0.4386010766029358,
		0.010276323184370995,
		0.39048856496810913,
		0.30439257621765137,
		0.14180046319961548,
		-0.10450834035873413,
		-0.438143253326416,
		-0.028895141556859016,
		-0.024207958951592445,
		0.2568884491920471,
		0.2374221384525299,
		-0.4165092706680298,
		-0.0538557805120945,
		-0.17346040904521942,
		0.3854324221611023,
		-0.0781622901558876,
		-0.14676149189472198,
		-0.1442107856273651,
		-0.33743780851364136,
		-0.25806084275245667,
		0.17532606422901154,
		-0.3109554052352905,
		-0.11054366827011108,
		0.3058885335922241,
		0.10510663688182831,
		0.17298507690429688,
		-0.4401625692844391,
		0.042964525520801544,
		-0.2502935528755188,
		0.01884196698665619,
		-0.12329135090112686,
		0.09183382242918015,
		0.19953441619873047,
		-0.26959219574928284,
		-0.0027974508702754974,
		0.3297079801559448,
		0.17262758314609528,
		0.044103506952524185,
		0.07582798600196838,
		-0.1732797920703888,
		0.23858948051929474,
		-0.01799301989376545,
		0.05288413166999817,
		-0.3441172242164612,
		-0.291827529668808,
		-0.19236737489700317,
		0.3202919065952301,
		-0.19599425792694092,
		0.02354961819946766,
		0.032011259347200394,
		-0.13392601907253265,
		0.16691824793815613,
		-0.10358971357345581,
		0.16459643840789795,
		0.260669082403183,
		-0.08934804052114487,
		-0.10749552398920059,
		0.0388110987842083,
		-0.28802746534347534,
		0.028330881148576736,
		0.14948365092277527,
		-0.4538438320159912,
		-0.2449398636817932,
		-0.3551574945449829,
		0.15393172204494476,
		-0.4489118754863739,
		0.26783913373947144,
		0.4424397945404053,
		0.1376877725124359,
		0.2838585674762726,
		-0.3486076295375824,
		-0.2368983030319214,
		-0.2078358381986618,
		0.03588344156742096,
		0.2547125518321991,
		0.06571292877197266,
		-0.16832610964775085,
		0.14446921646595,
		0.18010824918746948,
		-0.05539480969309807,
		-0.07569609582424164,
		0.12402813136577606,
		-0.2804020047187805,
		-0.40609171986579895,
		0.05034751072525978,
		-0.3605184555053711,
		-0.14514006674289703,
		-0.13666798174381256,
		0.3873765468597412,
		-0.32966166734695435,
		0.13284358382225037,
		0.3035842776298523,
		0.21647891402244568,
		0.307514488697052,
		-0.14556452631950378,
		0.32390040159225464,
		-0.05662352964282036,
		-0.2168288379907608,
		-0.009765243157744408,
		-0.27747252583503723,
		0.27146223187446594,
		0.37722861766815186,
		-0.07784228771924973,
		-0.44823992252349854,
		-0.12178969383239746,
		-0.11492768675088882,
		0.3405698835849762,
		-0.33337050676345825,
		0.2598111927509308,
		-0.07451258599758148,
		0.31822359561920166,
		-0.014703014865517616,
		0.05529475584626198,
		0.37805381417274475,
		0.24399308860301971,
		0.18930178880691528,
		0.43403103947639465,
		-0.39337682723999023,
		-0.028387360274791718,
		0.1395682394504547,
		0.42510169744491577,
		-0.33173060417175293,
		-0.23013527691364288,
		-0.3064359426498413,
		0.40524518489837646,
		0.052043549716472626,
		0.3484019637107849,
		0.11598751693964005,
		0.23704352974891663,
		0.050084955990314484,
		0.10541502386331558,
		-0.1789870709180832,
		-0.26924172043800354,
		0.14844033122062683,
		0.17247559130191803,
		0.3362744450569153,
		0.20516575872898102,
		-0.19040507078170776,
		-0.28780075907707214,
		0.2764122784137726,
		-0.16695454716682434,
		-0.07707914710044861,
		0.08539088070392609,
		-0.25697827339172363,
		0.333836168050766,
		0.1779654622077942,
		0.24292027950286865,
		-0.028359429910779,
		0.07354868948459625,
		0.3201466500759125,
		0.10233202576637268,
		-0.061027251183986664,
		0.02285490743815899,
		0.3899836242198944,
		-0.26231515407562256,
		0.1338156908750534,
		0.17537084221839905,
		-0.32474517822265625,
		0.29243770241737366,
		0.07964417338371277,
		-0.008665550500154495,
		-0.09146362543106079,
		0.03378592059016228,
		-0.21647252142429352,
		0.45494532585144043,
		-0.3241806924343109,
		-0.15483763813972473,
		0.3924863934516907,
		0.33184170722961426,
		-0.2414260059595108,
		-0.01881885901093483,
		-0.265206515789032,
		-0.24770411849021912,
		0.10785336792469025,
		-0.06212776154279709,
		-0.41065531969070435,
		0.166763037443161,
		-0.3074240982532501,
		0.03253892809152603,
		-0.40089479088783264,
		0.2867189645767212,
		0.1928548663854599,
		-0.35910120606422424,
		-0.05810985714197159,
		0.04963953420519829,
		0.005583984777331352,
		0.2732037901878357,
		-0.15764789283275604,
		-0.2563166916370392,
		-0.06147240847349167,
		-0.15165190398693085,
		0.2779518663883209,
		0.27805355191230774,
		-0.3036734163761139,
		-0.301617830991745,
		0.21620267629623413,
		0.31751301884651184,
		-0.2864818274974823,
		0.36486801505088806,
		0.23677803575992584,
		0.36380594968795776,
		0.2520071268081665,
		0.21447980403900146,
		-0.22665460407733917,
		-0.026565181091427803,
		0.12865909934043884,
		0.12790241837501526,
		0.14372818171977997,
		-0.3376431167125702,
		-0.07400721311569214,
		-0.0674930140376091,
		0.2691505253314972,
		-0.22924594581127167,
		-0.024230636656284332,
		-0.17815424501895905,
		0.2392514944076538,
		0.3071998655796051,
		0.0763172060251236,
		-0.262897789478302,
		0.39179688692092896,
		0.24242113530635834,
		0.2364947348833084,
		3.1367241172119975E-4,
		-0.4110570251941681,
		0.1451532244682312,
		-0.21385572850704193,
		-0.04686132073402405,
		0.3897678256034851,
		0.17471300065517426,
		-0.394275039434433,
		-0.10136166960000992,
		-0.2410254031419754,
		0.05831584334373474,
		-0.12636573612689972,
		-0.30160045623779297,
		0.4403296113014221,
		0.394385427236557,
		0.01616750657558441,
		-0.3773233890533447,
		0.373725563287735,
		0.15739057958126068,
		0.26168400049209595,
		-0.10065282881259918,
		0.024838902056217194,
		-0.056604743003845215,
		-0.12382883578538895,
		0.4162482023239136,
		0.3132874369621277,
		-0.34209758043289185,
		0.4196149706840515,
		0.2277115285396576,
		0.336738646030426,
		-0.45209184288978577,
		0.3315359652042389,
		-0.2357485145330429,
		0.29837140440940857,
		-0.01006115972995758,
		0.0657729059457779,
		-0.4072173833847046,
		0.12567298114299774,
		0.20828872919082642,
		-0.014138194732367992,
		0.19233006238937378,
		0.13296116888523102,
		-0.021146513521671295,
		0.27227914333343506,
		0.0179019533097744,
		0.22288118302822113,
		0.44011804461479187,
		0.20700371265411377,
		-0.19198597967624664,
		-0.43074169754981995,
		0.4166066646575928,
		-0.11975617706775665,
		0.294177770614624,
		0.3129062354564667,
		-0.42418599128723145,
		-0.3647640645503998,
		0.3021901249885559,
		0.1524534374475479,
		0.027547629550099373,
		-0.3269951343536377,
		-0.2515384256839752,
		0.007564509753137827,
		0.18202072381973267,
		-0.42624005675315857,
		0.004140945617109537,
		0.16080911457538605,
		-0.30407479405403137,
		-0.3519262671470642,
		-0.11695682257413864,
		0.09129869937896729,
		0.1385803520679474,
		0.2361079454421997,
		-0.03660963103175163,
		-0.41149115562438965,
		0.1422184407711029,
		-0.4494132101535797,
		0.07358462363481522,
		0.04305686056613922,
		-0.2101743370294571,
		-0.0304421354085207,
		0.2166072428226471,
		0.4532468616962433,
		0.34890735149383545,
		0.3166963458061218,
		0.14674365520477295,
		0.010815904475748539,
		-0.3234366774559021,
		-0.25126364827156067,
		0.08783584088087082,
		-0.22087547183036804,
		-0.30090922117233276,
		-0.26806893944740295,
		0.0979086384177208,
		0.15064020454883575,
		0.13213251531124115,
		0.0030487310141324997,
		0.18894106149673462,
		0.18429315090179443,
		-0.2703666388988495,
		0.45288559794425964,
		0.20255102217197418,
		-0.4162474274635315,
		-0.3318658471107483,
		-0.1794910430908203,
		0.3709104061126709,
		0.33537861704826355,
		-0.19352854788303375,
		-0.45052409172058105,
		0.440437376499176,
		0.18908365070819855,
		0.2451782077550888,
		-0.2941962480545044,
		-0.047108281403779984,
		-0.23526568710803986,
		0.3979858160018921,
		0.04345186799764633,
		0.2040695697069168,
		-0.29299113154411316,
		0.4040309488773346,
		0.17679712176322937,
		0.4012351334095001,
		-0.08861227333545685,
		-0.40654003620147705,
		0.38787582516670227,
		0.40648743510246277,
		-0.11414274573326111,
		0.29719021916389465,
		-0.3511660695075989,
		-0.07161722332239151,
		-0.11835993081331253,
		-0.2683650255203247,
		0.08050115406513214,
		0.2956297695636749,
		0.015136847272515297,
		0.062386415898799896,
		-0.1572454422712326,
		-0.22439908981323242,
		0.22640495002269745,
		0.2208288460969925,
		-0.31023746728897095,
		-0.24912676215171814,
		0.20954763889312744,
		-0.3784880042076111,
		-0.1659885048866272,
		0.25789281725883484,
		0.026113826781511307,
		0.2458488494157791,
		0.21607404947280884,
		-0.17347972095012665,
		-0.17054784297943115,
		0.026239776983857155,
		0.19708016514778137,
		0.4117680788040161,
		0.11879979819059372,
		-0.2467276155948639,
		-0.3364245891571045,
		0.012913685292005539,
		0.36040642857551575,
		0.3167937994003296,
		-0.27115511894226074,
		-0.16992811858654022,
		0.03974110633134842,
		0.06999339163303375,
		0.4065151512622833,
		0.015025590546429157,
		0.41811785101890564,
		-0.42059749364852905,
		0.27951768040657043,
		-0.33575642108917236,
		0.1447237879037857,
		0.3097609281539917,
		0.15604965388774872,
		0.4209614396095276,
		-0.05315475910902023,
		0.4473797082901001,
		-0.10074785351753235,
		0.00892610289156437,
		-0.32761338353157043,
		-0.43048161268234253,
		-0.2879481315612793,
		-0.4192914664745331,
		-0.08767655491828918,
		-0.4208465814590454,
		0.3060067892074585,
		0.22169506549835205,
		-0.05695183202624321,
		-0.3018987476825714,
		-0.15297891199588776,
		-0.2527216374874115,
		0.4269053041934967,
		0.09591779112815857,
		0.2284904271364212,
		-0.15239624679088593,
		0.2520850598812103,
		-0.024711569771170616,
		1.0438507160870358E-4,
		0.2071867734193802,
		-0.43727630376815796,
		0.06461285799741745,
		0.17321552336215973,
		-0.13321183621883392,
		-0.2341422587633133,
		-0.11936687678098679,
		-0.1601773053407669,
		0.02200549654662609,
		-0.11281701922416687,
		-0.241893470287323,
		-0.2650213837623596,
		-0.34733739495277405,
		-0.19387435913085938,
		-0.06658998131752014,
		0.4221096634864807,
		0.4149085283279419,
		-0.08477594703435898,
		-0.4503771662712097,
		-0.2086607962846756,
		-0.1563245952129364,
		0.24190491437911987,
		-0.0757247805595398,
		0.0776330903172493,
		-0.2043216973543167,
		-0.1565302014350891,
		-0.26576897501945496,
		0.2658486068248749,
		-0.31905221939086914,
		0.3205723464488983,
		-0.4503593146800995,
		0.4406479597091675,
		0.17689335346221924,
		0.12363102287054062,
		0.10139671713113785,
		-0.12502865493297577,
		0.3791729509830475,
		-0.0701659694314003,
		0.319582998752594,
		-0.02124907821416855,
		0.19488830864429474,
		-0.08489096909761429,
		0.07329241186380386,
		-0.05824806168675423,
		-0.10578453540802002,
		0.24746602773666382,
		-0.37537306547164917,
		0.009274175390601158,
		0.3256889879703522,
		-0.05455145239830017,
		0.4310629665851593,
		0.002325346926227212,
		0.2260173261165619,
		0.21097411215305328,
		-0.020527247339487076,
		0.10081185400485992,
		-0.38440975546836853,
		-0.03801773115992546,
		-0.31565019488334656,
		-0.40686607360839844,
		0.3147658109664917,
		0.064509816467762,
		0.18064133822917938,
		0.10142750293016434,
		-0.06032063439488411,
		0.3130204677581787,
		0.23858477175235748,
		-0.12903565168380737,
		-0.23035262525081635,
		-0.22543704509735107,
		0.05228962376713753,
		-0.17883692681789398,
		0.3000069260597229,
		0.11887087672948837,
		-0.3534039556980133,
		-0.14264033734798431,
		-0.2949850559234619,
		0.3689887821674347,
		-0.3537118136882782,
		0.3906612992286682,
		0.37118273973464966,
		0.20974384248256683,
		-0.13716503977775574,
		-0.35740137100219727,
		-0.0503024160861969,
		0.09174160659313202,
		0.4168049991130829,
		-0.3081457316875458,
		-0.09754538536071777,
		0.09316665679216385,
		0.2248617559671402,
		0.3300575315952301,
		0.3168259859085083,
		0.26891905069351196,
		-0.28587645292282104,
		0.012640428729355335,
		-0.034999288618564606,
		0.3256734311580658,
		0.2437819093465805,
		-0.16262578964233398,
		0.19204753637313843,
		-0.4391568899154663,
		0.2535715699195862,
		-0.18977637588977814,
		0.409378319978714,
		0.0020166237372905016,
		0.25272607803344727,
		0.31499266624450684,
		0.02655291184782982,
		0.1557675004005432,
		-0.08227036893367767,
		0.04044385999441147,
		-0.029033208265900612,
		0.2811855375766754,
		0.020977742969989777,
		0.31955569982528687,
		0.356006383895874,
		-0.4390139579772949,
		0.4162384569644928,
		0.1308152973651886,
		0.2256411761045456,
		-0.43588510155677795,
		0.25140100717544556,
		-0.19347324967384338,
		-0.3444380760192871,
		0.21430125832557678,
		-0.29525643587112427,
		-0.07720582187175751,
		0.23810088634490967,
		-0.10189156234264374,
		0.22783999145030975,
		-0.2569563686847687,
		-0.13168688118457794,
		0.08444878458976746,
		-0.14986886084079742,
		0.4378988742828369,
		-0.032126303762197495,
		-0.2575787305831909,
		-0.2869298458099365,
		0.24594415724277496,
		0.4099179208278656,
		-0.3265387713909149,
		0.2570779621601105,
		0.19398479163646698,
		-0.2739180028438568,
		0.41790178418159485,
		-0.2552522122859955,
		-0.44197866320610046,
		-0.03516720235347748,
		-0.013011107221245766,
		0.19319406151771545,
		0.4364030063152313,
		-0.3714967966079712,
		0.0051831952296197414,
		-0.05912342667579651,
		0.042966414242982864,
		0.0994756817817688,
		-0.007895614951848984,
		0.13225993514060974,
		0.059145309031009674,
		-0.4502560496330261,
		-0.25938862562179565,
		0.17565330862998962,
		0.27244022488594055,
		0.3802293539047241,
		-0.42215484380722046,
		-0.13431596755981445,
		0.4159943163394928,
		0.33017972111701965,
		-0.13866956532001495,
		0.14295563101768494,
		-0.10558009892702103,
		0.44094061851501465,
		-0.3253944218158722,
		-0.2302158921957016,
		0.3396354019641876,
		-0.0884002298116684,
		0.37406083941459656,
		-0.34958863258361816,
		0.4520062506198883,
		0.0587480254471302,
		-0.3765357732772827,
		-0.011889939196407795,
		0.20837314426898956,
		0.1885015219449997,
		-0.33864349126815796,
		-0.003799270372837782,
		0.13742254674434662,
		0.37664517760276794,
		0.3125167191028595,
		-0.18406060338020325,
		0.3813478946685791,
		-0.4332616925239563,
		-0.4484197795391083,
		-0.29369020462036133,
		-0.17308655381202698,
		-0.3937983810901642,
		-0.04306592419743538,
		-0.21055224537849426,
		-0.3679073452949524,
		0.23140132427215576,
		0.20319144427776337,
		0.018933305516839027,
		-0.30347535014152527,
		-0.4298146367073059,
		-0.3023722767829895,
		0.11144242435693741,
		0.32232865691185,
		0.10679632425308228,
		0.2639009654521942,
		0.1794506460428238,
		-0.3352697789669037,
		-0.44373661279678345,
		-0.02975674904882908,
		0.19524753093719482,
		-0.03738108649849892,
		-0.12975461781024933,
		-0.21998190879821777,
		0.210661843419075,
		-0.17905111610889435,
		-0.23612630367279053,
		-0.19247664511203766,
		-0.20946308970451355,
		0.061117783188819885,
		0.023026149719953537,
		-0.09548977017402649,
		-0.1176096722483635,
		-0.040004927664995193,
		0.3818341791629791,
		-0.37714308500289917,
		-0.357651025056839,
		-0.40055933594703674,
		-0.30755043029785156,
		0.059736281633377075,
		0.14783915877342224,
		0.3064671754837036,
		-0.09457965940237045,
		0.04042346403002739,
		-0.1367568075656891,
		-0.06379147619009018,
		-0.03501889482140541,
		-0.17304345965385437,
		-0.12207859009504318,
		0.2700674831867218,
		0.14034438133239746,
		-0.39992305636405945,
		-0.10363564640283585,
		-0.12772923707962036,
		0.18728087842464447,
		0.2910613417625427,
		0.07990632206201553,
		-0.40664029121398926,
		0.08032181113958359,
		-0.1478334665298462,
		-0.3807905614376068,
		-0.07235973328351974,
		-0.398066908121109,
		-0.19250905513763428,
		-0.2228255271911621,
		0.10144969820976257,
		0.24590229988098145,
		0.16311758756637573,
		0.4484301805496216,
		-0.42337098717689514,
		-0.4093536138534546,
		0.34187448024749756,
		-0.1639871895313263,
		0.11016310751438141,
		0.11699093133211136,
		0.3157425820827484,
		0.07208676636219025,
		-0.33877289295196533,
		0.2110893577337265,
		-0.2516007423400879,
		0.28088268637657166,
		0.2096066176891327,
		-0.23571272194385529,
		0.062167517840862274,
		0.18103961646556854,
		-0.3527820408344269,
		0.4210703372955322,
		0.2684316039085388,
		-0.3566270172595978,
		0.175641730427742,
		-0.28994032740592957,
		-0.41234272718429565,
		0.31305235624313354,
		-0.33219262957572937,
		-0.2186521738767624,
		-0.04197334498167038,
		-0.34616535902023315,
		-0.19884350895881653,
		-0.353240966796875,
		-0.3908306062221527,
		0.3749377429485321,
		0.20729763805866241,
		-0.3590216338634491,
		-0.3999672830104828,
		-0.33227622509002686,
		0.2610618472099304,
		-0.402534157037735,
		0.057386863976716995,
		-0.006163493264466524,
		-0.19955717027187347,
		0.22216160595417023,
		-0.4424888491630554,
		0.09018325805664062,
		0.1195899173617363,
		0.05800066888332367,
		0.16661220788955688,
		0.4002920389175415,
		-0.4470568299293518,
		0.2710256278514862,
		0.4464857578277588,
		-0.35774391889572144,
		0.3675840198993683,
		-0.30470484495162964,
		0.28841590881347656,
		0.18811006844043732,
		-0.1843300759792328,
		-0.204561248421669,
		-0.15464743971824646,
		-0.18975581228733063,
		0.28910237550735474,
		0.34403640031814575,
		-0.40565022826194763,
		0.2178848385810852,
		0.09579078108072281,
		0.246881365776062,
		0.29782170057296753,
		-0.04632509872317314,
		-0.0830816924571991,
		0.11322090029716492,
		-0.4458553194999695,
		0.3554842472076416,
		-0.15126748383045197,
		0.39145851135253906,
		0.31543609499931335,
		-0.39726129174232483,
		0.4489086866378784,
		0.29316282272338867,
		-0.3924609124660492,
		0.12065749615430832,
		-0.16471020877361298,
		-0.0021619456820189953,
		-0.4191233217716217,
		0.08152563124895096,
		-0.30860191583633423,
		0.0356358103454113,
		-0.07202336192131042,
		0.0645366832613945,
		0.3203306794166565,
		0.02280798740684986,
		-0.36141467094421387,
		-0.34395936131477356,
		-0.11577215045690536,
		0.4002396762371063,
		-0.022749047726392746,
		-0.00222738622687757,
		-0.09717827290296555,
		0.024466047063469887,
		-0.17896141111850739,
		0.3183499872684479,
		-0.09123262763023376,
		0.39564457535743713,
		5.089316400699317E-4,
		-0.44698798656463623,
		-0.08997247368097305,
		0.1648137867450714,
		0.23344817757606506,
		-0.10007280111312866,
		-0.287026971578598,
		-0.2269974946975708,
		0.08393643796443939,
		0.3912752568721771,
		0.3718006908893585,
		-0.11687570810317993,
		0.1545729637145996,
		-0.06842509657144547,
		0.34871169924736023,
		-0.14004778861999512,
		-0.1744360625743866,
		-0.42138272523880005,
		0.2566961348056793,
		0.13697639107704163,
		-0.4310181438922882,
		-0.25105080008506775,
		-0.34464651346206665,
		0.33275774121284485,
		0.07584062218666077,
		0.3427762985229492,
		0.28838151693344116,
		-0.06907814741134644,
		-0.05909120664000511,
		0.4278526306152344,
		0.2556689381599426,
		0.07156942039728165,
		0.2282305508852005,
		0.10496091097593307,
		-0.3914158046245575,
		-0.05047496408224106,
		-0.35926496982574463,
		0.4432556629180908,
		0.27214494347572327,
		-0.45545482635498047,
		0.2649763524532318,
		-0.22930994629859924,
		-0.3592531681060791,
		-0.08353903889656067,
		-0.27448463439941406,
		-0.20711852610111237,
		0.2951819598674774,
		-0.35129237174987793,
		-0.3318818509578705,
		0.1036158949136734,
		-0.41691136360168457,
		0.21820592880249023,
		0.44839897751808167,
		0.4147225320339203,
		0.19711053371429443,
		0.3792601525783539,
		0.1274617314338684,
		0.4528939425945282,
		0.08197956532239914,
		0.33458027243614197,
		0.09958842396736145,
		0.03394825756549835,
		-0.26892101764678955,
		0.17625321447849274,
		0.048445768654346466,
		-0.16388502717018127,
		-0.036960847675800323,
		-0.39428266882896423,
		-0.20699797570705414,
		-0.3717946708202362,
		-0.2492498755455017,
		-0.22226551175117493,
		0.09925391525030136,
		-0.30164003372192383,
		0.2971947491168976,
		-0.2878362238407135,
		-0.17795541882514954,
		0.23044706881046295,
		0.21119430661201477,
		0.038915373384952545,
		0.05425285920500755,
		-0.30563071370124817,
		0.22037160396575928,
		0.26969030499458313,
		-0.13685733079910278,
		-0.317274272441864,
		0.4554956555366516,
		-0.18305906653404236,
		0.24224388599395752,
		-0.061947815120220184,
		0.15111057460308075,
		0.1309444010257721,
		0.040258172899484634,
		0.1552409827709198,
		0.21615922451019287,
		0.24997718632221222,
		0.17230013012886047,
		-0.3015747368335724,
		0.018660591915249825,
		-0.1004527136683464,
		0.09105097502470016,
		0.1278907060623169,
		0.0022800180595368147,
		0.11007153242826462,
		-0.11640200018882751,
		0.06624290347099304,
		0.39349180459976196,
		-0.43731191754341125,
		-0.4286203980445862,
		0.33634790778160095,
		-0.2345355600118637,
		-0.055407796055078506,
		-0.20459477603435516,
		0.10989175736904144,
		0.060284193605184555,
		-0.03740469738841057,
		0.4406132102012634,
		-0.346304327249527,
		0.4279850721359253,
		0.15204983949661255,
		-0.41170361638069153,
		-0.028278900310397148,
		0.2042401283979416,
		-0.26487642526626587,
		-0.07257527112960815,
		-0.06736860424280167,
		0.33990737795829773,
		0.21946915984153748,
		-0.37113356590270996,
		-0.03136061504483223,
		0.08875193446874619,
		-0.3719720244407654,
		0.08170061558485031,
		-0.12210054695606232,
		-0.10044685751199722,
		0.21441510319709778,
		-0.4429071247577667,
		-0.4252719581127167,
		0.3242049515247345,
		-0.10090429335832596,
		-0.42055585980415344,
		0.16504590213298798,
		-0.42777374386787415,
		0.37485650181770325,
		-0.1729627251625061,
		0.3907279074192047,
		-0.02990042045712471,
		0.43097785115242004,
		0.11574861407279968,
		0.33264926075935364,
		0.44473716616630554,
		0.3363584876060486,
		0.35378995537757874,
		0.11736182123422623,
		0.3797878324985504,
		-0.256184458732605,
		-0.21359606087207794,
		0.0898348018527031,
		0.2879416346549988,
		-0.23034627735614777,
		-0.21239235997200012,
		0.32056301832199097,
		-0.24537985026836395,
		0.26177364587783813,
		-0.1349201500415802,
		-0.30393561720848083,
		0.1962740570306778,
		-0.3115079998970032,
		0.05091020464897156,
		-0.036572493612766266,
		-0.02973019890487194,
		0.06663881987333298,
		-0.33720862865448,
		-0.24673612415790558,
		-0.265312522649765,
		0.276091992855072,
		0.05419290438294411,
		-0.22063210606575012,
		0.08031121641397476,
		-0.08464006334543228,
		-0.05458426848053932,
		0.07200083136558533,
		-0.23378638923168182,
		0.41366350650787354,
		0.09678372740745544,
		-0.06181584298610687,
		0.32851123809814453,
		-0.17448075115680695,
		0.08001567423343658,
		0.24231870472431183,
		-0.4550465941429138,
		-0.22898004949092865,
		0.4086383581161499,
		0.12504492700099945,
		-0.26262402534484863,
		-0.12015912681818008,
		-0.1824437975883484,
		0.19472730159759521,
		0.4178354740142822,
		-0.009318932890892029,
		0.30195122957229614,
		0.4451228082180023,
		-0.2811299264431,
		0.06377644091844559,
		0.4492517411708832,
		0.18660879135131836,
		0.4361334443092346,
		-0.10602781176567078,
		0.07221560180187225,
		-0.04180930182337761,
		-0.04850304126739502,
		-0.3414137363433838,
		0.29710903763771057,
		-0.1120804101228714,
		-0.0325915664434433,
		-0.07499895989894867,
		-0.18683931231498718,
		-0.07768403738737106,
		0.34638988971710205,
		-0.33945316076278687,
		-0.2191169261932373,
		0.08294317126274109,
		0.3355756402015686,
		0.2860163748264313,
		-0.4356288015842438,
		-0.11029340326786041,
		0.3580072820186615,
		0.09098643064498901,
		-0.36856016516685486,
		-0.1718517243862152,
		-0.37696415185928345,
		0.2267475724220276,
		-0.03049355372786522,
		-0.34458574652671814,
		-0.11239396035671234,
		-0.22652316093444824,
		-0.25841614603996277,
		0.34267160296440125,
		0.024085689336061478,
		-0.1946650892496109,
		0.11418280750513077,
		0.2207646369934082,
		-0.122471883893013,
		0.005362586118280888,
		0.0041122459806501865,
		-0.19930246472358704,
		0.3463655710220337,
		0.1898360699415207,
		0.38382598757743835,
		-0.09492803364992142,
		0.0017440039664506912,
		0.110563725233078,
		0.1383734941482544,
		-0.12381007522344589,
		0.355520635843277,
		-0.2847180962562561,
		0.17067845165729523,
		0.19077418744564056,
		0.21545864641666412,
		0.4247916340827942,
		0.3160903751850128,
		-0.44780662655830383,
		0.13050837814807892,
		0.4541781544685364,
		-0.35877716541290283,
		-0.34242281317710876,
		0.37584054470062256,
		0.24566508829593658,
		0.044974543154239655,
		0.23500953614711761,
		-0.294596403837204,
		0.17987185716629028,
		0.4043801426887512,
		0.165274977684021,
		-0.31791070103645325,
		0.3747262954711914,
		0.3038676381111145,
		-0.03953782841563225,
		-0.061404455453157425,
		0.4313339591026306,
		0.1615014374256134,
		0.44982630014419556,
		-0.2766421437263489,
		0.05790315568447113,
		-0.44031864404678345,
		0.2782328128814697,
		0.31211429834365845,
		-0.35917842388153076,
		0.33865487575531006,
		-0.07715260982513428,
		-0.3402194678783417,
		0.23964931070804596,
		0.04905346781015396,
		0.41792726516723633,
		-0.3788154423236847,
		-0.2534833252429962,
		0.3582514524459839,
		0.14572866261005402,
		-0.36609774827957153,
		-0.259050577878952,
		-0.08507230877876282,
		0.03422435373067856,
		0.2639210522174835,
		0.2664646804332733,
		-0.17297488451004028,
		-0.11893520504236221,
		-0.4306567311286926,
		0.3712555170059204,
		-0.11040922999382019,
		0.1791071593761444,
		-0.23806825280189514,
		-0.3981032371520996,
		0.07801072299480438,
		-0.09860672801733017,
		-0.11690085381269455,
		-0.14731450378894806,
		-0.34286820888519287,
		-0.3544430732727051,
		-0.1538463830947876,
		-0.12925705313682556,
		0.36181503534317017,
		0.24444738030433655,
		-0.07168830931186676,
		-0.05016165226697922,
		0.2776021361351013,
		-0.4302537441253662,
		-0.12222212553024292,
		-0.04656707122921944,
		-0.2812917232513428,
		0.1697329580783844,
		0.2381201833486557,
		0.022708671167492867,
		0.11891410499811172,
		0.22281703352928162,
		-0.08261006325483322,
		-0.0662471354007721,
		0.2924252450466156,
		0.3611948490142822,
		0.2858952581882477,
		0.21358640491962433,
		0.21664100885391235,
		-0.31213170289993286,
		-0.18142837285995483,
		0.25570613145828247,
		-0.13670985400676727,
		-0.13037869334220886,
		0.10600132495164871,
		0.4302285611629486,
		-0.3283654451370239,
		-0.22643913328647614,
		0.05960957705974579,
		0.09196663647890091,
		-0.09758532792329788,
		-0.3613041639328003,
		-0.2192758321762085,
		-0.25832924246788025,
		0.20243439078330994,
		0.14543066918849945,
		0.25414934754371643,
		-0.33632275462150574,
		0.06328395754098892,
		0.08702665567398071,
		0.1149001345038414,
		0.12269394844770432,
		-0.0011753137223422527,
		0.15998126566410065,
		-0.30420416593551636,
		-0.3867379426956177,
		0.3933054208755493,
		-0.4120224714279175,
		-0.13069112598896027,
		-0.4326757490634918,
		0.09819098562002182,
		-0.1407960057258606,
		-0.025224529206752777,
		-0.10722129046916962,
		-0.038056377321481705,
		0.004263624083250761,
		-0.27942076325416565,
		-0.07645270228385925,
		0.24247311055660248,
		0.01649969071149826,
		-0.10678838938474655,
		-0.07151389867067337,
		-0.03234922140836716,
		0.1343962401151657,
		-0.35001078248023987,
		0.34769386053085327,
		-0.3101062774658203,
		0.4388355612754822,
		-0.42061012983322144,
		0.2441135048866272,
		-0.4343482255935669,
		0.0962071418762207,
		0.39146631956100464,
		0.3586132824420929,
		0.43947070837020874,
		-0.39438340067863464,
		-0.06937824189662933,
		-0.4397796094417572,
		0.2265973538160324,
		-0.21670915186405182,
		-0.26326245069503784,
		0.2513415217399597,
		-0.3558157980442047,
		-0.1361730396747589,
		0.1501711755990982,
		-0.15415892004966736,
		0.03193442523479462,
		0.2879354655742645,
		0.2574494183063507,
		-0.3842393755912781,
		0.11161468178033829,
		-0.16180342435836792,
		0.020963404327630997,
		0.13827452063560486,
		-0.3604964315891266,
		0.08917933702468872,
		-0.35752156376838684,
		0.39503419399261475,
		-0.32067063450813293,
		-0.3037767708301544,
		0.10987021028995514,
		0.25980502367019653,
		-0.03932980075478554,
		-0.0892212837934494,
		-0.1900150626897812,
		0.1958455741405487,
		-0.22371003031730652,
		-0.43930381536483765,
		-0.29222631454467773,
		0.25260695815086365,
		0.062499016523361206,
		0.3008645176887512,
		0.06430269777774811,
		0.059344518929719925,
		-0.12911728024482727,
		-0.1529741883277893,
		-0.17028093338012695,
		-0.1879139393568039,
		0.40480488538742065,
		-0.0876472145318985,
		-0.02439972199499607,
		0.09754098206758499,
		0.3433018624782562,
		-0.23333561420440674,
		-0.3162271976470947,
		0.3927731513977051,
		0.32861998677253723,
		-0.04239479824900627,
		-0.4106321334838867,
		0.3676552176475525,
		0.08357306569814682,
		-0.4146796464920044,
		-0.1394597291946411,
		0.14136192202568054,
		-0.08454465866088867,
		-0.42784565687179565,
		0.3037247955799103,
		-0.010967670008540154,
		-0.04373648390173912,
		-0.30790185928344727,
		0.19437439739704132,
		0.28446057438850403,
		0.15316830575466156,
		-0.13491128385066986,
		-0.04859599471092224,
		-0.433393269777298,
		-0.19692936539649963,
		-0.22344352304935455,
		-0.3767877519130707,
		-0.09491530060768127,
		0.12896232306957245,
		0.028100289404392242,
		-0.44709959626197815,
		0.3831978142261505,
		-0.3341764807701111,
		-0.15847347676753998,
		0.1287786364555359,
		0.0179014690220356,
		0.22613662481307983,
		0.08433099836111069,
		0.23568515479564667,
		0.4134167432785034,
		-0.2608409821987152,
		0.4218328595161438,
		-0.2512258291244507,
		-0.201221764087677,
		-0.4338812232017517,
		-0.4226776957511902,
		0.039906688034534454,
		0.21194687485694885,
		0.16427376866340637,
		-0.37252679467201233,
		-0.01142540480941534,
		-0.04410454258322716,
		-0.14238494634628296,
		-0.05360206589102745,
		-0.3628726899623871,
		0.052097491919994354,
		0.18481452763080597,
		0.34045344591140747,
		0.3195115029811859,
		0.2001071572303772,
		-0.2034831941127777,
		0.34115535020828247,
		-0.19941146671772003,
		-0.008018472231924534,
		0.05929066613316536,
		0.1159563958644867,
		0.0742829442024231,
		-0.1246168464422226,
		-0.07484843581914902,
		-0.36303815245628357,
		0.1025971844792366,
		0.20098406076431274,
		0.23208463191986084,
		0.3575655221939087,
		0.02710314467549324,
		0.10001283138990402,
		-0.18601813912391663,
		0.3263176381587982,
		0.3641655147075653,
		0.0065401275642216206,
		-0.20589861273765564,
		-0.43017107248306274,
		-0.18533754348754883,
		-0.37786251306533813,
		-0.2705378830432892,
		0.16204842925071716,
		0.20878933370113373,
		-0.17447547614574432,
		0.1275082379579544,
		0.4272416830062866,
		0.3449245095252991,
		-0.4042115807533264,
		0.042957156896591187,
		-0.4156670570373535,
		-0.3940592110157013,
		0.34467294812202454,
		-0.18537373840808868,
		-0.4413180649280548,
		-0.3935886025428772,
		-0.0867738351225853,
		0.06278436630964279,
		0.32435646653175354,
		-0.13521815836429596,
		-0.07911886274814606,
		-0.07606114447116852,
		0.2671211361885071,
		-0.3202577531337738,
		0.02494773641228676,
		0.026073895394802094,
		-0.028945788741111755,
		0.21114155650138855,
		-0.39552658796310425,
		-0.1760253608226776,
		0.22678886353969574,
		0.15118476748466492,
		0.09256712347269058,
		0.18558594584465027,
		0.28533920645713806,
		-0.10805418342351913,
		-0.10411938279867172,
		0.3632725477218628,
		0.30302947759628296,
		-0.1694478690624237,
		0.3714229464530945,
		0.2723815143108368,
		-0.13805313408374786,
		-0.4268283545970917,
		0.00729340361431241,
		-0.42065197229385376,
		-0.25562503933906555,
		-0.2554287016391754,
		-0.3193797469139099,
		0.1045159250497818,
		0.315323144197464,
		-0.33029067516326904,
		-0.31475773453712463,
		0.05437905713915825,
		-0.2528461813926697,
		-0.3090064525604248,
		0.42515575885772705,
		-0.38998955488204956,
		-0.21396543085575104,
		-0.14147649705410004,
		0.24196965992450714,
		-0.13846062123775482,
		0.23421122133731842,
		0.0010858695022761822,
		-0.38722726702690125,
		0.403980016708374,
		-0.25226131081581116,
		-0.3145347535610199,
		-0.15744656324386597,
		0.3491572439670563,
		-0.4537280201911926,
		0.34882473945617676,
		0.21421779692173004,
		0.34654951095581055,
		0.2833678424358368,
		0.42048537731170654,
		0.189273864030838,
		0.42981019616127014,
		-0.34365609288215637,
		0.41473597288131714,
		-0.020349854603409767,
		0.08894307911396027,
		0.2362826019525528,
		0.326416552066803,
		0.07136259973049164,
		0.13646291196346283,
		-0.2770519554615021,
		0.16244356334209442,
		-0.18941617012023926,
		-0.1831284612417221,
		-0.26055803894996643,
		0.35075098276138306,
		-0.25055089592933655,
		-0.02480929344892502,
		0.18735836446285248,
		0.44533300399780273,
		0.18913550674915314,
		0.18259650468826294,
		0.10395846515893936,
		0.10698096454143524,
		0.29385703802108765,
		0.15453310310840607,
		-0.23006600141525269,
		0.32268252968788147,
		-0.03398583456873894,
		-0.23304887115955353,
		-0.057781826704740524,
		-0.21424779295921326,
		0.4438565671443939,
		0.3467760980129242,
		-0.16907304525375366,
		-0.44322994351387024,
		0.18928369879722595,
		-0.1327211707830429,
		0.28182998299598694,
		0.1656031310558319,
		0.15688550472259521,
		-0.04238170385360718,
		-0.1857140064239502,
		0.39259350299835205,
		0.38725703954696655,
		0.30117976665496826,
		-0.23667755722999573,
		0.4167518615722656,
		0.2074727714061737,
		0.018705088645219803,
		-0.3930785059928894,
		0.22149823606014252,
		-0.44410091638565063,
		0.2039339244365692,
		0.4323155879974365,
		-0.008922847919166088,
		0.1654275357723236,
		-0.15770800411701202,
		0.27814429998397827,
		-0.22500057518482208,
		-0.24862085282802582,
		-0.1822376549243927,
		0.20923149585723877,
		0.19351695477962494,
		0.06370779126882553,
		0.03337901458144188,
		0.35171419382095337,
		-0.23979368805885315,
		0.3738826513290405,
		0.3929874300956726,
		0.2836480736732483,
		0.3323771357536316,
		0.34052544832229614,
		-0.013645568862557411,
		-0.4237135052680969,
		0.09499359130859375,
		-0.2583279013633728,
		-0.44216614961624146,
		0.3347095847129822,
		-0.004864935763180256,
		0.349468469619751,
		0.09463847428560257,
		-0.39483681321144104,
		-0.26565223932266235,
		-0.21964623034000397,
		-0.20723788440227509,
		0.25609979033470154,
		0.07133857905864716,
		-0.40521320700645447,
		-0.01039901189506054,
		0.3326363265514374,
		-0.16127203404903412,
		-0.1112583577632904,
		-0.43971914052963257,
		-0.037799760699272156,
		-0.06467000395059586,
		-0.2932101786136627,
		-0.1521596759557724,
		-0.019232608377933502,
		-0.3794456422328949,
		-0.025739064440131187,
		-0.22949428856372833,
		0.01406526006758213,
		0.2786719501018524,
		-0.07775474339723587,
		0.18424969911575317,
		-0.03378768265247345,
		-0.0666785016655922,
		0.07197605818510056,
		0.14255987107753754,
		-0.35302722454071045,
		0.34323346614837646,
		0.031009206548333168,
		0.33467379212379456,
		0.3076436221599579,
		-0.17516019940376282,
		-0.31501874327659607,
		0.37108296155929565,
		-0.04448628053069115,
		0.4111873507499695,
		0.36927422881126404,
		-0.2976965308189392,
		-0.17954760789871216,
		-0.23980404436588287,
		0.21038047969341278,
		0.2539627254009247,
		0.15874792635440826,
		-0.32837027311325073,
		-0.39805036783218384,
		-0.30277445912361145,
		0.0761801227927208,
		-0.07856084406375885,
		0.3711779713630676,
		-0.4426746666431427,
		-0.287862628698349,
		-0.1339169144630432,
		0.3787940740585327,
		-0.0428290069103241,
		-0.42851048707962036,
		-0.4500908851623535,
		0.32436859607696533,
		0.4463364779949188,
		0.11610835790634155,
		-0.1858561784029007,
		0.3737121820449829,
		-0.004275274462997913,
		0.32826611399650574,
		-0.1454038918018341,
		0.26142004132270813,
		0.025310847908258438,
		-0.41089028120040894,
		-0.11559412628412247,
		0.2026596963405609,
		0.32571956515312195,
		0.15496410429477692,
		-0.4033869206905365,
		-0.39541441202163696,
		-0.019522666931152344,
		0.43306663632392883,
		0.146378293633461,
		-0.19488631188869476,
		0.07083722203969955,
		-0.37745338678359985,
		0.005283062811940908,
		0.3873613774776459,
		0.3598267734050751,
		-0.07184096425771713,
		-0.12946055829524994,
		-0.2451915740966797,
		0.1562962383031845,
		0.17734366655349731,
		0.3790701627731323,
		0.4119451642036438,
		0.3734484314918518,
		-0.3759983479976654,
		-0.11123728007078171,
		-0.4206669330596924,
		0.431027889251709,
		0.11562091112136841,
		-0.3341103196144104,
		0.28440290689468384,
		0.15070068836212158,
		-0.2379336804151535,
		0.44211113452911377,
		-0.002384219318628311,
		0.26830846071243286,
		-0.06898238509893417,
		0.4134432077407837,
		0.3471381664276123,
		0.34750688076019287,
		-0.4327158033847809,
		0.1300884485244751,
		-0.22428502142429352,
		-0.3444308042526245,
		-0.39572954177856445,
		-0.15100328624248505,
		0.21666176617145538,
		0.3843151926994324,
		-0.22727970778942108,
		-0.016068268567323685,
		0.0383848212659359,
		-0.15995806455612183,
		-0.1945367157459259,
		-0.4255451560020447,
		0.1888645440340042,
		-0.046173859387636185,
		0.305730402469635,
		-0.4120006859302521,
		-0.0913243368268013,
		0.0846296027302742,
		0.061236921697854996,
		-0.054360851645469666,
		0.35785749554634094,
		-0.436014324426651,
		-0.0125842010602355,
		-0.24273408949375153,
		0.40158677101135254,
		0.08030498772859573,
		-0.0745231956243515,
		0.1436876505613327,
		-0.10000372678041458,
		-0.25566911697387695,
		-0.164751797914505,
		0.05958287790417671,
		-0.0018022485310211778,
		-0.4407426416873932,
		0.3140450119972229,
		-0.36994704604148865,
		0.11766679584980011,
		-0.30723297595977783,
		-0.049056291580200195,
		-0.22483132779598236,
		0.1875944584608078,
		-0.3576556146144867,
		-0.3504277765750885,
		-0.34236276149749756,
		-0.433647483587265,
		0.004672500304877758,
		0.24840977787971497,
		0.13714991509914398,
		0.3057056963443756,
		-0.2601816952228546,
		-0.2557198405265808,
		0.08226297795772552,
		-0.10435592383146286,
		-0.2195059210062027,
		0.015984954312443733,
		-0.4083804190158844,
		0.41199028491973877,
		-0.4441272020339966,
		0.12140849232673645,
		-0.29153576493263245,
		0.25303587317466736,
		-0.41102707386016846,
		-0.27287042140960693,
		0.4374169111251831,
		0.19018186628818512,
		-0.4400591254234314,
		-0.19703668355941772,
		0.4315093755722046,
		0.2414599508047104,
		0.12382634729146957,
		-0.35484522581100464,
		-0.11896457523107529,
		0.31453537940979004,
		-0.09844780713319778,
		0.3019162714481354,
		0.1677451878786087,
		-0.23415400087833405,
		0.2885676324367523,
		0.001164065208286047,
		-0.16782820224761963,
		0.18653368949890137,
		-0.20611396431922913,
		0.1411275565624237,
		-0.10235265642404556,
		-0.19881252944469452,
		-0.41830161213874817,
		-0.43769094347953796,
		-0.18851667642593384,
		-0.14654852449893951,
		-0.3780689835548401,
		-0.30435821413993835,
		0.24628876149654388,
		0.178658127784729,
		-0.13683238625526428,
		-0.3399592936038971,
		-0.45464298129081726,
		-0.44106367230415344,
		0.04930664226412773,
		-0.15317244827747345,
		-0.2911360561847687,
		-0.22010526061058044,
		-0.025054723024368286,
		0.0044138673692941666,
		-0.2228826880455017,
		-0.27718067169189453,
		-0.07330908626317978,
		0.03164055570960045,
		-0.43764427304267883,
		0.24271629750728607,
		-0.28002405166625977,
		0.19502662122249603,
		0.07288871705532074,
		-0.1892254501581192,
		-0.41864028573036194,
		-0.3202129304409027,
		-0.2168395072221756,
		-0.09697236120700836,
		-0.16274283826351166,
		0.08822707831859589,
		-0.08487305045127869,
		0.26429450511932373,
		-0.10504482686519623,
		-0.0345272421836853,
		-0.33764779567718506,
		-0.43854957818984985,
		0.34562987089157104,
		-0.28510648012161255,
		-0.40839284658432007,
		0.022009320557117462,
		-0.35141152143478394,
		0.29442456364631653,
		-0.2589453458786011,
		-0.017268106341362,
		-0.15170490741729736,
		-0.3408643305301666,
		0.33711156249046326,
		-0.27245593070983887,
		0.22828327119350433,
		-0.3297123610973358,
		0.082807257771492,
		0.4008595049381256,
		0.44680124521255493,
		0.3073841631412506,
		-0.22661611437797546,
		-0.0312701016664505,
		-0.3382009267807007,
		-0.35996013879776,
		0.1519274264574051,
		0.2680872082710266,
		0.35079556703567505,
		0.4300863444805145,
		-0.11618167161941528,
		-0.37434256076812744,
		0.11475513130426407,
		0.27589234709739685,
		0.3374554514884949,
		0.311471551656723,
		0.2502075135707855,
		0.33601510524749756,
		0.3250989317893982,
		-0.373431533575058,
		0.3441489040851593,
		0.02183048613369465,
		-0.09282875061035156,
		0.11686965823173523,
		-0.3875274658203125,
		-0.4214714765548706,
		0.23525197803974152,
		0.3244938254356384,
		0.4185909032821655,
		0.4339306056499481,
		0.08486308157444,
		-0.2994321882724762,
		0.3100247085094452,
		0.385478138923645,
		0.027110517024993896,
		0.07418426871299744,
		-0.22454558312892914,
		-0.24657152593135834,
		0.20827965438365936,
		0.004359187092632055,
		-0.3310116231441498,
		-0.05132576823234558,
		0.3453527092933655,
		0.08273085206747055,
		-0.018906598910689354,
		-0.4194111227989197,
		-0.24406005442142487,
		0.21140968799591064,
		-0.0854949951171875,
		-0.3899640440940857,
		0.1666286289691925,
		-0.12809666991233826,
		0.08939353376626968,
		-0.06104347109794617,
		0.12487652152776718,
		0.02999703399837017,
		0.14795181155204773,
		-0.04687509685754776,
		-0.12672194838523865,
		-0.18018412590026855,
		0.0725974291563034,
		0.14951497316360474,
		0.271572470664978,
		-0.170688197016716,
		0.11545159667730331,
		0.2629910111427307,
		-0.11435577273368835,
		0.13075807690620422,
		-0.2348567545413971,
		0.4089850187301636,
		-0.32166826725006104,
		-0.059423018246889114,
		-0.32434073090553284,
		0.080689437687397,
		0.23312757909297943,
		0.3969757556915283,
		0.12963168323040009,
		0.07413972169160843,
		-0.42009538412094116,
		-0.2449866384267807,
		-0.019778497517108917,
		-0.10862355679273605,
		0.30572018027305603,
		-0.41342371702194214,
		0.21810899674892426,
		-0.1579078882932663,
		-0.036617211997509,
		0.20750480890274048,
		-0.14994695782661438,
		0.03822880610823631,
		0.060974009335041046,
		0.158181831240654,
		-0.17948904633522034,
		-0.26396018266677856,
		0.12573467195034027,
		-0.19831164181232452,
		0.19487400352954865,
		-0.08174734562635422,
		-0.34438103437423706,
		0.19120123982429504,
		-0.19116631150245667,
		-0.3747412860393524,
		-0.14133253693580627,
		0.062496911734342575,
		0.38672617077827454,
		-0.2592944800853729,
		0.14074979722499847,
		-0.43462809920310974,
		-0.3091548979282379,
		0.11483412981033325,
		0.3798227906227112,
		0.09450649470090866,
		-0.10622934997081757,
		0.06766221672296524,
		-0.09121783822774887,
		-0.029788069427013397,
		0.3261645436286926,
		0.05382484942674637,
		-0.19710159301757812,
		0.23537452518939972,
		-0.4334615468978882,
		0.04931359365582466,
		0.019224490970373154,
		-0.2836676836013794,
		-0.0695807933807373,
		-0.1124844178557396,
		0.04046498239040375,
		0.4037027955055237,
		-0.07076902687549591,
		0.0584704726934433,
		-0.13218353688716888,
		0.04538331925868988,
		-0.024134404957294464,
		0.2678089439868927,
		0.3336534798145294,
		-0.08602456003427505,
		0.4423427879810333,
		0.06478826701641083,
		0.43421584367752075,
		-0.24663510918617249,
		-0.4546397030353546,
		0.13658998906612396,
		0.22707034647464752,
		0.31148698925971985,
		0.27683892846107483,
		-0.09392935037612915,
		-0.24095012247562408,
		-0.16294632852077484,
		-0.23950067162513733,
		-0.3573932945728302,
		0.40235453844070435,
		0.22755467891693115,
		-0.44358521699905396,
		-0.36110660433769226,
		0.1628844141960144,
		-0.0013086657272651792,
		0.031193774193525314,
		-0.1946927309036255,
		0.030636301264166832,
		-0.24861787259578705,
		0.2359067052602768,
		0.19793292880058289,
		-0.4381779134273529,
		0.047014400362968445,
		0.0036208759993314743,
		0.18239788711071014,
		-0.43269073963165283,
		0.13433468341827393,
		-0.349552720785141,
		0.2655849754810333,
		-0.40371373295783997,
		0.3430776298046112,
		0.33707061409950256,
		-0.3277727961540222,
		-0.09645798057317734,
		0.37593692541122437,
		0.05868212878704071,
		0.06759908050298691,
		-0.2584312856197357,
		0.20441657304763794,
		0.24558599293231964,
		0.34087589383125305,
		-0.040380652993917465,
		-0.2594064176082611,
		0.3256259858608246,
		0.24762198328971863,
		-0.3539189398288727,
		-0.20177467167377472,
		-0.02399899810552597,
		-0.19348320364952087,
		-0.41520676016807556,
		0.010944236069917679,
		-0.09743162244558334,
		-0.3013303875923157,
		0.26738759875297546,
		0.34543782472610474,
		0.21885782480239868,
		-0.1283000111579895,
		0.28121092915534973,
		-0.3310113847255707,
		-0.06488199532032013,
		0.09847848862409592,
		0.08580964803695679,
		0.41528400778770447,
		-0.19449448585510254,
		0.07552659511566162,
		0.1309708058834076,
		-0.21818119287490845,
		0.2144317626953125,
		-0.3841632008552551,
		0.2094152569770813,
		-0.008993172086775303,
		-0.3689996004104614,
		-0.24747347831726074,
		-0.3984523117542267,
		-0.34213027358055115,
		0.040617190301418304,
		0.39146122336387634,
		-0.39671772718429565,
		-0.3874134421348572,
		0.02034204825758934,
		-0.3991287350654602,
		-0.43240615725517273,
		-0.22973300516605377,
		0.3495139181613922,
		-0.04983401671051979,
		0.18701492249965668,
		0.34550341963768005,
		-0.04997336119413376,
		0.37446218729019165,
		-0.4361709654331207,
		-0.41315141320228577,
		0.13101176917552948,
		-0.18072861433029175,
		-0.15524844825267792,
		-0.37173259258270264,
		0.36863547563552856,
		0.17765386402606964,
		-0.058372195810079575,
		0.05418669804930687,
		0.44149699807167053,
		0.13414859771728516,
		-0.07953737676143646,
		0.14883390069007874,
		0.4357672929763794,
		0.2816985845565796,
		-0.01159799937158823,
		-0.26164039969444275,
		0.37786173820495605,
		0.28905221819877625,
		0.23571696877479553,
		-0.09155718982219696,
		0.31779447197914124,
		0.4416106939315796,
		-0.20934434235095978,
		0.302008718252182,
		-0.31264978647232056,
		0.39679795503616333,
		-0.45401233434677124,
		0.21792210638523102,
		-0.18564285337924957,
		-0.45102459192276,
		0.17267078161239624,
		-0.16582541167736053,
		0.12159688025712967,
		0.370073139667511,
		0.43724939227104187,
		0.24463942646980286,
		-0.38142651319503784,
		0.37575095891952515,
		-0.1662021279335022,
		0.19279508292675018,
		-0.2927788496017456,
		0.04300440475344658,
		-0.31881260871887207,
		-0.181717187166214,
		0.4073891043663025,
		0.06520314514636993,
		-0.029678933322429657,
		0.04426465183496475,
		-0.16306918859481812,
		0.3415814936161041,
		-0.04503834620118141,
		-0.38955849409103394,
		-0.26838424801826477,
		0.2140367478132248,
		-0.4497930705547333,
		0.21263468265533447,
		-0.24046878516674042,
		0.26315003633499146,
		-0.21321584284305573,
		-0.09690988808870316,
		-0.32551294565200806,
		0.43364042043685913,
		0.18809522688388824,
		-0.13846950232982635,
		-0.2620026767253876,
		0.14767944812774658,
		-0.07708302140235901,
		0.26823267340660095,
		0.18390613794326782,
		-0.34229937195777893,
		-0.3134544789791107,
		-0.3650331497192383,
		-0.23669840395450592,
		0.08515489846467972,
		-0.1677442193031311,
		0.0038560088723897934,
		-0.2962224781513214,
		-0.3788875937461853,
		0.02560202032327652,
		-0.14303578436374664,
		0.043776851147413254,
		-0.16354499757289886,
		0.21331539750099182,
		0.29219385981559753,
		0.3431119918823242,
		-0.3111203610897064,
		0.21063192188739777,
		0.34097856283187866,
		-0.26034149527549744,
		-0.40821710228919983,
		0.2605574429035187,
		0.16651085019111633,
		-0.4413960874080658,
		-0.2156471163034439,
		0.21365590393543243,
		0.39130350947380066,
		-0.29561886191368103,
		0.20175611972808838,
		-0.3698662519454956,
		-0.435514897108078,
		-0.2301870584487915,
		0.1449822634458542,
		-0.36444899439811707,
		-0.37572959065437317,
		-0.23361821472644806,
		-0.07784918695688248,
		-0.2128322571516037,
		0.1849445402622223,
		0.10504339635372162,
		-0.3849910497665405,
		-0.4500892162322998,
		-0.4405059814453125,
		0.4320415258407593,
		0.4368270933628082,
		-0.36530888080596924,
		-0.34855759143829346,
		0.33888697624206543,
		-0.11357161402702332,
		-0.18377338349819183,
		-0.22810831665992737,
		-0.01047424878925085,
		-0.396386981010437,
		-0.2992652952671051,
		0.2342873066663742,
		-0.10379289090633392,
		-0.3759651482105255,
		-0.1332598626613617,
		-0.056626852601766586,
		0.08121377974748611,
		-0.3630225956439972,
		0.21780982613563538,
		-0.1622164249420166,
		-0.34782347083091736,
		0.01678723469376564,
		0.26730042695999146,
		0.24817678332328796,
		0.24848605692386627,
		0.42788687348365784,
		-0.3798004984855652,
		-0.2868828773498535,
		-0.10605204105377197,
		-0.23522479832172394,
		-0.1599329560995102,
		0.010625116527080536,
		0.44502827525138855,
		-0.12597490847110748,
		0.21472688019275665,
		-0.19795574247837067,
		-0.11345582455396652,
		-0.3275972008705139,
		-0.22254757583141327,
		0.27958157658576965,
		-0.2450774759054184,
		-0.36631155014038086,
		-0.2500327527523041,
		0.21751616895198822,
		0.15803375840187073,
		-0.11828774213790894,
		-0.03528403490781784,
		-0.20778459310531616,
		-0.15455548465251923,
		0.35584115982055664,
		-0.20905816555023193,
		0.27178579568862915,
		-0.2680319845676422,
		0.33188244700431824,
		0.3048951327800751,
		0.44116488099098206,
		0.02064165100455284,
		-0.16871000826358795,
		0.06157843768596649,
		0.3473856747150421,
		-0.09735719114542007,
		-0.20699594914913177,
		0.015180997550487518,
		0.32291895151138306,
		0.14030298590660095,
		0.4508258104324341,
		0.08193638920783997,
		0.29486480355262756,
		-0.054428208619356155,
		-0.040200941264629364,
		-0.0613473542034626,
		0.0645512193441391,
		-0.3469676971435547,
		-0.23064331710338593,
		-0.4030817449092865,
		0.11272311955690384,
		-0.45117127895355225,
		0.37171265482902527,
		0.3833424746990204,
		0.037269413471221924,
		0.3449767827987671,
		0.18001136183738708,
		0.4445718824863434,
		-0.218856543302536,
		0.19345776736736298,
		0.22973616421222687,
		-0.008075392805039883,
		0.03215111419558525,
		-0.31950852274894714,
		0.10944713652133942,
		-0.016327695921063423,
		-0.09641187638044357,
		-0.23843538761138916,
		-0.29685312509536743,
		-0.4546172022819519,
		0.42821967601776123,
		0.11435291916131973,
		0.454427033662796,
		0.15479561686515808,
		-0.4275442659854889,
		0.3965829908847809,
		-0.06497423350811005,
		0.2499620020389557,
		-0.43792441487312317,
		-0.16803525388240814,
		0.06584189832210541,
		-0.0396224781870842,
		-0.05164076387882233,
		-0.25083693861961365,
		0.26979637145996094,
		-0.0357762947678566,
		-0.45388340950012207,
		-0.1333117038011551,
		-0.1262916773557663,
		0.45228326320648193,
		0.4018276333808899,
		-0.25364768505096436,
		-0.34674978256225586,
		0.14598160982131958,
		0.2060784250497818,
		-0.11315570771694183,
		-0.0588282011449337,
		-0.4153359830379486,
		-0.19648608565330505,
		-0.15832796692848206,
		0.27436065673828125,
		0.0960380882024765,
		0.22449250519275665,
		-0.1713310331106186,
		0.3813159465789795,
		0.09214261919260025,
		0.2948998808860779,
		0.220305398106575,
		-0.10621408373117447,
		-0.06151338294148445,
		0.19249998033046722,
		0.17449092864990234,
		-0.006576942279934883,
		0.005016580689698458,
		0.15439967811107635,
		-0.31766337156295776,
		-0.3648143410682678,
		0.29799169301986694,
		-0.2274431735277176,
		0.2804558575153351,
		0.3666752874851227,
		0.35805630683898926,
		-0.027919836342334747,
		-0.43408942222595215,
		-0.4394928216934204,
		-0.38271915912628174,
		-0.37230443954467773,
		-0.14396269619464874,
		-0.2663375735282898,
		0.15606564283370972,
		0.09086719900369644,
		-0.2141207754611969,
		0.14542511105537415,
		0.31093427538871765,
		-0.14041274785995483,
		-0.1891089230775833,
		0.2735303044319153,
		-0.06148950383067131,
		0.31333091855049133,
		-0.2746567726135254,
		-0.25436994433403015,
		-0.36589497327804565,
		-0.31134703755378723,
		-0.17654694616794586,
		-0.0676536038517952,
		-0.0439520999789238,
		0.3386956453323364,
		-0.3749556839466095,
		0.2537384033203125,
		-0.2931579351425171,
		-0.3119966685771942,
		0.2397843450307846,
		0.20641747117042542,
		0.1752583384513855,
		-0.3762778043746948,
		0.1659386157989502,
		-0.36424505710601807,
		0.2677370011806488,
		-0.0876074805855751,
		-0.2651726007461548,
		-0.41213905811309814,
		0.4280705153942108,
		0.1445135623216629,
		-0.006352614611387253,
		0.4147491157054901,
		-0.06536301970481873,
		0.24645164608955383,
		0.4391063153743744,
		0.020908936858177185,
		0.17433099448680878,
		0.274385929107666,
		0.2737201154232025,
		-0.42803749442100525,
		0.08497321605682373,
		0.41574010252952576,
		-0.3322591483592987,
		0.16320885717868805,
		0.29566317796707153,
		0.11433825641870499,
		0.07448658347129822,
		0.3256193995475769,
		0.21775668859481812,
		0.05421052128076553,
		-0.45042848587036133,
		-0.383587121963501,
		-0.4458610713481903,
		-0.34632134437561035,
		0.3257286250591278,
		-0.13133451342582703,
		0.3269125521183014,
		0.3866284191608429,
		-0.4458836317062378,
		0.22456075251102448,
		0.44011327624320984,
		-0.38086405396461487,
		-0.3050285875797272,
		0.35433870553970337,
		-0.3927382528781891,
		0.1595596820116043,
		0.040094438940286636,
		-0.11297503858804703,
		0.1728459894657135,
		-0.3943287134170532,
		-0.3264070749282837,
		0.407275915145874,
		0.18455323576927185,
		-0.3139345049858093,
		-0.41267094016075134,
		0.08435278385877609,
		0.2753235399723053,
		0.15364129841327667,
		-0.06531453877687454,
		0.32025113701820374,
		0.17830367386341095,
		-0.27838030457496643,
		0.1098916083574295,
		0.22877851128578186,
		-0.003860765602439642,
		0.17974229156970978,
		-0.11110182851552963,
		-0.36869490146636963,
		-0.17286552488803864,
		0.3658459484577179,
		0.233948215842247,
		-0.41906169056892395,
		0.1639985740184784,
		-0.38582199811935425,
		-0.1946014165878296,
		-0.26681381464004517,
		-0.02463037520647049,
		-0.06482717394828796,
		-0.4012821912765503,
		0.35437095165252686,
		-0.38311314582824707,
		0.019371146336197853,
		-0.3503550589084625,
		-0.21404406428337097,
		-0.21465103328227997,
		0.357953280210495,
		-0.4274781048297882,
		0.3920614719390869,
		0.30284449458122253,
		-0.1745920479297638,
		0.3975115716457367,
		-0.056750405579805374,
		-0.13794289529323578,
		0.3580067753791809,
		-0.19559188187122345,
		-0.4278961718082428,
		0.004960441496223211,
		0.2012588381767273,
		0.05663220211863518,
		-0.28622716665267944,
		-0.11506251245737076,
		-0.158564031124115,
		0.25984299182891846,
		-0.33684542775154114,
		0.1845162808895111,
		0.4244394302368164,
		-0.3690233528614044,
		0.4548403322696686,
		0.11894828081130981,
		-0.06197386234998703,
		0.3998055160045624,
		0.3729756474494934,
		0.14550530910491943,
		0.1310352385044098,
		-0.1301688253879547,
		0.27102774381637573,
		0.005389790050685406,
		-0.2172972708940506,
		0.157426118850708,
		0.018881915137171745,
		-0.001790691283531487,
		-0.3831033408641815,
		-0.06129371374845505,
		-0.11095868051052094,
		0.009669287130236626,
		-0.44317200779914856,
		0.28244319558143616,
		0.3711891174316406,
		-0.4183395206928253,
		-0.37694990634918213,
		0.26205238699913025,
		0.03462737053632736,
		0.3873365819454193,
		0.3907124698162079,
		-0.1245984360575676,
		-0.048241205513477325,
		-0.13147535920143127,
		0.4298931956291199,
		0.17860877513885498,
		0.22168202698230743,
		-0.146762877702713,
		0.1608867645263672,
		0.07954949140548706,
		0.3956001400947571,
		-0.06507709622383118,
		0.32987138628959656,
		0.4032091200351715,
		-0.013810282573103905,
		0.11848658323287964,
		-0.05251488834619522,
		0.3518461585044861,
		-0.31862592697143555,
		0.12506559491157532,
		0.13799366354942322,
		-0.4355368912220001,
		0.17590758204460144,
		-0.3135792911052704,
		-0.3311469554901123,
		0.3870464265346527,
		0.026682307943701744,
		0.3894440531730652,
		-0.31750625371932983,
		-0.16976775228977203,
		0.30867713689804077,
		-0.27070167660713196,
		-0.06201799586415291,
		0.039318546652793884,
		0.15254345536231995,
		0.32105275988578796,
		-0.22855190932750702,
		0.4065552353858948,
		0.09635341912508011,
		0.4327089786529541,
		0.05599332973361015,
		-0.1630873829126358,
		0.1703580766916275,
		0.35874247550964355,
		-0.3244501054286957,
		-0.15222397446632385,
		-0.2209469974040985,
		0.13966648280620575,
		-0.38651201128959656,
		0.3523349165916443,
		0.1857062429189682,
		0.192024827003479,
		0.4410899579524994,
		0.0881229117512703,
		-0.38082146644592285,
		-0.16391117870807648,
		0.4520793855190277,
		-0.16228629648685455,
		0.3676397204399109,
		-0.23559196293354034,
		-0.03941033408045769,
		-0.13328681886196136,
		0.035175226628780365,
		0.2483772337436676,
		-0.4084661900997162,
		-0.21674630045890808,
		0.43876296281814575,
		0.2776510417461395,
		-0.30454105138778687,
		0.079165980219841,
		0.4462631940841675,
		0.017980938777327538,
		0.41518455743789673,
		0.028964193537831306,
		0.40797147154808044,
		0.11255211383104324,
		0.3142654597759247,
		0.06657668203115463,
		-0.3231596350669861,
		-0.008072435855865479,
		0.3566320836544037,
		-0.07197929173707962,
		0.050645675510168076,
		-0.07373789697885513,
		0.2147885113954544,
		-0.3705298900604248,
		0.09133300930261612,
		-0.2280668318271637,
		0.15713541209697723,
		0.40709102153778076,
		0.3211233615875244,
		0.451785147190094,
		0.17686137557029724,
		-0.09588369727134705,
		-0.37693050503730774,
		0.21486800909042358,
		-0.22905097901821136,
		0.17855356633663177,
		0.0989098772406578,
		0.4281226694583893,
		0.3066156804561615,
		0.11699984222650528,
		-0.15411725640296936,
		0.304884135723114,
		0.009091929532587528,
		-0.36337196826934814,
		0.1194719448685646,
		-0.4040435254573822,
		0.2726092040538788,
		0.2144923061132431,
		0.12525835633277893,
		-0.18550865352153778,
		0.0721624493598938,
		-0.2325427085161209,
		-0.2624470293521881,
		0.06656274199485779,
		0.38511762022972107,
		-0.4522477686405182,
		0.07054408639669418,
		0.2739011347293854,
		-0.4282783567905426,
		0.03134319558739662,
		-0.25870829820632935,
		-0.39351657032966614,
		0.3897768557071686,
		0.24521398544311523,
		-0.07772193104028702,
		-0.28026083111763,
		0.20661567151546478,
		0.3286501467227936,
		0.05944006145000458,
		-0.2356467992067337,
		0.36728155612945557,
		0.4410076141357422,
		-0.32105228304862976,
		-0.28869229555130005,
		-0.2513030469417572,
		-0.3941611647605896,
		-0.3481549024581909,
		0.05007149651646614,
		0.15267667174339294,
		0.10749585181474686,
		-0.18841448426246643,
		-0.414546936750412,
		0.3837536871433258,
		0.31726208329200745,
		-0.27032697200775146,
		-0.2647153437137604,
		0.2933662235736847,
		-0.3350755572319031,
		0.26752474904060364,
		-0.37481898069381714,
		-0.0864620953798294,
		-0.08826855570077896,
		-0.17384016513824463,
		-0.10785098373889923,
		-0.39837706089019775,
		-0.020710963755846024,
		0.15943416953086853,
		0.41414675116539,
		0.17028973996639252,
		-0.03102010302245617,
		0.1645449846982956,
		0.3570828139781952,
		0.06302760541439056,
		-0.13565385341644287,
		-0.1481887549161911,
		-0.44814446568489075,
		-0.22181537747383118,
		0.0346880704164505,
		0.30186206102371216,
		0.1916765570640564,
		0.02787335403263569,
		0.1729835718870163,
		0.0934932753443718,
		-0.11383306980133057,
		-0.3076782524585724,
		-0.05851368606090546,
		-0.25139108300209045,
		0.4207340478897095,
		-0.3350065350532532,
		0.09685734659433365,
		0.3649008870124817,
		-0.10141832381486893,
		0.04124213755130768,
		-0.006801464129239321,
		0.11094773560762405,
		-0.14991995692253113,
		0.06060321256518364,
		-0.22250132262706757,
		-0.25255122780799866,
		0.0046713207848370075,
		-0.15756024420261383,
		-0.4396905303001404,
		0.3305254876613617,
		-0.39375269412994385,
		0.3465588092803955,
		-0.13671335577964783,
		0.20462247729301453,
		0.4140704274177551,
		0.4470352232456207,
		0.32534486055374146,
		-0.39464884996414185,
		0.36442553997039795,
		0.21302463114261627,
		-0.19370852410793304,
		-0.36787644028663635,
		0.15474453568458557,
		0.1285085827112198,
		-0.31652501225471497,
		0.023180443793535233,
		0.1594030112028122,
		-0.10871949046850204,
		-0.335349440574646,
		-0.3691256642341614,
		-0.19725632667541504,
		0.27042126655578613,
		0.14038652181625366,
		0.250570148229599,
		-0.012394140474498272,
		-0.057383257895708084,
		0.36688950657844543,
		0.3229406774044037,
		-0.26060763001441956,
		0.08466503769159317,
		-0.30072683095932007,
		0.10576153546571732,
		0.02974270097911358,
		-0.22142967581748962,
		0.3670753836631775,
		0.32689908146858215,
		-0.32658857107162476,
		-0.14137716591358185,
		-0.439177542924881,
		-0.3891630172729492,
		-0.3716858923435211,
		0.4398016333580017,
		-0.3992663621902466,
		0.18764443695545197,
		-0.09249658137559891,
		0.14640812575817108,
		0.05712367966771126,
		0.05198932811617851,
		-0.20310090482234955,
		0.07043947279453278,
		0.00646665645763278,
		-0.41800519824028015,
		-0.3973943591117859,
		0.03976559266448021,
		-0.2816709280014038,
		0.20630314946174622,
		-0.019606340676546097,
		-0.07076910138130188,
		0.3147604763507843,
		-0.19171211123466492,
		0.2706466615200043,
		-0.292829304933548,
		-0.1567690670490265,
		0.2810112535953522,
		0.14403295516967773,
		-0.20243091881275177,
		0.33745256066322327,
		-0.3985387980937958,
		0.17658160626888275,
		-0.14503003656864166,
		-0.1528695523738861,
		-0.11028096079826355,
		0.36655548214912415,
		0.16908413171768188,
		0.15770845115184784,
		-0.11380636692047119,
		0.1833721548318863,
		0.10843441635370255,
		-0.1135878935456276,
		0.32634979486465454,
		0.36096298694610596,
		-0.3415186405181885,
		-0.11300694942474365,
		-0.4142652750015259,
		-0.11194359511137009,
		0.36140501499176025,
		0.13577158749103546,
		-0.25443971157073975,
		-0.2510310709476471,
		-0.007536469027400017,
		0.4227677285671234,
		0.37395134568214417,
		-0.43066051602363586,
		0.25445863604545593,
		6.175613088998944E-5,
		0.16929073631763458,
		0.15369200706481934,
		0.1912442296743393,
		0.39548081159591675,
		0.2095542550086975,
		0.007238712161779404,
		0.3764214515686035,
		-0.14623434841632843,
		-0.11541133373975754,
		0.3629710376262665,
		0.04733056575059891,
		0.21732360124588013,
		0.38194510340690613,
		-0.24896739423274994,
		-0.10704558342695236,
		-0.06945638358592987,
		-0.2743130326271057,
		-0.24919436872005463,
		0.4346383512020111,
		-0.23580211400985718,
		-0.021753482520580292,
		-0.33885544538497925,
		0.11811909824609756,
		0.3237440586090088,
		-0.0012831498170271516,
		-0.14961890876293182,
		0.04933786764740944,
		0.1473303884267807,
		0.22165796160697937,
		0.18232296407222748,
		0.08093937486410141,
		-0.09030203521251678,
		-0.3271656632423401,
		-0.33271223306655884,
		0.26608872413635254,
		0.210651695728302,
		0.3396623134613037,
		-0.19820813834667206,
		0.4315571188926697,
		0.4344734847545624,
		-0.33374902606010437,
		-0.3141254186630249,
		-0.0603785365819931,
		-0.4303264915943146,
		-0.3328010141849518,
		-0.25726303458213806,
		0.3762015104293823,
		0.35765954852104187,
		0.43149614334106445,
		-0.319054514169693,
		-0.41842445731163025,
		0.20033249258995056,
		-0.056516628712415695,
		0.11538117378950119,
		-0.11653679609298706,
		-0.2653215825557709,
		-0.23162941634655,
		0.27713844180107117,
		-0.06505041569471359,
		-0.2859438359737396,
		0.17865030467510223,
		0.31146204471588135,
		-0.40548357367515564,
		0.2769443094730377,
		-0.2464616894721985,
		0.1975134313106537,
		0.24299256503582,
		-0.2388133555650711,
		0.38297730684280396,
		0.26397955417633057,
		0.2060684859752655,
		0.4474591314792633,
		0.006652831099927425,
		-0.39758917689323425,
		-0.07164645195007324,
		0.37337714433670044,
		-0.30708950757980347,
		0.3199654817581177,
		-0.3259834945201874,
		0.26776495575904846,
		0.30955418944358826,
		0.0934404730796814,
		0.31017443537712097,
		-0.40528225898742676,
		0.17833207547664642,
		0.4454739987850189,
		-0.41698145866394043,
		-0.253587543964386,
		0.2736727297306061,
		0.3928799331188202,
		-0.3972770571708679,
		-0.2717355489730835,
		-0.41629987955093384,
		-0.2974390685558319,
		0.34420058131217957,
		-0.3250916302204132,
		0.3955947458744049,
		-0.3142102062702179,
		0.1499783992767334,
		-0.08921696245670319,
		0.2409953624010086,
		-0.09077370166778564,
		-0.24725967645645142,
		0.09594447165727615,
		-0.057406436651945114,
		-0.10768662393093109,
		-0.2833330035209656,
		-0.4116583466529846,
		-0.36783960461616516,
		0.2921614944934845,
		-0.36371949315071106,
		0.17979592084884644,
		0.10186050832271576,
		0.17517082393169403,
		-0.07447457313537598,
		0.3401373326778412,
		0.3148244023323059,
		0.25919079780578613,
		0.03791939467191696,
		-0.17557373642921448,
		0.09702583402395248,
		0.008457884192466736,
		-0.448636531829834,
		0.09936478734016418,
		-0.3080291748046875,
		0.2946260869503021,
		-0.21871325373649597,
		-0.12069057673215866,
		-0.28638172149658203,
		0.01577991247177124,
		-0.1536121666431427,
		-0.4279625117778778,
		-0.3984282612800598,
		0.327779084444046,
		-0.267371267080307,
		-0.06023522838950157,
		0.03915024176239967,
		0.04034816101193428,
		0.0810827761888504,
		-0.13700760900974274,
		0.31037437915802,
		-0.2945801615715027,
		-0.19029587507247925,
		0.18712730705738068,
		-0.08957447856664658,
		-0.39404216408729553,
		-0.003071531420573592,
		-0.2807313799858093,
		0.21765615046024323,
		0.3991237282752991,
		0.17039987444877625,
		0.29281899333000183,
		0.3805168867111206,
		-0.22483357787132263,
		-0.3394891917705536,
		0.10701196640729904,
		0.013886131346225739,
		-0.19536302983760834,
		-0.08158782124519348,
		-0.4192667305469513,
		-0.340421199798584,
		0.17148077487945557,
		0.19671767950057983,
		0.38071608543395996,
		0.2543206810951233,
		-0.17411793768405914,
		-0.3475678265094757,
		0.13348214328289032,
		0.41099485754966736,
		-0.25916460156440735,
		-0.0043901423923671246,
		-0.3128291964530945,
		-0.24957656860351562,
		-0.07890912145376205,
		-0.16884955763816833,
		0.1660783737897873,
		-0.4457342028617859,
		0.03313109278678894,
		0.3486325442790985,
		0.16466233134269714,
		-0.3146107792854309,
		0.3448200821876526,
		-0.08727573603391647,
		-0.1355893313884735,
		0.22840064764022827,
		-0.018254155293107033,
		0.07157284021377563,
		-0.3952809274196625,
		0.35474517941474915,
		0.12446831166744232,
		-0.188756063580513,
		0.17747442424297333,
		0.11549350619316101,
		-0.3512626886367798,
		-0.09260346740484238,
		-0.24183307588100433,
		0.4440010190010071,
		0.05719723179936409,
		-0.03013787977397442,
		-0.10571465641260147,
		-0.1177251935005188,
		-0.3664420545101166,
		0.36450886726379395,
		0.18005205690860748,
		-0.12191475182771683,
		0.27636614441871643,
		0.22592602670192719,
		0.21001821756362915,
		0.06575695425271988,
		0.3943730890750885,
		-0.34104102849960327,
		-0.3024633824825287,
		0.2034641057252884,
		0.3974516987800598,
		-0.3061215877532959,
		-0.22111859917640686,
		-0.37214195728302,
		-0.42013901472091675,
		-0.43246886134147644,
		0.45155346393585205,
		0.3442364037036896,
		0.44985511898994446,
		0.11648762971162796,
		-0.05879394710063934,
		-0.4067825376987457,
		0.2718476951122284,
		-0.11410010606050491,
		-0.31202736496925354,
		0.3793143928050995,
		0.11978400498628616,
		-0.12523259222507477,
		-0.06984598189592361,
		-0.06702631711959839,
		0.44116514921188354,
		-0.22138579189777374,
		0.2553231716156006,
		-0.21061114966869354,
		0.44333702325820923,
		-0.21108028292655945,
		0.38205307722091675,
		-0.054919544607400894,
		-0.23984657227993011,
		-0.06747420132160187,
		-0.08913194388151169,
		-0.3669697046279907,
		0.4515090584754944,
		0.156327024102211,
		-0.03423945978283882,
		-0.13911525905132294,
		-0.005294006317853928,
		-0.35479599237442017,
		-0.02914174273610115,
		0.10782886296510696,
		-0.24800072610378265,
		-0.32460305094718933,
		0.26480984687805176,
		-0.1953245997428894,
		0.03513802960515022,
		-0.3755279779434204,
		0.2345074713230133,
		-0.22835589945316315,
		-0.0027092022355645895,
		-0.14710325002670288,
		-0.3714672029018402,
		-0.24113915860652924,
		-0.3963099718093872,
		-0.3846536874771118,
		0.21783822774887085,
		0.18004482984542847,
		0.27821850776672363,
		-0.42775246500968933,
		-0.21774543821811676,
		-0.15210644900798798,
		0.40087398886680603,
		0.2644292116165161,
		-0.4030021131038666,
		-0.11269034445285797,
		-0.09900400787591934,
		0.2766861021518707,
		-0.008557610213756561,
		-0.4090053141117096,
		0.04846860095858574,
		-0.2961187958717346,
		0.1275883913040161,
		0.2521962821483612,
		0.38820940256118774,
		-0.38498666882514954,
		0.2865701913833618,
		0.43793925642967224,
		-0.06744394451379776,
		0.19181154668331146,
		-0.3379139304161072,
		0.15573953092098236,
		-0.33209899067878723,
		-0.07853908836841583,
		-0.05926310643553734,
		-0.2413160651922226,
		-0.012714101932942867,
		0.2505965828895569,
		0.12058432400226593,
		-0.20104725658893585,
		-0.09614810347557068,
		-0.19009053707122803,
		0.40165776014328003,
		0.20705915987491608,
		0.15277814865112305,
		-0.05559029430150986,
		0.45188552141189575,
		0.25475284457206726,
		-0.4002905786037445,
		0.2722623646259308,
		0.2357940524816513,
		0.2892795503139496,
		0.226765975356102,
		-0.24882721900939941,
		-0.38077473640441895,
		0.2578983008861542,
		0.093575119972229,
		0.38853055238723755,
		-0.05422719568014145,
		-0.3733518719673157,
		0.07788009941577911,
		0.1605871170759201,
		0.25206688046455383,
		0.15001225471496582,
		0.26824867725372314,
		-0.08605480939149857,
		0.11482834070920944,
		-0.21356436610221863,
		-0.3183249235153198,
		0.23411543667316437,
		0.1711527705192566,
		0.3353433310985565,
		0.013558130711317062,
		-0.19382594525814056,
		0.265595018863678,
		-0.005605817306786776,
		-0.41662630438804626,
		-0.03131146728992462,
		0.24819914996623993,
		0.06076589971780777,
		0.4017281234264374,
		0.1772242784500122,
		-0.34898748993873596,
		0.03946242108941078,
		-0.11838649958372116,
		-0.3088216483592987,
		-0.13436077535152435,
		-0.16812966763973236,
		-0.3073727488517761,
		-0.04925553500652313,
		-0.37936124205589294,
		0.11845698207616806,
		-0.3016186058521271,
		-0.03341212123632431,
		-0.2299920916557312,
		0.05589117482304573,
		0.01215182151645422,
		-0.0057081980630755424,
		0.12481751292943954,
		0.3622698485851288,
		0.25311192870140076,
		0.24956505000591278,
		0.45342493057250977,
		-0.317463219165802,
		-0.32656580209732056,
		-0.1282714307308197,
		-0.43531665205955505,
		0.2686091661453247,
		0.28062674403190613,
		0.21997183561325073,
		-0.09307686239480972,
		-0.26037925481796265,
		0.10885956138372421,
		-0.44119688868522644,
		0.12434480339288712,
		0.33340951800346375,
		0.12880364060401917,
		-0.24451613426208496,
		0.2877364158630371,
		-0.42039090394973755,
		0.10187903046607971,
		0.370068222284317,
		-0.006223947741091251,
		0.17607319355010986,
		0.09091523289680481,
		0.11483309417963028,
		-0.44125649333000183,
		0.3072513937950134,
		0.3663589656352997,
		-0.4245207905769348,
		-0.31876271963119507,
		-0.447611927986145,
		-0.2682543098926544,
		0.010552685707807541,
		-0.03033684380352497,
		0.014538461342453957,
		-0.18067845702171326,
		-0.15586785972118378,
		-0.2754226326942444,
		-0.25409892201423645,
		-0.2831881642341614,
		-0.3890247046947479,
		-0.142348974943161,
		0.30591484904289246,
		-0.24255208671092987,
		0.19672182202339172,
		0.13821114599704742,
		0.3314064145088196,
		-0.314701110124588,
		0.24268829822540283,
		0.19600795209407806,
		0.07865924388170242,
		-0.4386385679244995,
		0.08020816743373871,
		0.3226426839828491,
		0.19823825359344482,
		-0.3973213732242584,
		-0.3857704997062683,
		0.10700303316116333,
		0.14659863710403442,
		-0.3074817359447479,
		0.11098369210958481,
		0.20445139706134796,
		0.1075349673628807,
		0.4102325141429901,
		-0.058438271284103394,
		-0.4486475884914398,
		-0.3171650767326355,
		-0.30994418263435364,
		-0.341879665851593,
		-0.03411747142672539,
		-0.2845766246318817,
		0.01729595847427845,
		0.10279542207717896,
		0.2772665321826935,
		0.3228702247142792,
		0.10803290456533432,
		-0.12750041484832764,
		-0.41104400157928467,
		-0.44460955262184143,
		0.045550376176834106,
		-0.32446885108947754,
		-0.005013621877878904,
		0.27085191011428833,
		0.20847786962985992,
		0.03301364555954933,
		-0.32760193943977356,
		-0.4524160325527191,
		-0.22344684600830078,
		0.10846671462059021,
		-0.4272225797176361,
		0.17513133585453033,
		-0.1232064962387085,
		-0.08697111159563065,
		-0.2653521001338959,
		0.41873064637184143,
		-0.4491070508956909,
		0.35385045409202576,
		0.4452986717224121,
		-0.07470418512821198,
		-0.13156689703464508,
		0.14420314133167267,
		-0.4364664852619171,
		0.06556904315948486,
		-0.3642495572566986,
		0.009527279064059258,
		-0.2707494795322418,
		0.3898458778858185,
		0.19077986478805542,
		0.0631578266620636,
		0.2809721529483795,
		-0.10150294750928879,
		-0.05016322061419487,
		-0.45053496956825256,
		-0.11908913403749466,
		-0.272284597158432,
		0.29429134726524353,
		0.054806891828775406,
		0.1998036503791809,
		-0.018874086439609528,
		-0.12160180509090424,
		0.20820721983909607,
		-0.16890816390514374,
		-0.3377743363380432,
		0.4275576174259186,
		0.13391590118408203,
		-0.08165545016527176,
		0.2864614427089691,
		0.3753037452697754,
		-0.06390885263681412,
		0.3890538811683655,
		-0.04614798724651337,
		0.08297465741634369,
		0.4094245731830597,
		0.3323914110660553,
		0.09728075563907623,
		-0.15703469514846802,
		0.29658058285713196,
		0.41251829266548157,
		-0.34697818756103516,
		-0.2848679721355438,
		0.1867160201072693,
		0.26511701941490173,
		-0.3430684208869934,
		0.10621244460344315,
		0.20992304384708405,
		-0.32208091020584106,
		0.23163942992687225,
		0.3030123710632324,
		-0.014138881117105484,
		-0.2732594311237335,
		0.19879145920276642,
		-0.15051880478858948,
		0.0782814547419548,
		-0.010986546985805035,
		-0.44929736852645874,
		0.09499558806419373,
		0.0389510802924633,
		-0.4500037133693695,
		-0.37377220392227173,
		-0.4185449779033661,
		-0.0572570264339447,
		-0.05683822184801102,
		-0.4387788474559784,
		-0.030517354607582092,
		0.0021550136152654886,
		0.22587788105010986,
		-0.43546223640441895,
		-0.4069577753543854,
		0.16521041095256805,
		-0.033628132194280624,
		-0.16206759214401245,
		-0.10708830505609512,
		0.2818288505077362,
		0.2565337121486664,
		-0.35813963413238525,
		-0.06241884082555771,
		-0.3167884647846222,
		-0.18335884809494019,
		0.2952519655227661,
		0.18181560933589935,
		0.13718242943286896,
		0.036553338170051575,
		-0.2687923014163971,
		-0.15164639055728912,
		-0.12769103050231934,
		0.151864692568779,
		0.22283445298671722,
		-0.37595334649086,
		-0.20105940103530884,
		0.19174474477767944,
		0.13483762741088867,
		-0.3002297878265381,
		0.4057379961013794,
		-0.06395842134952545,
		0.13383202254772186,
		0.062317218631505966,
		0.3948970437049866,
		-0.07488565891981125,
		-0.05705421045422554,
		-0.26687827706336975,
		0.15853872895240784,
		-0.08955136686563492,
		0.3928948640823364,
		-0.07310597598552704,
		0.2669454514980316,
		0.2521839141845703,
		0.4035854935646057,
		0.024169404059648514,
		0.02920660562813282,
		-0.1982918381690979,
		-0.06938355416059494,
		0.44571244716644287,
		0.15215812623500824,
		-0.09548363834619522,
		0.32173773646354675,
		0.013918714597821236,
