0.061228752
0.1532458
0.04836137
0.29329246
0.12072154
-1.0867624
0.6339501
-1.7312769
0.35281703
-0.23369731
0.07707069
-0.13587603
0.12552123
-0.23871006
0.15844244
1.1655476
0.44797814
0.4519052
-0.60170245
0.1477104
0.5419422
0.41431722
-0.09658794
-1.6870117
-0.96211267
0.02153682
0.17667006
0.72975427
0.19184697
-0.0915479
0.3267621
-0.3940604
-0.3128189
0.1484364
-0.2883797
0.43953085
0.22373384
-0.3599107
0.12137288
-0.1453189
0.23578751
0.23452507
-0.1984127
0.01769947
-0.2959322
0.039309002
0.03381422
-0.15540846
-0.18486717
0.2197293
-0.18257023
0.34014404
0.1487849
0.22166333
-0.30560648
-0.44763207
-0.34388566
-0.3426475
0.07095413
-0.12825918
-0.2201085
-0.30455437
-0.27763578
-0.013335441
0.3688282
-0.03168252
-0.11613847
-0.1446432
-0.40312812
0.15871084
0.1180968
0.20316541
0.047380436
0.15139733
-0.13136806
0.20869844
0.46084836
0.08514395
0.28819752
0.027420556
0.093279146
0.10276674
-0.016021915
0.20638774
0.18922919
-0.25951412
-0.27876088
0.08546026
-0.3782066
0.15441161
-0.16843665
0.3416614
0.082083024
-0.08437921
0.2783246
-0.008933925
-0.23300993
-0.05382788
0.019432792
0.573609
0.051689368
-0.025351105
-0.23828904
-0.077467576
-0.39808574
-0.2829444
0.23305762
0.20227668
-0.52743196
0.1569837
0.062097136
0.1430353
0.18551108
0.18145514
-0.34398156
-0.4147708
-0.46159682
0.42438668
0.14922191
0.10226992
-0.18900028
0.038760908
-0.057957526
-0.106012195
0.4170912
0.19406746
-0.28662914
-0.005447909
-0.17762107
-0.013797227
-0.10126822
0.5238448
0.27283454
-0.19490884
0.19068538
0.048631135
0.1266294
-0.24015151
0.025892189
-0.26986206
0.008977996
0.24002726
-0.09067728
0.37087944
-0.1676529
-0.30721056
0.30773264
1.1133306
0.061954767
-0.713049
0.6540038
-0.13880077
-0.030096615
0.06430691
0.06832709
0.46739924
-1.5496083
-1.0711443
0.5651313
-0.20241238
-0.024094595
-0.17249277
-0.22136356
-0.18090944
-0.42087495
-0.031648174
-0.21194091
0.4385043
0.06833468
0.08565581
-0.1773657
-0.27843633
0.76702905
0.18816583
0.19165835
0.14298691
0.0052841376
0.14051598
-0.12378532
-0.224202
-0.37078536
-0.016564088
0.026205689
-0.24575779
-0.15580438
0.12875096
-0.12164996
-0.011987312
0.02605196
-0.28357616
0.31518584
0.23974209
-0.09286453
0.29451954
-0.22239809
0.30717716
-0.15294828
-0.039759096
-0.039080083
-0.30251116
0.08809998
0.036591712
0.14457306
0.10372277
0.050758615
-0.12435703
0.3355303
0.14444883
0.027001752
-0.121033505
0.25402465
0.32392892
0.11574324
-0.37105834
0.19126365
-0.45055243
-0.18242076
-0.048139572
-0.12960857
-0.19115661
-0.3312931
0.09675969
0.19798267
0.32750547
-0.22759582
-0.3220377
-0.08359746
0.04971886
0.27125952
0.14868157
-0.088349074
-0.25433204
-0.055250127
-0.17383783
-0.1306533
-0.14332034
-0.16608539
0.18299496
0.2310863
-0.20584624
0.23296788
-0.23030913
0.2353084
-0.20160982
-0.14240925
0.02271248
-0.07010774
-0.11238882
0.022180483
0.22372425
-0.26241067
-0.025413383
0.2425891
0.13458267
0.25421917
0.29133254
-0.3831026
-0.26073387
-0.015451301
0.5166606
-0.06665046
0.20703045
0.11362813
-0.3462383
-0.05139134
-0.34988278
-0.37214133
-0.22960636
0.0073882444
0.23207912
0.04736292
-0.21563272
-0.36757994
0.10404429
0.3229246
0.7018549
-0.043038644
-0.22933981
-0.16956314
-0.35960844
-0.3699983
0.13063893
-0.03638756
-0.16978788
-0.65882117
-0.12148759
0.19759235
0.20082404
-0.12283093
-0.027378025
0.05574968
0.1954186
0.024624068
-0.13669915
1.0750518
-1.0143856
0.6826146
-0.19519116
-0.42214295
0.9725331
-0.28465095
-0.3867421
-0.2977404
0.17332935
-0.11681043
-0.12782778
-0.084670305
-0.119970955
-0.14147127
-0.09713805
0.028688423
-0.19907236
-0.79130715
1.3836175
0.10497586
0.9871033
-0.06539527
-0.2579282
0.1770132
0.14899684
